GIS
1
0.0
2
noArg
arg
3
694 0
2393 0 1
77 1
3164
chunkPathAndType=Life_follow_and
prevTokenAndType=Life_or
evTypeArg=Be-Born:you
evTypeArg=Transport:Monday,_July_4th
evTypeArg=Transport:Saddam
arg=S_Corp
chunkPath=follow_to_term_in_office_,_and_start_to_appoint
evTypeArg=Transport:American
prevTokenAndType=Life_against
evTypeArg=Marry:their
arg=Muslim
arg=ISRAEL
prevTokenAndType=Life_within
evTypeArg=Attack:government
chunkPath=follow_guilty_of_murder_and
evTypeArg=Attack:His
evTypeArg=Meet:Britain
prevToken=other
arg=street
arg=security_council
prevToken='
evTypeArg=Meet:her
evTypeArg=Die:officials
anchor=wartime/n
arg=s
arg=fighters
evTypeArg=Release-Parole:officer
prevToken=I
arg=k
prevTokenAndType=Life_he
chunkPath=follow_of_PERSON_(_1_)
prevTokenAndType=Movement_what
evTypeArg=Transport:Red_Banks
evTypeArg=Die:u.s
chunkPathAndType=Movement_precede_because_VEH_be
evTypeArg=Die:American
prevTokenAndType=Life_PROTECT
evTypeArg=Meet:him
arg=nuclear
prevTokenAndType=Justice_two
evTypeArg=Sue:who
prevTokenAndType=Justice_killed
prevTokenAndType=Conflict_people
evTypeArg=Meet:Iraqi
evTypeArg=Sue:customers
evTypeArg=Meet:Secretary
prevTokenAndType=Movement_Stash
arg=americans
arg=17-year-old
prevToken=worth
prevTokenAndType=Justice_wife
arg=firearms
prevTokenAndType=Conflict_all
prevToken=supporting
evTypeArg=Transport:border
arg=driver
chunkPathAndType=Life_follow_of_PERSON_(_2_)_ORGANIZATION_leader
evTypeArg=Die:their
prevToken=good
evTypeArg=Attack:authorities
arg=50
prevTokenAndType=Life_do
arg=Shiite
arg=Gen
evTypeArg=Transport:Saturday,_July_9th
prevTokenAndType=Life_an
evTypeArg=Demonstrate:they
prevToken=man
arg=Monday,_July_4th
evTypeArg=Transport:lawmakers
evTypeArg=Declare-Bankruptcy:they
prevTokenAndType=Justice_people
arg=Saturday,_July_9th
prevTokenAndType=Life_charged
arg=pool
evTypeArg=Transport:its
prevToken=lying.
chunkPathAndType=Conflict_follow_in_GPE_,
arg=Republicans
chunkPath=precede_think_PERSON_'s
arg=March_23
evTypeArg=Sue:once
chunkPathAndType=Conflict_follow_sky_and_boom_near_airport_kilometer_(_mile_)_from_heart_of
prevToken=those
prevTokenAndType=Life_Controversial
prevTokenAndType=Movement_told
arg=a_week
evTypeArg=Phone-Write:my
evTypeArg=Start-Position:you
evTypeArg=Convict:former
arg=myself
evTypeArg=Sue:buyer
prevToken=show
arg=apache
arg=conspirator
evTypeArg=Die:it
chunkPathAndType=Personnel_follow_to_term_in_office_,_and_start_to_appoint
evTypeArg=Be-Born:they
arg=NEW_YORK
evTypeArg=Start-Position:his
evTypeArg=Meet:President
chunkPath=precede_because_VEH_be
arg=Red_Banks
chunkPath=follow_to_term_in_office_,_and_start_appoint_to_cabinet_as
arg=spokesman
prevTokenAndType=Life_than
prevToken=Stay
arg=moments_ago
prevToken=bombs
arg=O'Neal
evTypeArg=Meet:its
arg=d.c
prevTokenAndType=Transaction_if
arg=night
evTypeArg=Declare-Bankruptcy:you
prevToken=considered
prevTokenAndType=Transaction_him
evTypeArg=Declare-Bankruptcy:your
chunkPath=follow_people_to_cabinet_as
prevTokenAndType=Movement_around
arg=AFP
evTypeArg=Attack:baby
arg=Pacific
prevTokenAndType=Conflict_US
evTypeArg=Transport:me
prevTokenAndType=Movement_friends
evTypeArg=Transport:my
chunkPathAndType=Life_precede_PERSON_have
arg=right_now
prevTokenAndType=Business_said
evTypeArg=Elect:they
prevTokenAndType=Life_then
arg=whose
prevToken=building
prevToken=did
prevTokenAndType=Transaction_because
prevTokenAndType=Contact_(
evTypeArg=Trial-Hearing:media
chunkPathAndType=Justice_follow_,
arg=human
evTypeArg=Attack:Saddam_Hussein
arg=Saturday,_July_2nd
chunkPathAndType=Life_follow_of_PERSON_(_1_)
arg=Tx
arg=UN
prevTokenAndType=Justice_murdering
evTypeArg=Transport:Tx
chunkPathAndType=Conflict_precede_be_to_percent_of_its
chunkPath=precede_first
evTypeArg=Convict:their
arg=Syrian
arg=His
evTypeArg=Be-Born:I
prevTokenAndType=Conflict_be
arg=Thursday,_July_7th
prevTokenAndType=Conflict_an
evTypeArg=Attack:bagdad_airport
arg=On
arg=July_4th_week
evTypeArg=Transfer-Ownership:its
arg=NY
arg=My
arg=Mr
arg=NJ
prevToken=rate...
chunkPath=precede_be_elect_to_term_in_office_,_and_start_to
prevTokenAndType=Conflict_do
chunkPath=precede_missile
prevTokenAndType=Justice_did
prevToken=cross
evTypeArg=Sue:fifty_cent
chunkPathAndType=Justice_follow_guilty_of_murder
arg=LONDON
chunkPathAndType=Justice_precede_,_have_be
evTypeArg=Die:palestinian
arg=It
chunkPathAndType=Life_precede_troop
evTypeArg=Elect:You
arg=buyer
prevToken=Controversial
prevTokenAndType=Personnel_say
arg=conglomerates
evTypeArg=Transport:Sunday,_July_3rd
chunkPathAndType=Life_precede_PERSON
prevToken=Stash
arg=Barghouti
evTypeArg=Phone-Write:his
prevToken=five
prevToken=us
arg=media
evTypeArg=Attack:army
prevToken=face
prevTokenAndType=Life_Famed
evTypeArg=Transfer-Ownership:their
prevToken=missiles
prevTokenAndType=Transaction_showed
evTypeArg=Meet:she
prevTokenAndType=Contact_'s
evTypeArg=Attack:pentagon
evTypeArg=Transport:Thursday,_July_7th
arg=cnn
arg=South_Korean
evTypeArg=Transport:British
prevTokenAndType=Conflict_being
evTypeArg=Trial-Hearing:their
II
chunkPath=precede_be_to_percent_of_its
evTypeArg=Die:them
prevTokenAndType=Personnel_are
prevTokenAndType=Movement_had
evTypeArg=Transport:our
prevTokenAndType=Movement_has
prevToken=reasonable
prevTokenAndType=Contact_over
prevToken='re
arg=director
arg=submarine
evTypeArg=Elect:my
synPath=object:troop:nameMod
evTypeArg=Transport:Saturday,_July_2nd
arg=Friday,_July_8th
chunkPath=follow_TO_otherName
prevToken=group
evTypeArg=Attack:americans
anchor=vote/n
chunkPathAndType=Justice_follow_guilty_of_murder_and
prevTokenAndType=Life_people
evTypeArg=Convict:his
evTypeArg=Sentence:jail
evTypeArg=Charge-Indict:former
evTypeArg=Attack:I
evTypeArg=Start-Position:I
arg=liberal
arg=expert
evTypeArg=Attack:Belfast
prevToken=putting
evTypeArg=Transfer-Ownership:city
arg=percent
anchor=Trials
evTypeArg=Be-Born:pool
evTypeArg=Convict:her
prevToken=resembling
arg=Sunnis
evTypeArg=Attack:American
prevTokenAndType=Life_wife
evTypeArg=Transport:Minister
evTypeArg=Transport:NYC
evTypeArg=Transport:police
prevToken=British
prevToken=constitute
prevTokenAndType=Justice_do
arg=widow
arg=Nazi
chunkPath=follow_and
evTypeArg=Convict:you
chunkPathAndType=Conflict_follow_be-over_,_but
prevTokenAndType=Life_was
prevToken=bus
prevTokenAndType=Conflict_Although
prevTokenAndType=Justice_releases
arg=Kan
arg=current
prevToken=PROTECT
evTypeArg=Meet:my
arg=cabinet
prevTokenAndType=Personnel_would
evTypeArg=Transport:officer
arg=allies
arg=islamic_jihad
evTypeArg=Die:Marine
prevTokenAndType=Conflict_?
evTypeArg=Attack:Chamchamal
prevTokenAndType=Conflict_A
evTypeArg=Meet:me
prevTokenAndType=Conflict_I
evTypeArg=Injure:we
evTypeArg=Transport:officers
arg=CNN
evTypeArg=Start-Position:that
prevTokenAndType=Life_Although
evTypeArg=Die:now
evTypeArg=Meet:it
chunkPathAndType=Conflict_follow_and
arg=British
evTypeArg=Transport:Republican_Guard
chunkPathAndType=Life_follow_TO_otherName
evTypeArg=Attack:Xinhua
prevToken=senior
prevTokenAndType=Conflict_(
prevTokenAndType=Conflict_not
evTypeArg=Meet:nuclear
prevTokenAndType=Life_toward
prevTokenAndType=Conflict_tell
arg=Minister
prevTokenAndType=Business_from
prevToken=Syrian
prevToken=opposition
prevTokenAndType=Business_a
prevTokenAndType=Justice_00
prevToken=first
anchor=childbirth/n
evTypeArg=Transport:July_4th_week
prevToken=some
prevToken=suits.
arg=Indonesian
menType=Contact-Info
chunkPath=follow_people_to
chunkPath=precede_be_elect_to_term_in_office_,_and_start_appoint_to_cabinet_as_member_like_PERSON_and_PERSON
prevToken=hold
prevTokenAndType=Life_man
chunkPathAndType=Conflict_precede_,_take_with_them_,_wear_throughout_much_of_period_,_talk_to_them_and_evening_,_issue_a_major_address_to_people_reguarding_end_of_major
evTypeArg=Die:leader
prevToken=developing
evTypeArg=Sue:their
arg=IAEA
evTypeArg=End-Position:current
evTypeArg=Transport:Iraqi
arg=American
prevTokenAndType=Conflict_one
prevToken=been
prevToken=releases
prevTokenAndType=Movement_some
evTypeArg=Die:I
chunkPath=follow_competitor_to_create_larger_and_conglomerate_as_be_visionary_cut-off
evTypeArg=Attack:Blair
chunkPath=follow_of_PERSON_(_2_)_ORGANIZATION_leader
anchor=World
evTypeArg=Attack:You
evTypeArg=Sentence:his
evTypeArg=Sue:president
chunkPathAndType=Personnel_follow_to_term_in_office_,_and_start_appoint_to
evTypeArg=Meet:Minister
evTypeArg=Meet:government
prevToken=officer
chunkPathAndType=Personnel_precede_who
prevToken=perspective
evTypeArg=Meet:South_Korean
arg=Robert
evTypeArg=Merge-Org:their
chunkPath=follow_at_FACILITY_in
arg=new
evTypeArg=Sue:they
evTypeArg=Attack:UN
evTypeArg=Injure:their
dist=32
dist=33
dist=30
dist=31
chunkPath=precede_leader_PERSON
prevTokenAndType=Personnel_under
dist=38
dist=39
dist=36
prevTokenAndType=Justice_have
dist=34
dist=35
evTypeArg=Attack:gov't
evTypeArg=Marry:who
dist=28
chunkPath=follow_near_airport_kilometer_(_mile_)_from_heart_of
evTypeArg=Attack:united_states
prevTokenAndType=Movement_Stay
arg=Secretary-General
arg=visionaries
prevTokenAndType=Contact_was
prevToken=friends
evTypeArg=Start-Position:coach
arg=itself
evTypeArg=Transport:Karbala
arg=ourselves
evTypeArg=Sentence:prison
arg=governments
prevToken=flashes
chunkPath=follow_sky_and_boom_near_airport_kilometer_(_mile_)_from_heart_of
evTypeArg=Transport:Jay_and_Silent_Bob's_Silent_Stash
chunkPath=precede_think
prevTokenAndType=Life_'re
arg=canal
evTypeArg=Die:Iraqi
arg=europeans
arg=Cabinet
evTypeArg=Die:ISRAEL
prevToken=its
arg=winners
prevToken=create
chunkPath=precede_Profit_distribution_and
anchor=filings/n
evTypeArg=Release-Parole:New_York
prevToken=wife
prevTokenAndType=Personnel_If
arg=mosul
prevTokenAndType=Personnel_about
dist=103
chunkPath=follow_be-over_,_but
evTypeArg=Charge-Indict:his
arg=President
prevTokenAndType=Personnel_because
arg=sources
arg=BAGHDAD
dist=109
prevTokenAndType=Business_--
arg=Jay_and_Silent_Bob's_Silent_Stash
anchor=acquisition/n
evTypeArg=Injure:I
evTypeArg=Attack:Americans
evTypeArg=Transfer-Money:us
prevTokenAndType=Movement_(
evTypeArg=Transport:which
War
evTypeArg=Convict:now
evTypeArg=Elect:Sunni
arg=columnist
chunkPathAndType=Personnel_follow_to_term_in_office_,_and_start_appoint_to_cabinet_as
evTypeArg=Transport:the_night
prevTokenAndType=Conflict_Famed
evTypeArg=Die:Baghdad
prevToken=Austin
evTypeArg=Meet:weapons
evTypeArg=Transfer-Money:their
chunkPath=precede_troop
prevTokenAndType=Conflict_believe
evTypeArg=Die:our
evTypeArg=Sentence:I
prevTokenAndType=Business_for
evTypeArg=Arrest-Jail:I
prevToken=treating
evTypeArg=Transport:Tuesday,_July_5th
chunkPathAndType=Conflict_follow_near_airport_kilometer_(_mile_)_from_heart_of
arg=House
prevTokenAndType=Business_off
evTypeArg=Attack:Kurdish
chunkPathAndType=Movement_precede_force
evTypeArg=Attack:24_hours
evTypeArg=Attack:itself
evTypeArg=Declare-Bankruptcy:S_Corp
prevTokenAndType=Personnel_believe
evTypeArg=Phone-Write:our
chunkPathAndType=Personnel_follow_people_to_cabinet_as
arg=new_york
prevTokenAndType=Life_(
evTypeArg=Trial-Hearing:you
prevToken=voted
evTypeArg=Attack:United_Nations
arg=Army
arg=Marine
evTypeArg=Transport:coalition
arg=Nam_Cam
prevTokenAndType=Personnel_(
prevToken=From
evTypeArg=Transfer-Ownership:now
arg=Sunday,_July_3rd
prevToken=bridge
arg=analysts
arg=Wednesday,_July_6th
prevTokenAndType=Conflict_From
arg=Tuesday,_July_5th
prevTokenAndType=Movement_But
evTypeArg=Attack:some
evTypeArg=Elect:clerics
arg=insider
evTypeArg=Meet:State
evTypeArg=Attack:AP
prevToken=For
arg=writer
arg=Oslo
chunkPathAndType=Movement_precede_-
evTypeArg=Meet:country
prevToken=troops
arg=editor
evTypeArg=Injure:now
arg=germany
synPath=object-1:think:subject
evTypeArg=Start-Position:President
anchor=Bankrupcy
prevToken=doubt
prevTokenAndType=Contact_what
evTypeArg=Attack:state
arg=1990
evTypeArg=Attack:security_council
evTypeArg=Die:which
synPathTypes=Life_PERSON_object-1:think:subject
evTypeArg=Die:Israeli
arg=24_hours
evTypeArg=Transport:artillery
arg=iraqi
prevTokenAndType=Conflict_But
prevTokenAndType=Justice_became
chunkPathAndType=Business_precede_Profit_distribution_and
dist=91
prevToken=brief
dist=85
dist=84
chunkPathAndType=Life_precede_leader_PERSON
chunkPath=follow_guilty_of_murder
prevTokenAndType=Life_but
chunkPath=precede_think_the
prevToken=Famed
evTypeArg=Die:you
dist=54
dist=52
dist=53
dist=50
dist=51
dist=59
dist=56
synPathEvType=Life_object-1:think:subject
evTypeArg=Attack:lebanon
dist=43
dist=44
dist=41
dist=42
dist=40
dist=47
dist=48
dist=45
dist=46
dist=76
dist=77
arg=al_qaeda
dist=72
dist=71
prevTokenAndType=Conflict_man
dist=79
evTypeArg=Transfer-Money:she
evTypeArg=End-Position:Bush
dist=65
dist=66
dist=63
dist=64
evTypeArg=Sue:winners
dist=62
dist=60
arg=Laci
arg=Criminal
arg=italian
evTypeArg=Attack:court
prevToken=accusing
arg=prisoners
evTypeArg=Sue:you
evTypeArg=Transport:Marine
chunkPathAndType=Life_follow_be
evTypeArg=Demonstrate:police
prevTokenAndType=Justice_remember
evTypeArg=Elect:their
prevToken=would
prevTokenAndType=Personnel_not
chunkPath=follow_,_but
prevTokenAndType=Personnel_was
evTypeArg=End-Position:we
prevTokenAndType=Transaction_what
prevTokenAndType=Justice_(
prevTokenAndType=Justice_-
prevTokenAndType=Justice_killing
evTypeArg=Transport:Army
evTypeArg=Transport:NJ
evTypeArg=Sue:public
prevTokenAndType=Justice_former
evTypeArg=Attack:Now
chunkPath=precede_in_the
evTypeArg=Transport:NY
evTypeArg=Sue:his
evTypeArg=Declare-Bankruptcy:their
chunkPath=precede_,_take_with_them_,_wear_throughout_much_of_period_,_talk_to_them_and_evening_,_issue_a_major_address_to_people_reguarding_end_of_major
evTypeArg=Die:PLO
arg=witnesses
arg=the_night
evTypeArg=Transport:On
prevTokenAndType=Justice_claims
prevToken=actually
prevTokenAndType=Movement_if
prevTokenAndType=Conflict_And
arg=NYC
arg=road
arg=FBI
arg=JAKARTA
evTypeArg=Attack:iraqi
prevToken=strong
evTypeArg=Attack:palestinian
arg=first_day
prevTokenAndType=Movement_Austin
prevTokenAndType=Conflict_than
evTypeArg=Elect:Iraqi
evTypeArg=Transport:weapons
evTypeArg=Attack:1990
chunkPath=precede_PERSON_be
anchor=suits
chunkPathAndType=Personnel_precede_be_elect_to_term_in_office_,_and_start_appoint_to_cabinet_as_member_like_PERSON_and_PERSON
prevTokenAndType=Life_are
prevTokenAndType=Contact_shape
arg=truck
evTypeArg=Elect:Sunnis
prevTokenAndType=Justice_The
evTypeArg=Die:my
prevTokenAndType=Life_said
chunkPath=follow_to_term_in_office_,_and_start_appoint_to
evTypeArg=Attack:street
prevToken=Just
evTypeArg=Marry:my
prevTokenAndType=Life_those
arg=Palestine
arg=California
prevTokenAndType=Personnel_''
evTypeArg=Attack:FBI
arg=KCNA
prevTokenAndType=Justice_rate...
arg=PLO
chunkPath=follow_,_and
prevTokenAndType=Justice_suits.
arg=Washington_Post
evTypeArg=Phone-Write:he
prevToken=under
arg=Virginia
arg=the_next_day
prevTokenAndType=Justice_out
evTypeArg=Transport:North_Korea
evTypeArg=Transport:Friday,_July_8th
evTypeArg=Attack:reporter
evTypeArg=Injure:they
evTypeArg=Attack:our
prevTokenAndType=Movement_brief
arg=Sunni
evTypeArg=Attack:KCNA
evTypeArg=Elect:people
prevTokenAndType=Life_into
arg=chairman
arg=themselves
evTypeArg=Attack:British
evTypeArg=Start-Position:cabinet
anchor=reunion/n
evTypeArg=Trial-Hearing:I
chunkPathAndType=Personnel_precede_be_elect_to_term_in_office_,_and_start_to
evTypeArg=Attack:judge
arg=Secretary
arg=once
evTypeArg=Elect:i
anchor=violence/n
prevToken=still
evTypeArg=Die:military
arg=everyone
evTypeArg=Die:submarine
prevTokenAndType=Justice_perspective
prevToken=Iraqi
arg=customers
arg=ones
arg=North
arg=Australia
arg=May_9
evTypeArg=Attack:NBC
arg=Kurdish
evTypeArg=Start-Position:new
evTypeArg=Elect:I
chunkPath=precede_force
arg=member
arg=both
anchor=Combat
prevToken=new
anchor=benefit/n
evTypeArg=Attack:President
arg=rest
evTypeArg=Transport:Wednesday,_July_6th
evTypeArg=Attack:official
evTypeArg=Merge-Org:he
arg=Canada
arg=Islamic_Jihad
evTypeArg=Attack:my
evTypeArg=Meet:official
evTypeArg=Transport:u.s
arg=al-Qaida
chunkPathAndType=Personnel_follow_people_to
evTypeArg=Be-Born:her
arg=Now
evTypeArg=Transfer-Ownership:my
prevTokenAndType=Transaction_off
evTypeArg=Attack:me
chunkPathAndType=Business_follow_,
evTypeArg=Attack:officials
prevToken=suspected
evTypeArg=Elect:his
arg=Xinhua
prevTokenAndType=Conflict_their
prevToken=Let
evTypeArg=End-Position:that
prevTokenAndType=Conflict_''
prevToken=seven
prevToken=showed
prevToken=made
evTypeArg=Sue:themselves
arg=clerics
chunkPath=precede_soldier
arg=Saudi
prevToken=being
evTypeArg=Attack:friend
arg=criminal
prevToken=fear
evTypeArg=Meet:you
arg=house
anchor=cease
evTypeArg=Transport:casualties
synPathEvType=Contact_subject
anchor=assassination/n
prevToken=appoint
arg=casualties
arg=republican_guard
prevTokenAndType=Life_on
evTypeArg=Die:Zigeuner
anchor=strike/n
prevTokenAndType=Life_of
arg=all
synPathTypes=Movement_PERSON_object
arg=women
evTypeArg=Injure:she
prevTokenAndType=Business_and
chunkPathAndType=Conflict_precede_be
chunkPathAndType=Life_precede_,
arg=doctors
anchor=advance
chunkPathAndType=Conflict_follow_to
arg=himself
chunkPathAndType=Justice_precede_be
arg=that_evening
synPathEvType=Justice_object
prevToken=hire
evTypeArg=Transport:they
anchor=push/n
eleven
chunkPath=follow_GPE
arg=China
arg=boat
evTypeArg=Transport:them
anchor=airstrikes/n
prevToken=strangled
evTypeArg=Die:soldier
arg=Mosul
arg=Basra
prevToken=Peterson
anchor=quit
evTypeArg=Attack:the_last_24_hours
chunkPathAndType=Life_follow_PERSON_and
anchor=deadly
arg=Bechtel
arg=minor
anchor=electoral
arg=Arafat
anchor=level
synPath=of
anchor=loan/n
prevTokenAndType=Life_so
arg=woman
arg=tomorrow
menType=Time
prevTokenAndType=Movement_their
evType=Life
prevToken=once
evTypeArg=Attack:currently
anchor=deliver
chunkPath=follow_between
arg=crew
prevTokenAndType=Life_to
synPathTypes=Conflict_WEA_object
arg=city
anchor=move/n
arg=Scott_Peterson
chunkPathAndType=Contact_follow_between
prevTokenAndType=Conflict_world
prevTokenAndType=Movement_say
prevToken=bombing
arg=the_past_hour
anchor=fund
arg=AP
prevTokenAndType=Contact_meet
prevToken=across
prevTokenAndType=Justice_with
evTypeArg=Attack:North_Korea
prevToken=though
prevToken=,
prevToken=said
arg=defenders
arg=10_days
prevToken=.
prevToken=-
prevToken=(
arg=Park_Hotel
noChunkPath
prevToken=)
prevToken=flee
arg=Tony_Blair
prevToken=/
arg=I
prevTokenAndType=Justice_since
anchor=abuse
evTypeArg=Die:son
prevToken="
prevToken=!
anchor=kidnap
prevToken=left
prevToken=The
chunkPathAndType=Conflict_precede_have
chunkPath=follow_to_try_to_persuade
evTypeArg=Attack:this_morning
prevTokenAndType=Conflict_so
anchor=funnel/n
arg=its
arg=yesterday
anchor=election
arg=i
anchor=summit/n
anchor=abuse/n
prevToken=:
arg=pilot
evTypeArg=Attack:world
prevToken=?
prevToken=A
anchor=birth/n
evTypeArg=Phone-Write:she
prevTokenAndType=Conflict_to
evTypeArg=Transport:hospital
anchor=create
synPathEvType=Justice_poss
anchor=rip
arg=Bali
prevTokenAndType=Transaction_out
anchor=contact
prevToken=a
evTypeArg=Die:american
prevTokenAndType=Conflict_from
evTypeArg=Attack:church
evTypeArg=Marry:she
evTypeArg=Attack:children
prevToken=only
evTypeArg=Start-Position:he
prevToken=When
chunkPathAndType=Conflict_follow_on
arg=somebody
prevTokenAndType=Movement_inside
chunkPathAndType=Movement_precede_try_to
evTypeArg=Meet:his
arg=camp
chunkPathAndType=Conflict_follow_of
anchor=murder
anchor=passage/n
evTypeArg=Attack:parts
anchor=dismemberment/n
arg=united_states
chunkPath=precede_PERSON
evTypeArg=Sentence:he
evTypeArg=Transport:that
chunkPathAndType=Conflict_precede_of
synPath=subject:force:nameMod
prevTokenAndType=Life_hospital
evTypeArg=Attack:military
arg=kids
prevTokenAndType=Life_is
prevTokenAndType=Life_in
prevTokenAndType=Movement_when
anchor=tell
arg=Senator
prevTokenAndType=Life_if
synPathTypes=Contact_PERSON_poss
anchor=drive
arg=border
anchor=assault/n
arg=Red_Bank
chunkPath=precede_have
anchor=firefight/n
arg=Gov
arg=bomb
evTypeArg=Attack:countries
anchor=remove
menType=LOCATION
anchor=rally/n
anchor=body/n
anchor=flee
arg=cleric
arg=reporter
chunkPath=follow_in_GPE_with
anchor=sail
prevTokenAndType=Conflict_killed
evTypeArg=Trial-Hearing:Scott_Peterson
arg=bunkers
anchor=begin
anchor=employ
chunkPathAndType=Justice_follow_by
evTypeArg=Transport:leader
anchor=alive
prevToken=using
arg=groups
anchor=e-mail
prevTokenAndType=Conflict_and
anchor=pick
prevTokenAndType=Conflict_whether
evTypeArg=Transport:president
prevTokenAndType=Life_about
evTypeArg=Elect:Gov
anchor=raid/n
arg=Omar_Sharif
chunkPath=precede_plan_to
arg=the_last_24_hours
chunkPath=precede_'s
evTypeArg=Attack:missile
prevToken=takes
evTypeArg=Die:journalists
anchor=marriage/n
prevToken=Leave
arg=family
evTypeArg=Meet:bush
prevTokenAndType=Movement_against
prevTokenAndType=Life_by
prevToken=sand
chunkPath=precede_'m
synPathEvType=Contact_poss
evTypeArg=Transport:we
anchor=cross
evTypeArg=Phone-Write:we
anchor=call/n
evTypeArg=Transfer-Ownership:you
anchor=turn
prevTokenAndType=Movement_and
prevToken=''
evTypeArg=Die:hospital
prevToken=where
prevToken='s
evTypeArg=Meet:Al-Douri
arg=coach
evTypeArg=Elect:country
anchor=lawsuit
arg=three
prevTokenAndType=Movement_near
prevTokenAndType=Conflict_are
evTypeArg=Phone-Write:us
chunkPathAndType=Conflict_precede_to
evType=Transaction
arg=creditors
prevToken=use
anchor=bomb/n
arg=defendants
arg=states
prevTokenAndType=Life_at
synPathTypes=Justice_PERSON_poss
arg=Northern_Ireland
chunkPathAndType=Justice_follow_in
prevTokenAndType=Life_as
prevTokenAndType=Life_think
anchor=incursion/n
arg=Kerry
anchor=lend
anchor=loss/n
arg=iraqis
chunkPath=precede_,
chunkPath=precede_-
prevToken=world
anchor=harm
chunkPath=precede_say_be
anchor=converge
chunkPath=precede_,_and
prevTokenAndType=Personnel_Cabinet
prevTokenAndType=Movement_because
arg=Police
prevToken=attack
arg=state
evTypeArg=Attack:Indonesia
arg=college
arg=commanders
arg=Germany
synPathTypes=Justice_ORGANIZATION_object
chunkPathAndType=Life_precede_be
prevTokenAndType=Personnel_fire
prevToken=says
arg=startups
prevTokenAndType=Life_had
prevTokenAndType=Personnel_the
evTypeArg=Declare-Bankruptcy:uncle
evTypeArg=Die:leaders
prevTokenAndType=Justice_the
anchor=elections./n
prevTokenAndType=Contact_from
arg=earlier_in_the_week
prevToken=became
menType=ORGANIZATION
prevToken=met
arg=poor
prevToken=--
anchor=have
anchor=found
prevTokenAndType=Personnel_retired
evTypeArg=Attack:its
arg=port
prevToken=have
anchor=goto
anchor=shell
arg=guys
anchor=reunite
evTypeArg=Attack:Wednesday
prevTokenAndType=Movement_--
evTypeArg=Attack:bombs
prevToken=00
prevToken=were
chunkPathAndType=Personnel_precede_be
arg=March_20
arg=ari_fleischer
synPathTypes=Justice_PERSON_nameMod
prevToken=paying
chunkPathAndType=Justice_follow_of
prevToken=lawyers.
arg=florida
anchor=shootout/n
anchor=injury/n
evTypeArg=Attack:place
evTypeArg=Meet:AP
anchor=tour/n
prevToken=But
evTypeArg=Transport:Sunday
arg=committee
evTypeArg=Transport:Niagara_Falls
evTypeArg=Transfer-Money:lawyers
prevTokenAndType=Movement_'s
anchor=become
chunkPathAndType=Movement_precede_and
chunkPathAndType=Movement_precede_will
evTypeArg=Attack:leader
evTypeArg=Transport:Northern_Ireland
evTypeArg=Transport:mosque
anchor=report
arg=son
evTypeArg=Attack:Bush
evTypeArg=Transport:Turkey
evTypeArg=Attack:al_Qaeda
evTypeArg=Trial-Hearing:court
synPathTypes=Conflict_PERSON_of-1
arg=he
evTypeArg=Attack:there
prevTokenAndType=Conflict_hit
prevTokenAndType=Transaction_on
anchor=letter/n
prevToken=believe
synPathEvType=Conflict_object-1:say:subject
arg=home
arg=some
anchor=speak
prevTokenAndType=Transaction_of
anchor=strike
prevToken=bomb
evTypeArg=Attack:people
anchor=suicide/n
evTypeArg=Die:he
arg=minister
prevTokenAndType=Movement_that
evTypeArg=Transport:outskirts
anchor=protest/n
prevTokenAndType=Conflict_over
evTypeArg=Phone-Write:I
arg=Sunday
anchor=open
arg=sons
evTypeArg=Start-Position:Who
chunkPathAndType=Personnel_follow_of
arg=photographer
prevTokenAndType=Life_that
anchor=clear
prevToken=call
evTypeArg=Transfer-Ownership:company
chunkPath=precede_could
anchor=stay
arg=Blair
prevToken=day
evTypeArg=Meet:Annan
anchor=conviction/n
evTypeArg=Attack:group
chunkPathAndType=Personnel_follow_in
arg=u.s
arg=Spain
arg=Belfast
anchor=step
prevTokenAndType=Conflict_before
prevTokenAndType=Personnel_know
synPathEvType=Conflict_subject
evTypeArg=Transport:people
evTypeArg=Start-Position:her
prevTokenAndType=Transaction_in
evTypeArg=Meet:Friday
anchor=divorce/n
evTypeArg=Transport:he
chunkPathAndType=Conflict_follow_between
prevToken=MARINES
prevTokenAndType=Life_for
arg=Aldouri
prevToken=Seoul
chunkPath=follow_from
anchor=sit
prevTokenAndType=Conflict_had
prevTokenAndType=Life_know
arg=demonstrators
prevToken=battle
prevTokenAndType=Conflict_has
evTypeArg=Transport:it
arg=soldiers
arg=she
prevToken=former
prevTokenAndType=Justice_because
prevTokenAndType=Movement_come
arg=automaker
arg=Iraqi
anchor=lose
evTypeArg=Transport:her
synPathTypes=Conflict_PERSON_poss
arg=doctor
prevTokenAndType=Justice_to
anchor=action/n
anchor=LAWSUIT
evTypeArg=Die:there
evTypeArg=Transfer-Ownership:I
evTypeArg=Injure:people
prevTokenAndType=Personnel_but
arg=six
evTypeArg=Attack:units
arg=murdering_his_wife_Laci_and_their_unborn_son
prevToken=reach
evTypeArg=Meet:Blair
prevToken=kill
prevToken=convicted
anchor=conference/n
evTypeArg=Declare-Bankruptcy:his
prevToken=more
prevTokenAndType=Personnel_like
prevTokenAndType=Justice_that
evTypeArg=Declare-Bankruptcy:him
anchor=set
prevToken=attacks
arg=Yates
anchor=invade
prevTokenAndType=Contact_a
prevTokenAndType=Transaction_by
prevToken=Mildred
arg=company
anchor=paralyze
prevTokenAndType=Contact_:
synPathTypes=Movement_PERSON_poss
arg=Baghdad
chunkPathAndType=Personnel_follow_as
prevTokenAndType=Transaction_at
arg=Annan
prevTokenAndType=Transaction_as
anchor=deport
arg=Karbala
chunkPathAndType=Business_follow_
prevTokenAndType=Transaction_an
prevTokenAndType=Contact_A
evTypeArg=Transfer-Money:them
chunkPathAndType=Personnel_follow_by
evTypeArg=Elect:them
prevTokenAndType=Life_In
prevTokenAndType=Contact_-
prevTokenAndType=Contact_.
prevTokenAndType=Contact_)
arg=Court
evTypeArg=Transfer-Money:they
prevTokenAndType=Contact_,
chunkPath=precede_try_to
prevTokenAndType=Contact_"
prevTokenAndType=Contact_call
chunkPathAndType=Contact_precede_plan_to
prevTokenAndType=Justice_give
evTypeArg=Attack:someone
evTypeArg=Arrest-Jail:people
chunkPathAndType=Conflict_precede_,
prevTokenAndType=Conflict_protect
arg=lawmakers
prevTokenAndType=Conflict_in
prevToken=over
prevTokenAndType=Conflict_is
arg=iran
evTypeArg=Die:mother
prevToken=top
arg=We
anchor=slaughter
anchor=election/n
arg=al_Qaeda
prevTokenAndType=Conflict_using
anchor=travel
evTypeArg=Transport:you
prevTokenAndType=Conflict_where
prevToken=perhaps
anchor=slaughter/n
evTypeArg=End-Position:who
arg=desert
anchor=air/n
chunkPathAndType=Personnel_precede_
anchor=bombings/n
prevTokenAndType=Justice_when
arg=airliners
prevToken='ve
evTypeArg=Transport:there
arg=iraq
anchor=bind
chunkPath=precede_,_have_be
evTypeArg=Sue:Bolivia
arg=You
arg=US
prevToken=company
prevToken=outside
prevTokenAndType=Justice_against
prevTokenAndType=Personnel_with
evTypeArg=Elect:president
anchor=delivery/n
evTypeArg=Die:US
prevTokenAndType=Conflict_of
arg=Estrada
arg=Wednesday
evTypeArg=Transport:him
prevTokenAndType=Conflict_on
prevTokenAndType=Conflict_or
evTypeArg=Transport:his
synPathTypes=Justice_ORGANIZATION_subject
synPathTypes=Conflict_VEH_subject
prevToken=And
arg=leader
evTypeArg=Die:U.S
arg=Douglas_Wilder
prevTokenAndType=Justice_sued
evTypeArg=Transport:We
prevTokenAndType=Life_when
chunkPathAndType=Life_precede_to
arg=network
prevToken=began
evTypeArg=Declare-Bankruptcy:company
menType=Age
evTypeArg=Transfer-Money:who
anchor=back
chunkPathAndType=Personnel_follow_to
anchor=pound
evTypeArg=Attack:iraqis
arg=island
arg=prosecutors
arg=Lincoln
arg=Britons
prevTokenAndType=Conflict_as
prevToken=n't
prevToken=let
prevTokenAndType=Conflict_at
arg=recently
arg=inmate
prevTokenAndType=Conflict_by
evTypeArg=Attack:their
evTypeArg=Transport:Seoul
evTypeArg=Attack:Iran
evTypeArg=Attack:Iraq
evTypeArg=Attack:soldiers
prevToken=two
prevToken=cut
evTypeArg=Attack:you
chunkPathAndType=Life_follow_in_a
evTypeArg=Transport:Iraq
arg=less_than_two-day
evTypeArg=Transport:Toronto
evTypeArg=Attack:planes
anchor=incident/n
anchor=lock
anchor=critically
evTypeArg=Transport:their
prevToken=behind
prevToken=led
anchor=talk/n
prevToken=second
anchor=campaign/n
evTypeArg=Transport:planet
synPath=object-1:say:subject
arg=Democrats
evTypeArg=End-Position:their
chunkPathAndType=Conflict_follow_the
anchor=waste/n
arg=Russian
arg=passengers
prevToken=promises
prevTokenAndType=Transaction_to
evTypeArg=Transport:Belfast
prevTokenAndType=Contact_and
arg=Hanh
chunkPathAndType=Justice_precede_
chunkPath=precede_have_be
chunkPath=follow_toward
prevTokenAndType=Life_died
anchor=precede
arg=hotel
prevTokenAndType=Justice_keep
anchor=run
arg=jury
evTypeArg=Transport:friends
evTypeArg=Trial-Hearing:judge
arg=reporters
anchor=fire/n
prevTokenAndType=Conflict_if
arg=2000
anchor=attend
prevToken=makes
chunkPathAndType=Movement_follow_from
arg=He
evTypeArg=Attack:many
prevTokenAndType=Personnel_when
prevToken=there
prevToken=to
prevToken=suing
prevToken=called
chunkPathAndType=Movement_follow_to
evTypeArg=Attack:weapon
arg=Niagara_Falls
chunkPath=follow_in
arg=judge
anchor=engage
prevToken=so
evTypeArg=Die:Israel
evTypeArg=Sue:companies
evTypeArg=Elect:candidates
evTypeArg=Arrest-Jail:him
evTypeArg=Transport:one
evTypeArg=Elect:we
anchor=gather
evTypeArg=Die:Paris
prevTokenAndType=Life_--
arg=people
anchor=trip/n
arg=Humvee
arg=helicopter
arg=artillery
prevTokenAndType=Conflict_saying
evTypeArg=Meet:You
prevToken=uh
evTypeArg=Die:civilian
prevTokenAndType=Personnel_appoint
evTypeArg=Transport:state
evTypeArg=Transport:soldiers
prevToken=up
synPathTypes=Movement_VEH_subject
anchor=ceremony/n
anchor=shoot
prevTokenAndType=Contact_''
anchor=grab
arg=tonight
arg=Marines
arg=Turkey
chunkPathAndType=Conflict_follow_in_GPE
arg=hometown
anchor=riot
evTypeArg=Die:those
prevTokenAndType=Conflict_left
prevTokenAndType=Personnel_what
arg=this_year
evTypeArg=Transfer-Ownership:bridge
prevTokenAndType=Conflict_right
prevTokenAndType=Conflict_said
chunkPathAndType=Contact_follow_
arg=business
prevTokenAndType=Life_including
chunkPathAndType=Movement_follow_on
arg=center
arg=friends
evTypeArg=Die:Yasser_Arafat
evTypeArg=Attack:warplanes
arg=army
arg=carrier
prevToken=faces
anchor=siege/n
evTypeArg=Phone-Write:her
anchor=race
arg=every_day
evTypeArg=Attack:Iraqi
prevToken=Cabinet
arg=lasers
arg=Netanya
prevToken=fire
chunkPathAndType=Transaction_follow_by
prevToken=their
prevTokenAndType=Life_''
evTypeArg=Demonstrate:protesters
evTypeArg=Arrest-Jail:he
arg=Israel
anchor=retire
evTypeArg=Transport:Spain
prevTokenAndType=Contact_between
arg=Dell
evTypeArg=Die:they
anchor=merge
arg=bush
evTypeArg=Arrest-Jail:they
arg=bagdad_airport
anchor=give
arg=Redwood_City
anchor=detonate
prevTokenAndType=Life_whether
arg=Stinnett
prevTokenAndType=Justice_So
chunkPathAndType=Movement_follow_into
anchor=poison
arg=Portugal
noSynPath
prevTokenAndType=Justice_are
evTypeArg=Start-Org:automaker
anchor=emailed
evTypeArg=Die:man
prevTokenAndType=Conflict_because
evTypeArg=Transport:some
chunkPath=follow_to
chunkPathAndType=Movement_follow_in
anchor=when
evTypeArg=Transport:home
anchor=striking
prevToken=from
arg=United_Nations
arg=John_Ashcroft
evTypeArg=Be-Born:she
evTypeArg=Start-Position:girl
evTypeArg=Attack:area
chunkPath=follow_of
evTypeArg=Meet:Seoul
synPath=nameMod
anchor=raid
evTypeArg=Arrest-Jail:you
anchor=start
prevTokenAndType=Justice_began
anchor=casualty/n
arg=Ocalan
evTypeArg=Attack:Israeli
prevToken=the
evTypeArg=Die:Jews
anchor=Fall
evTypeArg=Attack:divisions
chunkPath=precede_go_to
arg=ceo
anchor=pummeled
anchor=tie
anchor=pled
prevTokenAndType=Justice_and
prevTokenAndType=Conflict_out
arg=airline
evTypeArg=Die:men
arg=envoy
prevTokenAndType=Personnel_and
arg=Palestinians
anchor=the
chunkPath=follow_on
arg=enemy
evTypeArg=Phone-Write:you
anchor=suit/n
prevTokenAndType=Movement_carrying
evTypeArg=Die:sniper
anchor=reward
arg=life
prevTokenAndType=Conflict_about
anchor=execute
prevToken=fought
anchor=use/n
arg=wife
prevToken=charged
evTypeArg=Phone-Write:mother
anchor=convict
evTypeArg=Transport:airport
chunkPath=precede_for
prevTokenAndType=Justice_of
evTypeArg=Attack:civilians
prevToken=by
prevTokenAndType=Justice_or
anchor=appointment/n
prevTokenAndType=Justice_on
evTypeArg=Start-Position:Iraq
arg=car
evTypeArg=Attack:i
evTypeArg=Attack:police
prevTokenAndType=Conflict_allow
prevTokenAndType=Personnel_uh
evTypeArg=Meet:group
evTypeArg=Transport:New_England
prevToken=do
prevTokenAndType=Life_like
anchor=hearing/n
anchor=gathering/n
arg=BBC
anchor=terrorism/n
synPathTypes=Movement_VEH_object
evTypeArg=Attack:Marines
arg=members
anchor=slice/n
anchor=go
evTypeArg=Attack:country
anchor=battle/n
arg=capital
prevToken=he
chunkPath=follow_,_include
prevTokenAndType=Conflict_behind
anchor=drown
evTypeArg=Transport:United_States
anchor=follow
arg=Americans
prevToken=saying
evTypeArg=Transfer-Ownership:coalition
prevTokenAndType=Personnel_to
arg=egypt
anchor=resignation/n
prevToken=is
prevTokenAndType=Justice_he
anchor=approach
evTypeArg=Attack:saddam_hussein
arg=Most
anchor=it
prevToken=headed
anchor=jail
anchor=transfer
arg=protesters
anchor=flight/n
prevTokenAndType=Justice_if
prevTokenAndType=Contact_brought
prevTokenAndType=Business_in
prevTokenAndType=Justice_is
arg=washington
prevTokenAndType=Business_if
prevToken=if
prevTokenAndType=Conflict_...
prevTokenAndType=Justice_in
anchor=sentence/n
arg=planes
prevToken=in
arg=planet
anchor=dissolve
synPathEvType=Personnel_object
synPath=of-1
anchor=terror/n
chunkPath=follow_be
prevToken=sentenced
menType=VEH
prevToken=reason
prevTokenAndType=Business_to
prevTokenAndType=Conflict_got
arg=Schrenko
chunkPath=follow_by
arg=April_30
prevToken=since
arg=companies
arg=Today
chunkPath=precede_who
arg=Pittsburgh
arg=Peterson
anchor=throw
anchor=wound
evTypeArg=Die:where
prevToken=around
arg=here
anchor=do
evTypeArg=Attack:iran
evTypeArg=Attack:iraq
chunkPath=follow_at
arg=opponents
chunkPath=follow_as
prevTokenAndType=Contact_--
anchor=custody/n
evTypeArg=Transport:iraq
chunkPathAndType=Movement_precede_have_to
evTypeArg=Arrest-Jail:we
arg=public
prevTokenAndType=Life_surrounding
arg=grandmother
arg=vehicle
synPathEvType=Contact_nameMod
prevTokenAndType=Life_with
evTypeArg=Transport:i
anchor=explode
anchor=parole/n
arg=sniper
prevToken=me
prevToken=scuds
prevTokenAndType=Movement_with
prevTokenAndType=Business_up
evTypeArg=Start-Position:she
arg=your
evTypeArg=Transport:I
arg=president
prevTokenAndType=Personnel_that
prevTokenAndType=Justice_at
prevTokenAndType=Justice_as
anchor=merger/n
anchor=blind
synPathEvType=Transaction_subject
arg=area
prevTokenAndType=Justice_by
prevToken=towards
prevToken=of
prevTokenAndType=Business_on
prevToken=on
prevToken=or
prevToken=city
prevTokenAndType=Business_of
anchor=sue
arg=temple
arg=Kelly
evTypeArg=Die:coalition
anchor=discussion/n
anchor=be
evTypeArg=Transport:hospitals
evTypeArg=Attack:hotel
anchor=revoke
prevTokenAndType=Justice_an
prevToken=but
prevToken=bankrolling
arg=bus
anchor=buy
anchor=attack/n
evTypeArg=Arrest-Jail:police
prevToken=during
prevTokenAndType=Justice_suing
arg=Middle_East
synPathTypes=Conflict_GPE_nameMod
anchor=hear
evTypeArg=Attack:they
prevTokenAndType=Personnel_lost
prevToken=So
synPathTypes=Conflict_GPE_object
prevTokenAndType=Personnel_serving
prevTokenAndType=Contact_but
prevTokenAndType=Movement_Boston
chunkPath=precede_go_to_be
anchor=head
arg=force
anchor=shootings/n
arg=jails
synPathTypes=Movement_PERSON_subject
prevToken=time
prevToken=approaching
arg=prosecutor
arg=Britain
anchor=retreat/n
prevTokenAndType=Movement_get
evTypeArg=Transport:children
evTypeArg=Attack:them
evTypeArg=Attack:israeli
anchor=catch
arg=men
chunkPathAndType=Justice_follow_to
evTypeArg=Transfer-Money:I
evTypeArg=Meet:Washington
prevTokenAndType=Conflict_why
prevTokenAndType=Personnel_after
arg=Passover
arg=aircraft
prevToken=serving
prevTokenAndType=Justice_faces
chunkPath=follow_in_GPE
evTypeArg=Declare-Bankruptcy:he
evTypeArg=Attack:commander
evTypeArg=Die:today
anchor=head/n
prevTokenAndType=Transaction_--
prevToken=rally
evTypeArg=Attack:Fallujah
evTypeArg=Sue:Dell
prevToken=US
evType=Justice
anchor=pull
evTypeArg=Attack:that
prevTokenAndType=Conflict_a
evTypeArg=Meet:their
arg=Jews
prevTokenAndType=Contact_said
arg=leaders
evTypeArg=Elect:US
arg=father
prevTokenAndType=Movement_towards
arg=United_States
prevTokenAndType=Life_murdering
arg=Paris
prevTokenAndType=Transaction_and
anchor=death/n
arg=divisions
anchor=lob
chunkPath=precede_get
anchor=arrival/n
chunkPathAndType=Movement_follow_
anchor=bombardment/n
anchor=this
prevToken=people
evTypeArg=Die:palestinians
arg=man
arg=that
prevToken=want
arg=building
arg=organization
evTypeArg=Charge-Indict:court
evTypeArg=Sentence:they
arg=de_Lozada
anchor=ambush
evTypeArg=Phone-Write:they
evTypeArg=Transport:shrine
arg=She
arg=Chinese
synPathTypes=Justice_PERSON_of
arg=candidates
prevTokenAndType=Contact_have
prevTokenAndType=Business_,
anchor=drop
arg=head
anchor=come
prevToken=see
evTypeArg=Transport:government
prevTokenAndType=Business_:
arg=streets
prevTokenAndType=Business_.
chunkPathAndType=Contact_precede_
anchor=release
synPathTypes=Justice_PERSON_object
anchor=trial/n
evTypeArg=Start-Position:they
anchor=charge
synPathEvType=Life_subject
prevToken=hopes
anchor=visit/n
evTypeArg=Attack:today
evTypeArg=Attack:laser
prevTokenAndType=Conflict_"
prevTokenAndType=Movement_one
chunkPathAndType=Conflict_precede_
prevToken=saw
prevTokenAndType=Conflict_)
prevToken=say
chunkPathAndType=Life_precede_who
anchor=push
prevTokenAndType=Conflict_,
prevTokenAndType=Conflict_.
prevTokenAndType=Conflict_-
prevTokenAndType=Conflict_:
chunkPath=follow_
arg=they
arg=attendant
arg=U.N
anchor=recruit
evTypeArg=Attack:nation
prevTokenAndType=Conflict_was
chunkPathAndType=Justice_precede_will
arg=them
anchor=sell
arg=last_week
anchor=assault
prevTokenAndType=Justice_but
prevToken=between
arg=U.S
evTypeArg=Meet:we
evTypeArg=Attack:United_States
anchor=explosion/n
synPathEvType=Movement_object-1:make:subject
prevToken=``
prevTokenAndType=Business_out
prevToken=through
prevToken=actual
arg=almost_exactly_a_year_ago,_March_27
arg=Ernie_Pyle
anchor=send
evTypeArg=Transfer-Money:i
evTypeArg=Attack:bus
evTypeArg=Meet:us
anchor=bankrupcy
evTypeArg=Transport:today
chunkPathAndType=Movement_precede_
prevToken=bringing
arg=employees
anchor=capture
prevToken=an
prevToken=at
evTypeArg=Attack:whom
prevToken=as
evTypeArg=Attack:Iraqis
evTypeArg=Attack:artillery
chunkPathAndType=Personnel_precede_,
arg=missile
anchor=blow
prevToken=be
evTypeArg=Transfer-Ownership:him
anchor=lawsuit/n
arg=oklahoma_city
anchor=did
evTypeArg=Transport:now
evTypeArg=Transfer-Ownership:competitors
anchor=cost
evTypeArg=Convict:court
evTypeArg=Die:children
arg=marines
anchor=die
evTypeArg=Attack:aircraft
synPathEvType=Business_object
anchor=died
evTypeArg=Die:person
prevTokenAndType=Contact_the
prevTokenAndType=Conflict_against
prevTokenAndType=Transaction_from
chunkPathAndType=Conflict_follow_by
evTypeArg=Attack:u.s
evTypeArg=Attack:your
arg=last_October
arg=day
arg=complex
anchor=fold
anchor=hurt
prevToken=At
prevToken=As
evTypeArg=Transport:your
anchor=harm/n
arg=thousands
anchor=try
prevTokenAndType=Movement_brought
arg=Pentagon
prevToken=just
chunkPathAndType=Movement_follow_by
prevToken=Do
chunkPath=precede_be_on
anchor=murder/n
prevTokenAndType=Movement_between
anchor=journey/n
arg=Weldon
arg=Saturday
evTypeArg=Transport:troops
one
evTypeArg=Transport:here
anchor=liquidation/n
prevToken=ago
prevTokenAndType=Personnel_think
evTypeArg=Attack:here
evTypeArg=Elect:he
menType=FACILITY
arg=homosexuals
arg=journalists
chunkPathAndType=Transaction_follow_
arg=Fallujah
arg=which
synPathEvType=Life_poss
arg=Israelis
prevTokenAndType=Justice_If
chunkPath=precede_be_in
anchor=execution/n
synPath=object
prevTokenAndType=Justice_arrested
evTypeArg=Sentence:the_death_penalty
arg=organizations
prevToken=all
anchor=march/n
anchor=rape
evTypeArg=Transport:who
evTypeArg=Meet:them
prevToken=take
prevToken=within
arg=prison
chunkPathAndType=Justice_precede_,_be
evType=Contact
synPathEvType=Life_of
arg=herself
evTypeArg=Attack:troops
prevTokenAndType=Movement_take
prevTokenAndType=Conflict_says
anchor=arrest
arg=parents
evTypeArg=Transport:area
arg=173rd
arg=france
evTypeArg=Meet:10_days
anchor=penetrate
anchor=IT
prevToken=If
anchor=divorce
anchor=lay
prevToken=toward
prevToken=In
anchor=form
prevToken=meet
prevTokenAndType=Conflict_Israel
chunkPath=follow_in_GPE_,
evTypeArg=Meet:they
synPathTypes=Justice_PERSON_subject
arg=civilian
synPathTypes=Personnel_PERSON_subject
evTypeArg=Meet:people
evTypeArg=Injure:he
evTypeArg=Attack:groups
chunkPathAndType=Conflict_follow_in
arg=countries
evTypeArg=Transfer-Money:government
arg=february
evTypeArg=Meet:he
arg=civilians
evTypeArg=Transport:family
prevToken=evading
evTypeArg=Attack:regime
menType=Numeric
arg=corporation
prevToken=are
evTypeArg=Die:i
anchor=message/n
prevTokenAndType=Conflict_have
prevTokenAndType=Life_because
arg=Beijing
arg=two-day
evTypeArg=Transport:Yarmuk
arg=gov't
anchor=sentence
arg=mother
anchor=represent
arg=children
prevTokenAndType=Conflict_for
prevToken=any
evTypeArg=Sentence:him
anchor=forum/n
arg=Austin
prevToken=and
arg=North_Korea
anchor=knife
chunkPathAndType=Life_follow_because
arg=middle_east
prevToken=find
evTypeArg=Meet:North_Korea
chunkPathAndType=Transaction_follow_to
prevTokenAndType=Life_killing
prevTokenAndType=Contact_tell
arg=territory
evTypeArg=Attack:Saddam
arg=north
arg=warplanes
prevToken=On
evTypeArg=Attack:she
chunkPathAndType=Conflict_follow_against
prevTokenAndType=Movement_for
anchor=abandon
anchor=conflict/n
evTypeArg=Nominate:I
prevToken=fired
arg=hamas
chunkPathAndType=Conflict_follow_,
arg=whom
prevToken=thronged
prevToken=shape
anchor=cut
arg=officers
arg=thieves
evTypeArg=Attack:region
arg=two
anchor=lit
prevTokenAndType=Justice_say
evTypeArg=Attack:where
evTypeArg=Transport:where
anchor=that
arg=girls
prevTokenAndType=Conflict_think
evTypeArg=Die:who
prevToken=leaving
arg=the_death_penalty
arg=syria
anchor=protest
evTypeArg=Meet:president
prevToken=run
evTypeArg=Sue:Bechtel
anchor=choke
arg=Palestinian
menType=PERSON
menType=Sentence
evTypeArg=Demonstrate:people
anchor=charge/n
prevTokenAndType=Justice_getting
prevTokenAndType=Conflict_after
arg=tanks
anchor=land
evTypeArg=Merge-Org:competitors
prevTokenAndType=Justice_convicted
anchor=blast/n
evTypeArg=Sue:them
dist=10
dist=11
evTypeArg=Attack:Bali
evTypeArg=Attack:hamas
dist=18
dist=19
anchor=force
dist=16
dist=17
dist=14
dist=15
dist=12
synPath=subject
dist=13
prevToken=come
evTypeArg=Attack:US
chunkPathAndType=Contact_follow_to_try_to_persuade
arg=Thursday
prevToken=drop
arg=South_Korea
evTypeArg=Die:one
prevTokenAndType=Movement_through
prevTokenAndType=Movement_think
anchor=appeal/n
synPathEvType=Personnel_poss
prevToken=support
evTypeArg=Phone-Write:who
evType=Conflict
arg=Tugle
dist=37
prevTokenAndType=Contact_meeting
chunkPath=follow_GPE_,
prevToken=know
prevToken=arrested
prevTokenAndType=Conflict_while
prevTokenAndType=Justice_him
dist=21
dist=22
anchor=thrust
dist=20
prevToken=this
prevToken=destroyed
anchor=deploy
dist=29
dist=27
evTypeArg=Attack:now
dist=25
dist=26
dist=23
dist=24
anchor=release/n
arg=commander
prevToken=elected
prevToken=secure
arg=bridge
anchor=rape/n
evTypeArg=Marry:they
anchor=pardon
evTypeArg=Attack:who
anchor=fine/n
prevToken=including
evTypeArg=Elect:Lincoln
prevTokenAndType=Contact_if
arg=baghdad
prevTokenAndType=Contact_is
chunkPathAndType=Conflict_precede_get
evTypeArg=Attack:which
arg=units
prevTokenAndType=Contact_in
evTypeArg=Attack:We
synPathEvType=Conflict_object
chunkPathAndType=Life_precede_have_be
anchor=bankruptcy/n
prevTokenAndType=Conflict_The
anchor=buys
anchor=email/n
evTypeArg=Attack:Israelis
evTypeArg=Release-Parole:you
anchor=lawsuits/n
chunkPathAndType=Contact_precede_,
prevTokenAndType=Conflict_near
arg=Montgomery
evTypeArg=Transport:men
prevToken=then
arg=group
evTypeArg=Attack:city
prevToken=slaughtered
prevTokenAndType=Conflict_bombing
anchor=vote
chunkPath=follow_in_a
anchor=subsidy/n
arg=France
prevToken=principally
evTypeArg=Die:Arafat
prevToken=cost
prevToken=will
arg=everybody
prevToken=carrying
arg=Toronto
evTypeArg=Transfer-Money:he
prevToken=here
anchor=nab
anchor=appeal
arg=miami
prevTokenAndType=Contact_who
arg=headquarters
prevTokenAndType=Movement_saying
arg=sentence
prevToken=like
evTypeArg=Die:Americans
prevTokenAndType=Life_the
prevTokenAndType=Contact_``
chunkPathAndType=Justice_precede_have_be
synPathTypes=Life_PERSON_object
prevToken=continues
evTypeArg=End-Position:former
prevTokenAndType=Conflict_which
prevToken=leave
synPathEvType=Business_subject
prevToken=along
chunkPath=follow_GPE_and
arg=defendant
prevTokenAndType=Contact_as
arg=Ba'asyir
anchor=chat
prevTokenAndType=Contact_at
chunkPath=precede_,_be
arg=officer
arg=town
anchor=strangle
evTypeArg=Attack:journalists
chunkPathAndType=Movement_precede_be
arg=there
prevTokenAndType=Contact_be
prevToken=before
arg=State
evTypeArg=Attack:Washington
arg=courtroom
prevToken=sell
anchor=re/n
arg=Kut
chunkPath=follow_because
synPathEvType=Justice_nameMod
arg=homosexuality
arg=Saddam_Hussein
anchor=assassinate
evTypeArg=Arrest-Jail:who
anchor=bring
prevToken=brought
anchor=beat
prevTokenAndType=Contact_do
prevTokenAndType=Contact_by
arg=girl
anchor=clash
arg=seven_years
prevTokenAndType=Conflict_Iraq
anchor=shot/n
anchor=pay/n
arg=competitors
menType=Crime
menType=GPE
arg=israeli
arg=daughter
prevTokenAndType=Life_And
evTypeArg=Charge-Indict:him
prevTokenAndType=Transaction_the
arg=airport
prevTokenAndType=Movement_going
evTypeArg=Attack:missiles
arg=saddam_hussein
evTypeArg=Die:Iraq
arg=child
prevTokenAndType=Movement_from
arg=Iran
arg=Friday
evTypeArg=Attack:Ba'asyir
anchor=carry
prevTokenAndType=Contact_for
prevToken=with
chunkPath=follow_into
evTypeArg=Attack:rounds
anchor=escort
chunkPathAndType=Movement_precede_have
evTypeArg=Die:last_week
prevTokenAndType=Life_from
prevTokenAndType=Conflict_fight
arg=Iraq
evTypeArg=Transport:Boston
prevTokenAndType=Justice_--
anchor=convention/n
chunkPathAndType=Conflict_follow_in_GPE_with
anchor=telephone/n
arg=Al-Douri
arg=Yarmuk
arg=their
evTypeArg=Start-Org:government
evTypeArg=Attack:Basra
anchor=visit
anchor=picket
prevTokenAndType=Movement_)
prevTokenAndType=Movement_,
prevTokenAndType=Movement_-
evTypeArg=Convict:he
evTypeArg=Transport:Red_Bank
prevTokenAndType=Movement_"
evTypeArg=Attack:He
prevTokenAndType=Movement_:
prevTokenAndType=Movement_.
anchor=married
prevTokenAndType=Justice_once
anchor=genocide/n
synPathTypes=Movement_PERSON_object-1:make:subject
prevTokenAndType=Conflict_into
prevTokenAndType=Personnel_former
prevTokenAndType=Conflict_many
prevTokenAndType=Business_with
evTypeArg=Injure:one
evTypeArg=Attack:force
prevToken=discuss
arg=Monday
arg=Seoul
evTypeArg=Sentence:your
evTypeArg=Die:Iraqis
anchor=donation/n
evTypeArg=Transfer-Money:we
prevTokenAndType=Movement_a
anchor=300
evTypeArg=Attack:Republican_Guard
prevTokenAndType=Justice_'s
anchor=use
prevToken=persuade
evTypeArg=Attack:Kut
prevTokenAndType=Justice_until
anchor=collapse
dist=1
dist=2
arg=person
chunkPath=precede_will
dist=0
dist=5
dist=6
dist=3
dist=4
arg=Tuesday
arg=weapons
anchor=airdrop/n
sorties
prevTokenAndType=Life_since
arg=palestinian
anchor=fight
evTypeArg=Start-Org:country
arg=Chamchamal
arg=camps
anchor=mow
prevToken=hospital
arg=friend
arg=Associated_Press
arg=lebanon
evTypeArg=Convict:they
dist=9
arg=Kiichiro_Toyoda
anchor=contribution/n
dist=7
prevTokenAndType=Contact_of
dist=8
arg=this_morning
prevToken=electing
evTypeArg=Attack:Israel
prevToken=becoming
prevTokenAndType=Justice_got
prevToken=while
evTypeArg=Die:reporter
prevTokenAndType=Contact_on
chunkPathAndType=Life_precede_have
evTypeArg=Meet:Tuesday
prevTokenAndType=Contact_or
prevToken=maybe
anchor=interview/n
arg=Pakistan
chunkPathAndType=Justice_follow_
evTypeArg=Transport:capital
arg=folks
chunkPath=precede_would
chunkPath=follow_against
anchor=leave
arg=missiles
anchor=thrust/n
arg=relatives
evTypeArg=Attack:tanks
chunkPathAndType=Contact_follow_with
prevToken=lawyers
anchor=removal/n
anchor=battery/n
evTypeArg=End-Position:ceo
anchor=Drive
evTypeArg=Attack:bomb
evTypeArg=Meet:United_States
anchor=rehired
arg=palestinians
prevTokenAndType=Contact_to
prevToken=representing
prevTokenAndType=Justice_said
evTypeArg=Release-Parole:inmate
anchor=export
chunkPathAndType=Personnel_follow_
arg=troops
arg=jail
arg=explosives
menType=Job-Title
chunkPathAndType=Conflict_follow_for
prevToken=asked
evTypeArg=Attack:mother
arg=hospital
prevTokenAndType=Transaction_that
anchor=win
chunkPath=precede_,_PERSON
arg=weapon
prevTokenAndType=Movement_Leave
evTypeArg=Trial-Hearing:he
chunkPath=follow_the
synPathTypes=Life_PERSON_poss
prevToken=bring
prevToken=meeting
chunkPathAndType=Movement_follow_to_GPE_,
arg=Garner
arg=representatives
prevToken=girl
anchor=fire
arg=governor
arg=future
evTypeArg=Trial-Hearing:his
synPathEvType=Conflict_poss
prevToken=what
prevToken=murdering
prevToken=having
prevToken=which
prevToken=retired
arg=soldier
arg=bomber
anchor=enter
arg=NBC
anchor=face
anchor=wed
prevTokenAndType=Life_A
evTypeArg=Attack:saddam_international_airport
prevTokenAndType=Life_:
prevToken=sued
evTypeArg=Die:her
chunkPathAndType=Life_precede_
prevTokenAndType=Personnel_by
prevTokenAndType=Life_-
prevTokenAndType=Life_.
prevTokenAndType=Life_)
prevTokenAndType=Life_,
evTypeArg=Attack:George_W._Bush
evTypeArg=Meet:Wednesday
prevTokenAndType=Life_"
arg=bishops
prevToken=replace
evTypeArg=Marry:temple
anchor=unindicted
arg=Enron
evTypeArg=Transport:women
arg=Naxakis
chunkPathAndType=Life_follow_,
prevTokenAndType=Personnel_be
prevToken=his
prevTokenAndType=Life_say
prevToken=hit
arg=Bolivia
synPath=poss
prevTokenAndType=Life_a
prevToken=him
evTypeArg=Attack:american
prevTokenAndType=Personnel_at
arg=Yasser_Arafat
prevTokenAndType=Personnel_as
anchor=shape
anchor=indict
anchor=retreat
prevTokenAndType=Personnel_or
prevTokenAndType=Personnel_.
prevToken=died
prevTokenAndType=Personnel_-
prevTokenAndType=Personnel_,
evTypeArg=Attack:marines
chunkPath=precede_,_who
prevTokenAndType=Personnel_on
prevTokenAndType=Personnel_)
anchor=critical
arg=america
prevTokenAndType=Personnel_"
evTypeArg=Die:others
prevToken=you
evTypeArg=Transport:boat
prevTokenAndType=Personnel_of
chunkPath=precede_that
prevToken=how
arg=Saudi_Arabia
evTypeArg=Attack:woman
arg=five_life_sentences
evTypeArg=Phone-Write:home
evTypeArg=Injure:baby
anchor=airlifts/n
prevTokenAndType=Personnel_?
synPathEvType=Conflict_of-1
synPathTypes=Contact_PERSON_object
prevTokenAndType=Personnel_:
evTypeArg=Injure:others
anchor=battle
arg=last_year
arg=Bush
prevTokenAndType=Business_by
evTypeArg=Attack:home
arg=opposition
prevTokenAndType=Personnel_said
anchor=advance/n
anchor=relocate
anchor=control/n
prevTokenAndType=Personnel_a
prevTokenAndType=Justice_lawyers.
prevToken=force
arg=immigrants
evTypeArg=Transport:Basra
synPathTypes=Contact_PERSON_subject
evTypeArg=Start-Position:Bush
evTypeArg=Attack:men
prevTokenAndType=Conflict_give
prevToken=Falls
prevToken=reports
prevToken=person
prevToken=keep
prevToken=getting
prevTokenAndType=Conflict_across
arg=many
anchor=fall
anchor=elect
arg=militia
anchor=accuse
evTypeArg=Attack:president
prevTokenAndType=Personnel_in
chunkPathAndType=Movement_precede_,
anchor=bust/n
prevTokenAndType=Personnel_is
evTypeArg=Attack:baghdad
evTypeArg=End-Position:coach
prevToken=when
prevToken=give
anchor=meeting/n
prevTokenAndType=Movement_including
prevTokenAndType=Personnel_if
arg=base
prevTokenAndType=Conflict_when
arg=saddam_international_airport
anchor=occupy
anchor=fly
anchor=dribble
evTypeArg=Sue:court
anchor=former
anchor=provide
evTypeArg=Transport:city
prevTokenAndType=Conflict_use
evTypeArg=Attack:others
prevTokenAndType=Transaction_where
anchor=seize
anchor=sale/n
chunkPath=precede_won't
arg=who
arg=fifty_cent
anchor=appoint
arg=1988
anchor=jump
arg=1982
arg=1980
evTypeArg=Attack:U.S
anchor=traveled
arg=1998
arg=1999
arg=1994
arg=1995
prevTokenAndType=Conflict_what
arg=terrorists
anchor=airlifted
anchor=meet
arg=abbas
prevToken=fight
arg=pentagon
prevTokenAndType=Movement_Mildred
prevTokenAndType=Justice_where
anchor=warfare/n
arg=Colin_Powell
evTypeArg=Meet:Bush
prevTokenAndType=Business_gave
synPathTypes=Conflict_PERSON_object
arg=fbi
anchor=wound/n
anchor=steal
evTypeArg=Transport:day
anchor=take
anchor=steam
chunkPath=follow_when
anchor=talk
arg=secretary
anchor=bankrolling
anchor=gunshot/n
synPathEvType=Conflict_of
synPathTypes=Personnel_PERSON_object
evTypeArg=Transport:forces
prevTokenAndType=Movement_while
prevToken=hurt
anchor=way/n
arg=american
prevToken=sure
evTypeArg=Attack:man
anchor=hold
prevToken=targeting
prevToken=woman
evTypeArg=Injure:who
evTypeArg=Attack:weapons
prevToken=head
evTypeArg=Die:him
anchor=craft/n
evTypeArg=Die:his
prevTokenAndType=Personnel_for
anchor=airlifting
evTypeArg=Attack:forces
prevTokenAndType=Life_leader
prevToken=rejected
arg=Florida
anchor=march
prevTokenAndType=Transaction_with
arg=part
prevToken=protect
arg=now
menType=WEA
arg=mine
arg=rifles
chunkPathAndType=Movement_precede_to
evTypeArg=Die:hamas
anchor=attack
evTypeArg=End-Position:she
evTypeArg=Meet:U.S
prevTokenAndType=Movement_over
anchor=war
evTypeArg=Die:president
anchor=serve
evTypeArg=Release-Parole:his
evTypeArg=Meet:U.N
arg=sister
evTypeArg=Transport:man
evTypeArg=Transport:officials
prevToken=than
evTypeArg=Transport:Monday
prevToken=that
prevToken=Although
anchor=expel
prevToken=has
dist=58
evTypeArg=Elect:who
synPathTypes=Conflict_GPE_subject
evTypeArg=Marry:I
chunkPathAndType=Conflict_follow_from
arg=Zigeuner
evTypeArg=Meet:Iraq
prevToken=...
arg=court
prevToken=claims
prevToken=become
evTypeArg=Transport:U.S
arg=baby
prevToken=gave
evTypeArg=Sue:lawyers
prevToken=had
anchor=find
anchor=smuggle
anchor=ambush/n
prevTokenAndType=Business_that
prevTokenAndType=Contact_when
evTypeArg=Demonstrate:group
prevTokenAndType=Movement_where
arg=Republican_Guard
prevTokenAndType=Life_killed
arg=uncle
anchor=activity/n
chunkPathAndType=Life_follow_by
prevTokenAndType=Life_were
evType=Movement
chunkPathAndType=Movement_follow_GPE
prevToken=get
prevTokenAndType=Justice_before
arg=candidate
prevTokenAndType=Conflict_alongside
prevToken=out
anchor=future
arg=room
anchor=creation/n
prevTokenAndType=Life_have
synPathEvType=Movement_subject
prevTokenAndType=Justice_promises
evTypeArg=Attack:her
evTypeArg=Meet:I
evTypeArg=Transport:Bush
prevToken=capture
prevTokenAndType=Conflict_with
arg=families
anchor=bankrupt
chunkPath=follow_to_GPE_,
chunkPathAndType=Life_follow_
anchor=invasion/n
prevTokenAndType=Movement_toward
evTypeArg=Meet:i
anchor=continue
chunkPath=precede_say_the
anchor=uprising/n
evTypeArg=Attack:network
prevToken=Americans
chunkPath=follow_for
anchor=out
prevToken=many
prevToken=into
anchor=get
anchor=call
evTypeArg=Transfer-Ownership:weapons
arg=lawyers
anchor=donate
evTypeArg=Marry:he
prevTokenAndType=Movement_up
anchor=name
prevTokenAndType=Conflict_here
evTypeArg=Attack:him
evTypeArg=Attack:Baghdad
arg=nation
arg=gun
prevTokenAndType=Movement_to
evTypeArg=Attack:his
prevToken=sending
prevTokenAndType=Justice_was
synPathTypes=Transaction_PERSON_subject
anchor=bomb
arg=guy
arg=recent
anchor=marry
evTypeArg=End-Position:people
prevTokenAndType=Movement_so
arg=East_Timor
prevToken=means
prevToken=baghdad
prevToken=after
prevTokenAndType=Conflict_the
synPathEvType=Justice_subject
arg=someone
prevTokenAndType=Conflict_outside
arg=cities
evTypeArg=Transport:Pittsburgh
arg=militants
anchor=detain
prevTokenAndType=Conflict_but
prevTokenAndType=Conflict_during
anchor=arrest/n
evTypeArg=Transport:He
anchor=boom
anchor=pay
chunkPath=precede_PERSON_have
arg=texas
evTypeArg=Attack:terrorists
chunkPath=precede_and
evTypeArg=Die:people
evTypeArg=Attack:Palestinians
prevTokenAndType=Business_when
prevToken=During
arg=Vietnam
prevTokenAndType=Contact_that
anchor=destruction/n
arg=diplomat
chunkPathAndType=Conflict_follow_
anchor=wedding/n
chunkPathAndType=Life_follow_in
prevTokenAndType=Justice_)
prevTokenAndType=Justice_,
prevToken=visited
chunkPathAndType=Contact_follow_from
arg=London
prevTokenAndType=Justice_.
arg=william
prevTokenAndType=Conflict_scuds
prevTokenAndType=Conflict_charged
arg=Israeli
prevTokenAndType=Justice_:
anchor=destroy
evTypeArg=Meet:delegates
arg=They
anchor=friendly
anchor=born
arg=today
chunkPathAndType=Justice_precede_and
prevTokenAndType=Transaction_a
prevToken=pay
anchor=phone/n
arg=laser
anchor=kill
synPathEvType=Contact_object
arg=George_W._Bush
synPathEvType=Justice_of
evTypeArg=Meet:who
evTypeArg=Attack:facility
arg=team
arg=country
prevTokenAndType=Transaction_paying
anchor=traveling/n
prevToken=enter
anchor=e-mails
prevToken=three
prevToken=lost
prevToken=quick
anchor=combat/n
prevTokenAndType=Justice_which
anchor=atrocity/n
anchor=move
prevToken=got
evTypeArg=Meet:officials
chunkPath=precede_have_to
prevToken=Iraq
prevToken=Boston
arg=murder
prevToken=surrounding
anchor=torture
prevToken=allow
evType=Personnel
prevTokenAndType=Conflict_this
arg=officials
prevTokenAndType=Movement_said
chunkPath=follow_PERSON_,
arg=Oklahoma_City
anchor=acquire
prevTokenAndType=Movement_left
anchor=select
chunkPath=precede_of
synPathTypes=Life_PERSON_subject
prevTokenAndType=Conflict_In
evTypeArg=Die:regime
anchor=hit/n
chunkPathAndType=Life_follow_to
prevToken=about
prevToken=state
arg=site
prevTokenAndType=Transaction_"
arg=we
evTypeArg=Release-Parole:your
chunkPath=precede_and_PERSON
evTypeArg=Attack:part
anchor=fighting/n
evTypeArg=Be-Born:child
prevTokenAndType=Transaction_,
prevTokenAndType=Transaction_.
prevTokenAndType=Conflict_between
prevTokenAndType=Personnel_over
synPathEvType=Movement_poss
prevTokenAndType=Conflict_including
evTypeArg=Charge-Indict:who
evTypeArg=Attack:Netanya
arg=others
prevToken=leader
arg=us
chunkPath=follow_,
evTypeArg=Attack:terrorist
evTypeArg=Transport:Americans
anchor=cost/n
prevTokenAndType=Movement_do
arg=currently
chunkPath=follow_a
arg=husband
prevTokenAndType=Conflict_then
evTypeArg=Die:we
synPathTypes=Conflict_VEH_object
evTypeArg=Attack:tonight
prevTokenAndType=Movement_And
prevTokenAndType=Transaction_give
anchor=airstrike/n
prevToken=think
chunkPathAndType=Life_follow_of
prevTokenAndType=Life_where
chunkPath=precede_in
anchor=aid/n
prevToken=inside
arg=church
evTypeArg=Sue:i
arg=five_years
prevTokenAndType=Transaction_when
arg=Chalabi
prevToken=near
prevToken=off
prevTokenAndType=Conflict_cut
evTypeArg=Be-Born:he
evTypeArg=Transport:Baghdad
arg=our
anchor=nine
prevToken=shows
prevTokenAndType=Movement_be
anchor=award/n
anchor=receive
prevTokenAndType=Movement_by
anchor=retaliate
prevTokenAndType=Contact_saying
arg=Boston
arg=prince
arg=students
arg=delegates
anchor=clash/n
prevTokenAndType=Movement_until
evTypeArg=Transport:car
arg=own
anchor=killing/n
prevTokenAndType=Life_and
prevTokenAndType=Movement_at
prevTokenAndType=Movement_as
anchor=apprehend
chunkPathAndType=Movement_follow_toward
arg=where
anchor=war/n
arg=regime
prevTokenAndType=Contact_persuade
prevTokenAndType=Movement_or
phone
evTypeArg=Transport:Austin
synPath=object-1:make:subject
arg=agency
arg=region
prevTokenAndType=Movement_on
evTypeArg=Transport:center
prevTokenAndType=Movement_the
prevTokenAndType=Movement_of
anchor=Holocaust
prevTokenAndType=Personnel_The
prevToken=regulate
arg=forces
prevToken=took
arg=my
anchor=purchase
prevTokenAndType=Conflict_that
prevToken=striking
arg=New_England
arg=me
synPathEvType=Life_object
arg=shrine
evTypeArg=Start-Position:who
prevTokenAndType=Movement_have
evTypeArg=Meet:Pyongyang
anchor=mission/n
anchor=massacre/n
evTypeArg=Trial-Hearing:they
anchor=land/n
prevTokenAndType=Justice_from
anchor=one
anchor=front/n
anchor=fall/n
anchor=threat/n
arg=facility
anchor=launch/n
chunkPath=precede_be
anchor=bleed
prevTokenAndType=Life_second
prevToken=dumped
chunkPath=precede_say
arg=leadership
evTypeArg=End-Position:he
anchor=parachute
evTypeArg=Attack:center
prevToken=told
arg=one
synPathTypes=Life_PERSON_of
prevToken=one
evTypeArg=End-Position:I
evTypeArg=Die:civilians
prevToken=Israel
evTypeArg=Attack:They
prevTokenAndType=Conflict_top
prevTokenAndType=Movement_is
anchor=install
prevTokenAndType=Movement_in
arg=it
evTypeArg=Attack:leaders
chunkPath=precede_
evTypeArg=Transport:They
anchor=return
prevToken=entering
chunkPath=follow_with
anchor=disband
arg=authorities
chunkPathAndType=Conflict_precede_say
arg=Ohio
evTypeArg=Attack:airport
synPathTypes=Conflict_PERSON_subject
prevToken=right
arg=killing
prevToken=killing
evTypeArg=Attack:us
anchor=discuss
evTypeArg=Transport:enemy
prevTokenAndType=Life_hit
prevToken=way
evTypeArg=Die:country
arg=North_Korean
evTypeArg=End-Position:company
arg=those
prevToken=was
evTypeArg=Die:himself
arg=side
prevTokenAndType=Contact_with
arg=mosque
anchor=opposition/n
arg=Saddam
prevTokenAndType=Conflict_around
prevToken=going
prevToken=represent
prevTokenAndType=Conflict_say
arg=administration
evTypeArg=Attack:outskirts
anchor=write
evTypeArg=Start-Org:Iraq
evTypeArg=Transport:that_evening
prevTokenAndType=Life_how
prevToken=whether
prevToken=started
evTypeArg=Transport:country
arg=Michael_Kelly
synPathTypes=Movement_LOCATION_object
evTypeArg=Release-Parole:he
arg=Pyongyang
prevTokenAndType=Life_dumped
prevTokenAndType=Business_but
prevToken=why
anchor=sink
evTypeArg=Attack:capital
anchor=gunfire/n
anchor=capture/n
anchor=once
prevToken=who
evTypeArg=Transport:all
prevTokenAndType=Personnel_replace
anchor=hit
arg=station
prevTokenAndType=Justice_just
synPathTypes=Movement_GPE_object
evTypeArg=Injure:them
evTypeArg=Attack:Humvee
arg=israel
evTypeArg=Attack:we
arg=world
evTypeArg=Transport:Middle_East
synPath=object-1:have:subject
arg=anyone
prevTokenAndType=Movement_into
prevTokenAndType=Conflict_second
chunkPathAndType=Contact_follow_to
evTypeArg=Attack:side
chunkPathAndType=Personnel_precede_have
arg=official
prevToken=unless
anchor=Leave
anchor=hire
synPathEvType=Personnel_subject
anchor=Trial
prevToken=suicide
evTypeArg=Sue:it
evTypeArg=Attack:person
evTypeArg=Attack:coalition
evTypeArg=Transfer-Ownership:they
anchor=organize
synPathTypes=Conflict_GPE_of
chunkPathAndType=Transaction_precede_
anchor=launch
prevTokenAndType=Conflict_destroyed
prevTokenAndType=Personnel_--
prevToken=tell
chunkPath=follow_ORGANIZATION
arg=terrorist
prevToken=against
anchor=withdraw
arg=plane
evType=Business
prevTokenAndType=Conflict_fought
prevTokenAndType=Movement_but
arg=Jordan
prevToken=killed
prevTokenAndType=Movement_enter
anchor=close
prevTokenAndType=Personnel_from
evTypeArg=Die:troops
synPathTypes=Contact_GPE_nameMod
chunkPathAndType=Contact_follow_on
arg=hospitals
arg=rounds
arg=you
prevTokenAndType=Movement_sending
arg=environs
chunkPathAndType=Conflict_follow_GPE_and
synPathEvType=Conflict_nameMod
prevToken=for
anchor=replace
prevTokenAndType=Transaction_was
anchor=place
chunkPath=follow_PERSON_and
chunkPath=precede_may_have
prevTokenAndType=Personnel_'s
chunkPath=precede_to
evTypeArg=Attack:one
evTypeArg=Attack:helicopter
anchor=travel/n
anchor=hostility/n
arg=parts
evTypeArg=Elect:Bush
evTypeArg=Attack:members
evTypeArg=Die:crew
prevTokenAndType=Justice_find
arg=India
anchor=injure
anchor=nomination/n
prevToken=1995
arg=Kuwait
arg=his
arg=him
prevTokenAndType=Movement_Falls
arg=location
anchor=introduce
prevTokenAndType=Conflict_'s
prevToken=leading
evTypeArg=Attack:Britain
arg=Who
arg=coalition
anchor=indictment/n
evTypeArg=Attack:enemy
prevToken=kidnapped
anchor=reach
arg=Camp_David
arg=immigration_offenses
evTypeArg=Elect:you
prevToken=down
arg=Iraqis
chunkPath=precede_the
chunkPath=precede_say_have
prevToken=end
arg=Tikrit
evTypeArg=Transport:New_York
prevToken=vs.
arg=cars
prevTokenAndType=Conflict_--
arg=attorney
chunkPath=precede_want_to
evTypeArg=End-Position:his
prevToken=because
arg=Indonesia
arg=vehicles
anchor=dead
arg=her
evTypeArg=Attack:it
prevTokenAndType=Justice_a
anchor=talks/n
evTypeArg=Transfer-Ownership:that
anchor=fight/n
synPathEvType=Transaction_object
prevTokenAndType=Business_the
arg=brother
arg=police
chunkPathAndType=Transaction_precede_be
evTypeArg=Attack:he
chunkPathAndType=Conflict_follow_with
arg=victims
evTypeArg=Elect:Iraq
chunkPathAndType=Justice_precede_to
chunkPathAndType=Business_precede_
synPathEvType=Movement_object
chunkPath=precede_'ve
evTypeArg=End-Position:her
evTypeArg=Die:she
evTypeArg=Attack:opposition
arg=former
anchor=case/n
anchor=War
arg=nichols
evTypeArg=Attack:sniper
arg=Andrews_Air_Force_Base
anchor=demonstration/n
prevToken=until
arg=New_York
arg=Egypt
evTypeArg=End-Position:they
prevTokenAndType=Justice_for
arg=government
arg=military
prevToken=make
prevTokenAndType=Conflict_represent
anchor=demonstrate
prevTokenAndType=Movement_see
anchor=put
anchor=join
arg=outskirts
arg=bombs
evTypeArg=Elect:him
evTypeArg=Transfer-Money:you
prevTokenAndType=Justice_after
chunkPath=precede_who_be
prevToken=BEGALA
prevTokenAndType=Movement_visited
arg=sympathizers
anchor=unborn
prevToken=although
prevToken=alongside
arg=place
evTypeArg=Transport:she
anchor=convene
prevToken=not
prevToken=now
arg=militant
evTypeArg=Transfer-Ownership:it
evTypeArg=Transport:baghdad
chunkPathAndType=Life_follow_when
anchor=resign
arg=Washington
prevTokenAndType=Transaction_for
evTypeArg=Be-Born:baby
anchor=arrive
evTypeArg=End-Position:you
prevToken=remember
evTypeArg=Demonstrate:Iraqis
synPathTypes=Justice_GPE_object
chunkPath=precede_engage_in_major
prevToken=Trial
chunkPathAndType=Movement_follow_over
chunkPath=follow_on_charge_of
chunkPathAndType=Justice_follow_against
evTypeArg=Trial-Hearing:murder
arg=THOUSANDS
arg=nine_eleven
chunkPathAndType=Conflict_precede_engage_in_major
chunkPathAndType=Business_precede_to
evTypeArg=End-Position:minister
chunkPathAndType=Justice_precede_'s
prevToken=captured
synPathTypes=Transaction_ORGANIZATION_object
arg=banks
chunkPath=follow_over
prevToken=firing
chunkPathAndType=Personnel_precede_'m
chunkPathAndType=Movement_follow_back_to
evTypeArg=Die:THOUSANDS
synPathTypes=Personnel_ORGANIZATION_object
chunkPathAndType=Movement_precede_want_to
evTypeArg=Die:wife
evTypeArg=Transport:building
chunkPath=precede_didn't
chunkPathAndType=Conflict_precede_go_to
chunkPathAndType=Life_precede_'s
synPathTypes=Transaction_ORGANIZATION_subject
evTypeArg=Meet:tomorrow
synPathTypes=Transaction_PERSON_object
arg=hills
chunkPath=follow_back_to
synPathTypes=Transaction_WEA_object
arg=Sunday_morning
arg=silver_cross
chunkPathAndType=Life_follow_in_hospital
evTypeArg=Transfer-Ownership:forces
prevTokenAndType=Conflict_slaughtered
evTypeArg=Attack:hills
evTypeArg=Meet:leaders
synPathTypes=Conflict_FACILITY_object
chunkPathAndType=Justice_follow_for
chunkPath=precede_did
synPathTypes=Personnel_Job-Title_object
chunkPath=precede_who_have_be
synPathTypes=Business_ORGANIZATION_object
prevTokenAndType=Personnel_hire
evTypeArg=Attack:nine_eleven
prevTokenAndType=Justice_Trial
synPathTypes=Transaction_Numeric_object
evTypeArg=Die:soldiers
synPathTypes=Transaction_FACILITY_object
chunkPathAndType=Movement_precede_did
chunkPath=precede_might
synPathTypes=Conflict_WEA_subject
prevTokenAndType=Justice_including
chunkPathAndType=Contact_follow_in
evTypeArg=Attack:gun
chunkPathAndType=Contact_precede_'s
synPathTypes=Movement_FACILITY_object
synPathTypes=Business_ORGANIZATION_subject
synPathTypes=Personnel_ORGANIZATION_subject
chunkPathAndType=Justice_follow_on_charge_of
prevTokenAndType=Justice_get
arg=attackers
evTypeArg=Transport:journalists
chunkPath=follow_in_hospital
chunkPathAndType=Movement_precede_'ll
chunkPathAndType=Movement_precede_can
evTypeArg=Elect:government
chunkPathAndType=Justice_follow_with
synPathTypes=Justice_GPE_subject
chunkPath=precede_can
chunkPathAndType=Contact_precede_have
chunkPath=precede_'ll
0.8749845480619464
0.7684284563470355
1.4573546453494233
0.5373680375319287
0.7204201516922867
0.5555654429727694
0.30596304611206343
0.9649561396320242
1.2666288002755663
0.6787013769949923
0.9543867753830984
0.5871598285757073
0.8007198564787632
0.9564601735786099
0.4682257420303514
0.5104609966224505
0.38258130942727947
0.9593941490250265
1.1748766247295788
0.19922956599804129
0.6583596673068355
0.3287958134455284
1.0781293175592561
0.4457324688655973
0.8730401635813744
1.4410593475706748
0.7373349585957846
0.4540991873360146
0.9599330277890431
0.24873280508472037
0.5266015622553305
0.28057803936332254
0.7998938074335562
1.6773344020080398
1.2288725485572427
0.2758628979223259
0.5871598285757073
0.5639433653217794
0.857191025974834
0.8520452577260739
0.7536755680325257
0.8793928106449178
0.16231497725083482
0.3064942417882756
0.6833439847441927
0.6146100120136869
0.5927203613265563
0.8081554054685158
0.9020326494168549
1.0466050196080827
0.4212368066927345
0.773720883092683
0.8147798558171852
0.4672662461269734
1.3752516562875927
0.6796279763768857
0.3138173127334573
0.5318613756714835
1.2128424507707294
0.223094983842353
1.4428645621793394
0.21983695379416798
0.4087593685186532
1.1233514379532874
0.5518137391999229
0.3758317193695166
0.6943419778781337
0.6724175737453965
0.5373680375319287
0.7733754754689969
0.49981617421857544
0.3790964242459254
0.5518137391999229
0.8840642302792695
0.9792428121324245
0.3578113452446418
0.22792712701245688
0.7263969112162475
0.5374538774047599
1.1378603892651027
0.8153715106359036
0.4578304372925321
0.14659564003619935
1.262569811006062
0.5150902501044056
0.4986421674841006
1.217439620317764
0.570946885962455
0.4838990134502206
0.36403946361798606
0.7361962598602604
0.5909090196305136
0.5666688929953958
1.841000570491056
0.976092494571439
1.043748373295275
0.30596304611206343
1.207942580189343
0.583947971829846
0.38612710132025363
1.551363442899316
1.2288725485572427
0.7998938074335562
0.3540373073194085
0.9446261339694384
0.6886845877742552
0.5841059357380413
1.311200860809867
0.4445406030442333
1.135387579975894
0.5074302839726308
1.3749558609970047
0.7392629633866845
0.8143813965539629
0.6538654047661271
0.9071181240716958
0.5682585165934455
0.39526554672891395
0.4768908690309717
0.3552350478140778
0.3019395665147165
0.5429302876594426
1.5137702616320525
0.5118759482251464
0.5539424269424655
0.5903977014019608
0.30768034470280603
0.5991605901963052
1.3468462563775734
0.6059061940946227
0.8013817388298677
1.3856631095119578
1.1057857592733058
0.8105478783353613
0.6982005468134971
0.4039017532356098
0.25977404505848056
0.40475591749622825
0.849953895740038
0.9776364613640796
0.30708983858582917
0.9019297735336079
0.5266015622553305
0.631101253357487
0.479746202088672
0.38196920219476016
0.631101253357487
0.9047770412864043
0.9270000165770831
0.5168611699359116
0.7959241742909023
0.648129972177343
0.5056648269583962
0.8388420030819761
0.2533540630705598
0.49578377581490823
0.5785356971129145
0.5089479388433497
0.5587062910790044
0.18216725284909777
0.6155583404598481
1.2991985447285372
1.0511070169434673
0.6421682405043021
0.3321085860802739
0.281812050269418
1.0591310879709768
1.1778111952255197
0.5503359689820674
2.685184319463974
0.5802470535535432
0.35471526254778557
0.4215999548256026
0.8319759189711596
0.7741033564512416
1.0445670506004971
0.8219881154332641
0.3782229830438188
0.6373038305605376
0.5150902501044056
1.0591942820391824
0.98262162331152
0.4107663361514759
0.33046115205172044
0.5927203613265563
0.9382015097507262
1.3988264279053728
0.7519535766201713
0.4088308341731174
0.9504773333712281
0.7658056296227445
1.0972849463016967
0.7746853547769644
0.4423703331030043
0.18850782281298073
0.4015374149256467
0.7789577378004788
0.7149568629806414
0.8090410275243876
0.2533540630705598
1.3229015666264976
1.0842458874817937
0.7029058428267031
0.38670011004461163
0.2949494827808846
0.5350866149082544
0.9047770412864043
1.548946769067397
0.6832952627353305
0.6995681256646575
0.31044950799579013
0.6550360149009729
0.5981157124461765
0.8302649175923643
0.4427959287189367
0.8799441525904039
1.1745094114944088
0.20166755777409698
0.7762413978760014
0.9019297735336079
0.5927203613265563
0.5871598285757073
0.6636419365047131
0.8081554054685158
0.7629119409630749
0.4682257420303514
0.5900819171096572
0.45820360447389513
0.6288364707716517
0.2516215521826809
0.3767971560057728
0.874564885166419
0.7733423471963126
0.9789730146418926
0.1771418906831885
0.4739364689558362
0.5889406093855462
1.1040011264969762
1.1374361107242474
0.9792428121324245
1.6731814178420126
1.937657123984134
0.5352080413288663
0.6782656564998989
2.2188207475743997
0.6673719917952751
0.8307616308609768
0.3052758467852929
0.3898449285820544
0.9208617547327785
0.21334981923777638
0.6270358792091941
0.6000366679645417
1.1183922549007783
0.37255317683581407
0.9358982029801978
0.5368265158916876
1.5885941751329893
0.36688947476928857
0.45714334412233
0.9700210297954437
0.8564265564232505
0.5871598285757073
0.19777896268057127
0.7523839494922888
0.880081925773476
0.4410104159225609
0.8830617464771905
0.48128294130650456
0.9888965081345721
0.505679118426723
0.6042785174327054
0.963026751098011
0.32034798114300134
0.42042335640585005
0.45960678083640616
0.4713843544407342
0.9772596841211006
0.610697777522496
0.47834236274806674
0.4645139099746862
1.2967464198604772
0.981448297497608
0.7619869595159688
0.7959016543576208
0.5871598285757073
0.1565942311695753
0.6658667713494651
0.1657757355789936
1.0936597811256672
0.9378442143066266
0.57383229469036
0.5697686297253389
0.9992326543254371
1.1138217880425063
1.0011153447055616
1.537727392479632
0.6394612825161469
1.005507710113234
0.3065448337552669
0.4961879061097389
0.5587062910790044
0.6796284160768601
0.22095752971473975
1.428196573843032
1.0463179995786465
0.31436432406564513
0.27333313515801205
0.5669209202686729
0.38863937318837866
0.16860113740050284
0.39698344076707
0.3654243511963869
0.21938060463046755
0.41591750179172066
1.1732555539974883
0.30217025483618376
0.8528098442225538
0.5860287592362081
1.9479350567305134
0.4544339612148413
0.2875247300399848
0.510032928085476
0.1594320832019766
0.260741536967762
0.3138173127334573
0.5350866149082544
0.46304471097175226
1.5116385341137926
1.0118909056779477
0.20344875112647479
1.46943160268618
1.0300942651817033
0.9305957856918857
1.6009080453465343
0.5768946704436886
1.605341992273312
0.5981157124461765
0.2989547074991621
1.740673257563604
1.0210416787203958
0.31599550933757303
0.42701261163640375
0.5173150248400753
0.9549314249458213
0.7900106582740614
1.0572256705375698
0.8887002367997516
0.5743781790742221
0.5980850356301378
0.7558573922338289
0.590645772555663
0.6492306170705774
1.6831370797256358
0.6127419574367863
0.6606649170082749
0.32932198385676764
0.3991847781931705
1.0467087920198284
0.18736925252616535
0.9307434796026751
0.5841059357380413
1.5153200650091494
0.5051295081115619
0.7419946119308191
0.5903977014019608
1.6375352464671997
0.9340123280781373
0.4674096550368206
0.9430541517429236
0.6675047583953592
0.7642428079338338
0.32787135608649376
0.14659564003619935
0.7123163991430673
0.4760476734229248
0.27680761918658636
1.075241018044208
0.3514304414584685
0.27428088282348106
1.7767305887435667
0.5871598285757073
0.9424159636295146
0.5768946704436886
0.8796491913996339
0.5555654429727694
0.7993161601631659
0.4732046318320723
1.2161796823162758
0.34298799728748675
0.47701939501101204
1.0178987228118244
0.48486842721433127
0.9358982029801978
0.5718972215836129
0.7814701579342709
0.9306691593103164
0.6714432281540481
0.8785525727096082
0.6497402546561186
1.0491652738016706
0.7123163991430673
0.5122833131402779
0.4687217539839986
0.9822268547984196
0.6321043757964523
0.28140915218140716
0.3023757278564249
0.5350866149082544
0.30100851170678133
0.47816971182148615
0.6223038724102488
0.3540373073194085
0.6840831387030827
0.45242241428051644
0.7756589047577934
0.6108198249217841
0.8744718863212195
1.170625066300497
1.1668205720041886
0.22245214452088286
0.34166324304106266
0.6004016532692293
0.9258680672482172
0.27870452898533504
0.5256294473438087
0.6438098748742586
0.18736925252616535
0.7151583706305855
0.1950619319796411
1.0235558607247668
0.6849298659927351
0.5508648141585042
0.4486260706883404
0.5555654429727694
0.6294981491825937
0.6554632041096217
0.4768908690309717
1.3456356323999383
0.2232984772160482
0.6037005395092866
1.520006754849496
0.6083298643643981
1.217964084945114
1.248871654271598
0.6749290277679196
0.9897708492614252
0.13785333313993317
0.8025557089073931
0.4957299364721554
0.4107663361514759
0.2967426835143507
0.9158351908661126
0.27052286427528827
0.9716668559372633
0.6438098748742586
0.4494059465983614
0.35799419733073157
0.47503929713294824
0.7878501760086773
0.3270042599174526
0.1527401243866464
0.7990544679368553
0.41306570439074103
0.25419009161905687
0.8752193474980531
0.4985033611837139
0.9993045516756656
0.4244825843782996
0.45358945712980886
0.7938486889730664
0.5498825256499693
0.6766325644457273
0.5555654429727694
0.5889675062240918
0.3121156776937915
0.7107079249677184
0.9000191698124184
0.20804460534369065
0.46522717917209916
0.4443836142905073
0.30251986650696705
0.5508648141585042
0.44513685525528407
1.0631540322065127
0.49154967620920326
1.0117493616170568
0.5555654429727694
0.5517801728455322
0.697902947974632
0.7692473754806377
0.8102563112339957
0.5743781790742221
0.35471526254778557
0.7058740117311512
0.8165468959122606
0.6116129277030421
0.606545792207975
0.8751577318829397
0.9117764347973426
0.5712051030536504
0.37866222642289776
0.6670511687659855
0.5770716824539709
0.47572500229362025
0.4443836142905073
0.9811168869273773
0.4231992278260857
0.6613500231065739
0.6900113599620301
0.664818050545345
1.0586126889742935
0.6267510045559093
0.6722527136888303
0.5867666675236487
0.8529762731682922
0.6816562486195924
0.3296306354135021
0.7646450790550912
0.8621900487084676
0.644011368995141
0.4795944890160354
0.42024009874136664
1.4288622378435822
0.4944935392964568
0.6924619726783751
0.5192850575841063
0.6190649167776477
0.48044415468499824
0.3921122205790524
1.0607631978762315
0.30462009599066053
0.742398645733167
1.877031552491314
0.8856623548440812
0.92132579291165
1.0460495506736942
1.0034797082424365
0.5967642602803603
1.552138680372185
1.268638507235498
0.9745973271057081
0.4578304372925321
0.4387270890162173
0.8743156291506118
0.2897340240687691
0.9553727402142516
1.1279963323715907
0.793573566709843
0.8004424526201763
0.2905694427064332
0.4036048164705949
1.2020729709747822
1.1397256209410964
0.6421682405043021
0.285017313882263
1.2201983617434844
0.8097561361656669
1.3045492118026438
0.5376279087212593
0.3325094601006265
0.4635313984600231
0.16860113740050284
0.43182965094401216
0.7319625693999102
0.6840831387030827
0.5089479388433497
0.6904028882280075
1.0602730001123097
0.8314763471521027
0.6285864174799952
0.8307616308609768
1.6757046531325308
0.769979770287045
0.6021763499464307
1.02925206978591
0.24043488707746777
0.33689836728789
0.8735279545405509
0.6108198249217841
0.558805968013648
0.140347586545161
0.7525166641348786
0.4867004892869372
1.3244471037304266
0.5299307168719714
0.27333313515801205
0.47408409154369013
0.32127594590592556
0.9483321942807152
0.5352080413288663
0.8166995016114901
0.7362369177585932
0.8330415504371439
0.20344875112647479
1.1748766247295788
0.36870630995888654
0.21564848660433544
0.5803801297921583
0.5831832339065472
2.0497897967371443
0.726929234748848
0.769979770287045
0.5204342995064016
0.25982748819038975
0.4362849646212546
0.38562197657516484
0.21842128625550639
0.5058468525806705
1.3996178122219576
1.061459583386283
0.8574652444750374
0.9305957856918857
0.8698470453179942
0.8270339921745353
0.5927203613265563
0.2851159382941371
0.391502010730507
0.1670487216403921
0.697902947974632
0.47816971182148615
0.4460234984469559
0.6347696524943779
0.7836599069376309
0.9470657362017202
0.4393363886525552
0.6004656736883197
1.011124011652899
0.8096245165172394
0.5938747123642285
0.281812050269418
0.8430751855496179
1.0010979524690156
1.7205550965945307
0.2240818709678995
0.42089927760264534
1.7045882184072687
0.25743805086682225
0.6640081120538232
1.1745094114944088
0.3921122205790524
0.45336610934239696
0.6625206456485776
1.1295871232147199
0.8596133977684347
1.1151650976091905
0.4815959785637552
0.6405910892211225
1.3114962609198981
1.3293169622632257
0.37063505347024833
1.1761690345969018
0.9593200967085798
1.3757279764716255
0.7142614062788517
0.6210957134711204
0.9084868449936848
0.40123835224610943
0.6879322784580324
0.27052286427528827
0.24535668050512932
1.0834525476249035
0.6809046657233873
0.9425651775073198
0.14335691761704947
0.4120823245065721
0.7393876347002885
1.0650484555568245
0.31436432406564513
0.8721577358852516
1.2825294661421787
0.2821269213715087
0.16543653533618408
0.3355337223843153
0.3940917480303534
0.6612937138521449
1.2104093338504425
0.8834953478757318
0.3973589368363444
0.2680585337144075
0.3926105362387804
0.6266584800361583
0.6952914054146335
0.7720458098017878
0.4015374149256467
1.210757339371083
0.4702917726656193
0.9250736239916721
1.0644370431981254
0.43511345167585974
1.1646605081621446
0.5571550267670276
2.088002401431938
1.1205022366952668
-0.04562843679345229
0.2575710375157627
-0.22230692591612042
0.1299225103562237
0.2280594353351126
-1.009551599463181
-0.06049624183260268
0.7712047171040028
-0.6189398364489566
0.13382474687880389
-0.38127447613432414
0.40690401256733955
0.09415933856382036
-0.20492492061504192
0.23200828278153965
-1.5082502644271845
-0.2376676287051576
0.8703283318966634
-0.15041648623386475
0.28557131031398586
-1.1696032458795735
0.5610163844416027
-0.5144192480882077
0.8251638115147757
0.13260369020336002
-0.27718448550748487
0.1227914715648383
-0.42473604383475644
-1.54040040827087
0.17757656086946488
0.224457232594568
-0.4732553660993149
0.9411238365448146
-2.1525877070655985
0.06434711785824027
-0.16179064343674654
-0.8922828946745424
0.2974776198376675
-0.36793017042329984
0.32275452537818106
0.5764680114289156
-1.2392529528294107
-0.11011269647625216
0.24393965998507833
-2.028669277340032
1.3899204241131693
0.6362750535629198
-2.9235776965162845
0.1961415203612504
-0.026808667160601696
-0.1415837823879667
1.2130874249150727
-0.3918168793081799
0.10004791084402913
-0.7136848857898838
0.39509996354629734
0.037200804781032014
-0.05970825421605652
0.03986073360645026
-0.06561445255694338
0.23152316336443166
-1.0650638617671384
-0.5088821327386858
0.2641613012640939
-0.9935756029996776
1.196809005654423
-0.4701228717768707
0.6367894748824889
0.210461905696169
-0.6196980151941053
-0.4800538339250132
0.39169412432854034
0.06316256319502538
-0.10030586272494242
-0.7553479988729187
0.3222478443593116
-0.806915857596504
2.1124981427076235
-0.03855481073594113
0.21704281144844226
-0.03141773736329447
0.03695181999061559
0.1974528815596771
-0.6600494901814101
-1.0109685498406318
0.4897912109833034
-0.13632927234578632
0.3198546367750891
0.030108369965723313
-0.04394471617315956
-1.1335766835749932
1.0153928416288651
-1.004166492881059
0.36376742604904005
-0.059880792436894516
0.3281389368314151
-0.04035826185184279
0.036313615120732085
0.21946140438367162
-0.631116001114369
-1.5682967695925554
0.3646809427558282
-0.021528587737369466
0.09057542197817223
0.05003147182169913
-0.10526234912382346
-0.5408480044194486
0.4287615679556876
-1.4254744548953828
0.729807087650066
-0.16140895084945042
0.30348947077595745
0.027111223213873614
-0.010660113827813025
0.08660141920421617
-0.1858941044606401
0.14990546649873548
-0.2163787917804839
0.24379335930952944
-0.3233189365153471
0.25584385028249135
-0.8994258752350689
0.632407515573285
-0.4391708282085384
0.2562662664389508
-0.11140809291896078
0.2313711059485743
-1.019844534621434
1.3558175187300305
-0.5603921066937727
-0.033230873640080885
0.11723630445160949
0.16478698389140634
-0.4312732466333329
-1.3199252156683505
0.5425712474867755
0.05583760726353592
-0.038569996130628864
0.35058263830451414
-0.2968389931552753
-0.6093989809390458
0.8515067244369574
0.6324736207813483
-0.3846899539603696
0.3855825767144299
-1.3133104110484746
-1.134695994114337
0.8748275671927809
0.1401066701214784
-1.7463731928187844
-0.10831139250424825
0.11541927050166437
-0.14635600006392172
0.7513624548826753
0.34007815849354706
-0.5704016894336602
-0.03301235129123518
0.1347084502737036
-0.5368531773879832
0.8054189943694234
0.03571484050703833
-0.04309575082432409
0.17574643817077512
-0.5547352833999023
-0.22409981174179866
0.8189360863469909
0.5653103296349586
-0.7685708787821217
-0.11635856415595433
0.1983535606150362
0.06637845791887638
-0.18354354989096025
0.11141609007131315
-1.0455945278605236
-1.4475626024881296
0.7493837803620486
0.22410208399920653
-1.108514278697368
0.0015965830788801328
0.03991596060764043
0.30643936596058063
-0.5532444602909827
-0.5771102314108891
1.388075175883173
0.8379003709079161
-3.3399743786461586
0.20788411485434177
-1.127573950737732
0.2816604270888961
-0.5173247754205273
0.4571156643492469
-0.6275389323063184
-2.0114401165522597
1.4245790096080604
0.03536605052221153
-0.04410588519956315
-0.7102327645929419
0.833947741130205
-0.18769440411990088
0.2617638884105594
-0.04077724323708302
0.0909674556660295
0.2976716857844131
-0.6719118615016993
0.6964709757632891
-0.3599596461260707
-0.8020217653123735
0.9630264135191531
-0.3001376798462375
0.3826311299081959
-0.6347341792659787
2.6828177001215896
0.12115107408719995
-0.17260946466149854
0.21054539723570753
-3.639775104780872
0.5580778488196619
-0.63631982475835
0.49636702030204277
-1.2357580789689777
0.12347231886579617
-0.6041364286502302
0.10272444297653185
-0.22374079317800172
0.15679680595929302
-0.5484051793118823
-0.1256328669643029
0.18832177239494252
0.09473339303012301
-0.13542792378465446
-0.03193951026756007
0.8727904496080833
-0.059686175575562966
0.22325022833988212
0.042277158434194426
-0.0768558524502407
0.09463291201278035
-0.27565683211363223
0.05876400948950722
-0.11046141995892993
0.17829639820163795
-1.0110348169484236
-0.5720187878704359
0.3601417808505499
-0.026300549887146918
0.1293327896996025
0.039923866103833285
0.03713324909672009
0.30940930793577504
-1.682037962121108
-0.3085883950305507
0.24644873310972853
0.28629549950873445
-0.3635336951988945
0.3469666242465436
-0.7693135096658897
0.09193584766525792
-0.2914401412668376
0.4431090129827555
-1.0995507342436435
0.15203438597894897
-0.6333840698586886
-0.5001001952180327
1.8574569299658146
0.06890791003427625
-0.16772747076625782
-0.5847048592027887
0.4433042372747407
0.2441043079733978
-0.6786159802846443
0.15297370156916396
-0.18398227966224587
0.10637114124506204
-0.21661970330884164
-0.20864875384575632
0.16490857077628213
-0.3976161141422155
0.1924692520248497
-0.3716826631749091
0.2818782415301389
-1.4827450954375538
0.46443792656884464
0.233382501975121
-1.15613886866489
0.1407563331159493
-0.3147227017649486
-0.5427788341273292
0.19739281402898273
0.04568189751293744
-0.07846116866279707
-0.030814282414215733
0.3493616299525515
-0.29037466809945744
0.3450294256907128
0.08027081248959267
-0.24174656245024811
0.004000137524788509
0.07643681023037617
0.22532644270996566
-1.6335280520401672
0.0214341372345956
-0.0031307099863877768
-0.2275933579612502
0.7290912992328242
-0.04376940085646265
0.11162448199553188
-0.17245632638011232
0.8936180528262195
-0.15037850856248855
0.1404288388889276
0.07087864678089961
-0.14239594446082085
0.4176729782697616
-0.5824107009559041
-0.1398023373460394
0.7279842038893296
-0.24434652432469034
0.3560573499541732
-0.17909396085057155
0.14860202206799944
0.4540906599330522
-0.9867070445704201
1.0049838207866104
-2.298360298626562
-0.24058730933187222
0.3907464229928823
-1.1351911266506318
0.8850858008856609
0.05458223348858617
-0.08852236723588294
-0.12300646419679565
0.38386954095702497
-0.30152013760820184
0.4628761220888099
0.09284978521641314
-0.6077741814481568
-1.4622750630732133
0.5020312780029818
0.24171688545431458
-1.0397821390094915
0.49091259248884894
-0.7351337758652672
-0.8486135274115076
0.8461252504127027
-0.17883328377635158
2.113066992085823
0.09228967324089543
-0.23326049217886569
0.02106259288223838
-0.028059463809870958
-0.18001415135487875
0.4108989480428786
0.6731975768200984
-0.6079836375347785
0.1778472741474308
-0.35538848859093336
-0.6401005097761657
0.7825667977062308
0.242601923413439
-1.978241444592938
0.17353235370302408
-0.45932204754952466
0.024081968908794552
-0.02731800691069945
0.35051117758419437
-0.2501356667493778
2.088793713089951
-1.578476845487946
-0.41063074316305304
0.5182428330398025
0.14539978526848132
-0.8194234294359175
0.632691286457663
-0.9212398076474878
1.3218813930573068
-0.3988620269158795
0.11552780951698807
-0.10607022991010727
0.18118532234714385
-0.5857001336978602
-0.4842759134353358
0.5496736891480546
-0.1095544666042036
0.2970336743035143
-1.0715038028629846
0.4816872433342487
0.06148668458245172
-0.1538728912528043
-1.25480427741486
0.5608042949892604
-0.19791659104347784
0.43136147432918637
-0.00970286243482275
0.37440263646518673
-0.47094518096319093
0.7912996293440488
-0.7082131516200636
0.7881592120049147
-0.3780898947082297
0.47307785444998013
-0.5265924968011099
2.1036925524942793
-1.456267164367752
0.5877010919150785
-1.0109685498406318
0.4897912109833034
-1.4959364053312223
0.276773190075251
-1.9174197560110156
0.3412356251944833
0.3326248440765284
-0.8751543706045322
-1.0765577616098614
0.7378221662047574
0.04983158601342615
-0.08833913973182828
-0.036193439401572935
0.46923597269323036
0.037193599565518674
-0.012032262877788363
-0.49153900639271403
0.4597437255604235
0.060948025582947485
-0.12022630040504344
-0.2647831984619024
0.3279777957914705
0.15596274178911654
-0.404899739742333
-1.1879929104352465
0.4832893652663826
-0.3166921146063751
0.28397733042707163
0.1308982984014466
-0.4188874357400341
0.0021630741187088657
0.009320965336882208
-0.16238123255867948
0.17476217589995585
-7.061336703192327E-4
0.010278032731238134
0.606462603293642
-1.3695925177879558
0.09451032018138912
-0.15354572686004458
-0.02830791142102629
0.14363781910010492
0.015744679783573558
0.026723573560879548
0.5166457571052252
-0.6443031739573029
-0.043253124525939685
0.10638281766303413
-0.09539030201602094
0.21124966981525364
-0.2694264398585004
0.1763854687910087
0.2797699950816066
-0.7343890502423182
0.13667092564058855
-0.5271325449669406
0.32450435879827644
-0.8299002428814828
-0.04047367669360075
0.08315319837901528
0.34223990727901604
-0.7663851680343038
-0.050685397744388586
0.23543876684285192
-0.16963888648645653
0.14974716780953615
0.7031165834873216
-0.13478453897864762
0.06795853533596133
-0.11828471069499077
0.044269957730419446
-0.06920934798170038
-0.7230118502015394
0.5292153632480536
0.15781399162926202
-0.13437908670755205
-0.2541804157678248
0.41430379387040084
-0.24381261206124805
0.32926979975574383
-0.24125921461220798
0.3641490687771617
-1.0489884457101812
0.3286786418920236
0.1809737011320684
-0.4748797324328416
-1.5154299421583264
0.260195846722225
0.046086606615546394
0.0943482706477159
0.07058887176093938
-0.048890105604232535
0.4594000368372961
-1.45292810448023
-0.8833656100503942
0.4031394419950759
-0.003516860762359614
0.06794315882074516
0.4980967215716231
-0.5961575692244959
-1.5255852157051366
0.5045613287677109
0.1217214094228402
-0.13882027101595656
-0.061945349473374704
0.6252268585199309
0.30671341535807384
-0.42048911261076855
0.2077910118216865
-0.3268381532477785
0.13406906728567317
-0.30012127961532364
-0.0481857189728861
0.0675253854900611
0.5149156985785021
-1.319823881652798
-0.010657911969496437
0.20963389925746043
0.05304480579295472
-0.11577603374131763
0.40600667629151477
-1.0635534793275774
0.10701382911098811
-0.2164959563704627
0.12389171362471375
-0.3021782328909493
-0.33886736101395315
0.593791147061731
0.014737423226298422
0.09188665749404137
0.03568274676197519
-0.060560301813583454
0.023011511865731374
0.09077191248544217
0.5602103541431132
-0.09410493118222854
-1.0270800345625473
0.23835320147627115
0.19383507259939756
-0.038813362436304615
-0.6694558420219495
0.7391518484940192
-0.36486227022218676
0.6145877259108877
-0.5919752417676781
0.6443795077792521
-0.012513629533395543
0.07832491552155345
-0.018211803325852444
0.25538715046094024
-0.108875961424233
0.08373169468083087
0.2583572415483059
-1.2715491453282233
0.14481761725197329
-2.0398835043549157
0.4416607589246993
-0.587189321901355
-0.24396018200813363
0.15763437613319167
0.35772745332539785
-0.7086925149635683
0.1558059905464526
-0.45489065652309274
0.2877064398282237
-0.06638139696009564
0.07760527674470385
-0.15785231551630197
0.05755296287975152
-0.14273962719994507
0.5380634771811545
-1.4743360535229428
0.026624560302360142
-0.038475249338371084
0.11146795861496896
-0.0018728589172449172
-0.03631753154387103
1.6607463980236588
-1.4943458743728684
0.7143962827651918
0.13417938725997902
-0.46035685750728417
-0.048099013659216795
0.19999607043561674
0.3331023892712479
-1.6925725303011907
-0.4774573243114126
0.5192913296917535
-0.08838453897487096
0.11485252710657122
0.19790240322844527
-0.18381372096265094
-0.0017828160423204137
0.1667557913508453
-1.1510150308894884
0.7825643032147349
0.030577432576362584
0.38997943128754453
-0.0053821416037428856
0.04206729853953633
-1.0743131630111658
0.3541313482926302
-0.7963920361592417
0.9526551212727326
-0.13966322019697636
0.5166971769898402
-0.1533253897490414
0.09465678416413115
0.08915405810084552
-0.08761908601466242
-0.717081288634653
0.3174376663706222
-1.0801169679526124
2.2091243763839232
-0.04961720789116895
0.2592269954246809
0.0021060536647036013
0.007034971095786605
-0.40126268329271847
1.0954821164437771
-0.9132580513725759
0.34929262516796883
-0.05584678246185957
0.4368574693736841
-1.1696635308026084
0.7256987132445841
0.12333439914682436
-0.7021393808130779
-0.7503985328136151
0.6044101482605313
0.22086487420284945
-0.9934086970385013
0.09445993481655883
-0.46368663036586977
-1.0242553052522354
1.2008214655915375
0.00953433695185614
-8.135115129565777E-4
-0.020936336211589603
0.04920371148834208
0.18738231111037557
-0.1195042027660261
0.09686345687037692
-0.012140904220952079
-0.13380091761417554
0.7249573148792261
-0.1356022557494528
0.48471725092809115
0.5523241946521007
-0.5108068173934682
-0.29520915694190897
0.3241777507854169
0.1251109562475907
-0.24662451721978346
-0.015554312426745305
0.4485440840778968
-0.6097933979517374
0.36868508164870445
-0.929670120717086
1.6790644253968903
-0.7908580934314821
0.895877675650578
-0.26984358868899844
1.7533849951807738
0.07684863187696737
-0.16846245619899178
-0.059963604759710507
0.15695570649193696
0.2355093732407112
-0.011629025849943013
-0.11302809512095734
0.1569871410752678
-0.03207340099270394
0.07011709659969864
0.12197254015994216
-0.6240513773684606
-0.07686669963085767
0.28824131605599906
0.0434959972588104
-0.024383742955512672
-0.12656954663272507
0.29802775975659535
0.5202013171108383
-1.44111005176813
0.1914626185434057
-0.5364627702884797
-0.33634360019561493
0.48750160935646963
-0.5105190276218797
0.5682096900478625
-0.4547564461131973
0.7754971320914475
0.1161044015248614
-0.42975484235005784
0.03737431013627651
-0.06121426887201662
-0.205337535536277
0.32579300105359
0.19244243192627733
-0.4535076477788725
0.06756827538606991
-0.061440337024155044
0.0980807021540518
-0.19558795609200202
-0.39013086897695487
0.6407952538312204
-0.9599163498174288
0.77928418063818
0.2223547381273306
-0.19141274446753592
-0.20096848415722313
0.5157903939203848
-0.8596502394640906
1.065845663150999
-1.2569785134742522
1.6566817967790866
-0.29836052728531137
0.21665322300974976
-0.25648974761776255
1.3054876451004596
-0.08260347697632597
0.14046246910954488
-1.8629457101573696
0.8594751095575117
0.1503404693201937
-0.1999980524345526
-1.8688580061074964
0.6426867620058102
-0.6087437426295392
0.24769035756880278
-0.220791712583906
0.31819678793766604
0.09182529783933865
-0.36615708345806186
-0.04609300446655846
0.11069658491698948
-0.4416610301378474
0.26501727118953844
0.20252494452714767
-0.5320732563680013
-1.055529987612213
1.2479492876472096
-0.19195359251314537
0.1469843712057684
0.2417195586858023
-1.1244554653858378
0.43702336553581883
-0.792755272791936
0.22736083612088379
-1.5544226181835656
0.05055948389111963
-0.09478465698395114
0.23760905710951677
-0.44030384478708007
-0.28887945063338516
0.683965072490087
-0.24227572879970963
0.09991669166575999
0.15833106147683532
-0.41015432314457567
-0.8694225958927129
1.0057204626039575
-0.3178659168788858
0.46286903779607824
-0.658420156439243
0.35296639963527654
0.042669673286793275
-0.07536087206819929
-0.16490339618694116
0.22982793510313215
-0.7197053320885868
0.3467477082838156
0.05228376209557939
-0.08847631198523873
0.1571203811577061
-0.4912558130368742
-0.08401584632138721
0.32069788016918294
0.7280769775755372
-2.2771120153011934
-1.5505812744399492
0.5455833128454531
-0.03146554098451491
0.23458098244299025
-1.3919753231050667
1.8545374698678179
-0.32814045755454285
0.38877001759420476
-0.33683368132368136
0.35661194820858017
0.018585386624605793
0.01773545069311103
-0.2748921116268274
1.4111661567270997
0.02963833294562009
0.03817708026514258
-0.4844936462668872
0.42941645640314624
0.09990763353461692
-0.2296286943593843
0.6083853754682439
-0.5581800897075677
-1.098296895902306
1.430603105994318
0.7956043482866245
-0.25495175709280476
-0.23879840981100578
0.5417540762684271
0.19130573044191085
-3.9294355773457643
0.21973466237223607
-0.584134176161596
0.21672534597450538
-0.4960595936854899
-0.28876937676805503
0.30449666779173806
-0.6827352734801563
0.3420096857083291
0.39550436574819364
-1.0982725315897777
0.20173449849806432
-1.8049919270721033
0.19245496233003911
-1.4951363488397933
-0.3819173673797703
0.31548295045290475
-0.43752815114831073
0.9927391509505931
-0.4578019812825351
0.41610201946460773
0.14126933328870178
-0.9645104541162137
-0.22777118903880592
0.41477168217309857
0.44633910725339015
-0.07285752200155182
-0.10771642872365947
0.18987388026445917
0.2469252513670038
-0.9141225712308929
-1.015966182962681
1.346356137938772
-0.961911227333366
0.37600576593786295
0.23867424623972358
-1.304683958529847
0.33197473058164756
-0.49667445055389337
-0.3191102752768234
2.7967432983063443
-0.0704508519341949
0.2821577654340421
-0.10018236851195532
0.8882520021230182
0.08991871504549709
-0.30632922474211777
-0.10718088710838844
0.40538338758880454
-0.07527541132564233
0.16965033322215492
-0.24944115075769271
0.28850403685726916
-0.16273346079679513
0.1804713334585721
0.007344797096713662
0.018833699065901415
0.07842091725689146
-0.16206054808684492
-0.4365229699412657
0.4286448566253054
0.15900928714453585
-0.19839054758941765
-0.2650962996879843
0.30953326530292236
-0.0934559826650874
0.20778110835690733
0.2270412642750407
-0.6053869765760181
-2.5428991533949383
0.7924335124819498
-0.04662746944631234
0.06935990997828033
-0.1983123426857803
0.2144485855008624
0.6386870038277317
-1.343741130261695
-0.4416610301378474
0.26501727118953844
0.02291126295722176
0.01311420188599243
-1.0028454767041708
1.0248774925921948
-0.002756971412744492
0.26555571214788737
-0.24149379393440437
0.13031315172917685
-0.42515023834172616
1.5575934260081552
-1.5728696276982197
1.3906258099634157
0.24187281069875288
-0.6147995370269567
-0.34093972482765106
0.2639415991469946
-0.19226737564280272
1.3190182942527529
-0.3944215871219742
0.3366204334552845
-0.7677173375266558
1.2397732641541352
-0.28863975261904407
0.3296471711268496
-0.23492301120921716
0.5415351827709183
-0.0648252063555714
0.1265745632179276
0.11004651984806266
-0.17744832118802076
-0.019325479414142623
0.12213549070577237
-0.048272970319806686
0.09704693983699983
-0.2118122437928929
0.23008543096998557
-0.42239733904906757
0.31995672732560526
0.9831426084309782
-0.18714479984031046
-0.7404736200420647
1.2881092387577517
0.40533301896527774
-0.383025265143136
-0.3647826630173451
0.10484318188902018
-0.8082993182234047
0.6604436195468353
0.21371494764138815
-0.8815501297152609
-0.3088364003087364
0.6891946807114164
-0.1641907141208831
0.2266056631245501
-0.29048391431617
0.35154199918641077
-0.04630689354506754
0.20575464060330223
-0.05257523049648749
0.44554191897571477
0.052955552432293836
