GIS
1
0.0
2
dontMerge
merge
3
91 0
266 0 1
6 1
363
anchor=flee
anchor=assassination/n
conflict=Money:1
conflict=Agent:2
conflict=Agent:3
conflict=Money:4
conflict=Sentence:0
anchor=funeral/n
anchor=shootings/n
anchor=smash
conflict=Beneficiary:5
anchor=push/n
anchor=travel
anchor=overthrow
anchor=airstrikes/n
anchor=journey/n
anchor=remarriage/n
anchor=quit
anchor=invasion/n
conflict=Entity:0
anchor=punch
anchor=raid/n
anchor=firings
anchor=ceremony/n
anchor=deploy
anchor=terrorism/n
anchor=meet
anchor=execution/n
anchor=demolish
anchor=rape
anchor=visit
anchor=warfare/n
anchor=fight/n
anchor=gunfire/n
anchor=loans/n
conflict=Giver:4
anchor=confrontation/n
conflict=Victim:3
conflict=Giver:2
conflict=Victim:0
conflict=Crime:2
conflict=Giver:1
anchor=siege/n
anchor=owe
subtype=Execute
anchor=hammer
anchor=transfer/n
anchor=revolution/n
anchor=pound
anchor=live
conflict=Artifact:0
conflict=Artifact:4
conflict=Artifact:3
conflict=Artifact:2
conflict=Artifact:1
anchor=pour
conflict=Person:4
anchor=come
anchor=punch/n
anchor=lose
anchor=launch
anchor=give
anchor=withdrawal/n
conflict=Instrument:0
conflict=Instrument:1
conflict=Instrument:2
anchor=poison
overlap=Instrument:0
anchor=insurrection/n
anchor=draw
conflict=Origin:3
anchor=insurgency
conflict=Vehicle:5
anchor=mission/n
anchor=violence/n
anchor=toll/n
conflict=Destination:0
anchor=direct
anchor=send
anchor=leave
anchor=defend
anchor=disembark
anchor=bring
anchor=extermination/n
anchor=assault/n
anchor=walk
anchor=move
anchor=confront
conflict=Recipient:1
anchor=sign
anchor=rally/n
anchor=attack/n
conflict=Sentence:5
anchor=targeted
conflict=Defendant:5
subtype=Sentence
anchor=hear
anchor=torture
conflict=Agent:0
conflict=Agent:1
conflict=Money:2
conflict=Money:3
conflict=Agent:5
conflict=Sentence:1
conflict=Money:5
anchor=strike/n
anchor=seize
conflict=Org:5
anchor=convict
overlap=Time-Within:3
overlap=Time-Within:1
conflict=Crime:5
overlap=Time-Within:2
overlap=Time-Within:0
anchor=letter/n
anchor=hurt
anchor=acquire
subtype=Fine
anchor=engage
anchor=election/n
anchor=fracture/n
subtype=Demonstrate
anchor=appoint
overlap=Time-Within:5
anchor=strike
subtype=Trial-Hearing
anchor=suicide/n
overlap=Target:5
anchor=murder/n
anchor=appeal/n
overlap=Recipient:5
anchor=fire
anchor=fighting/n
anchor=trip/n
anchor=bombings/n
overlap=Artifact:5
conflict=Entity:5
overlap=Artifact:2
subtype=Release-Parole
conflict=Entity:2
anchor=fracture
conflict=Entity:1
subtype=Transport
anchor=thrust
anchor=ship
anchor=shoot
conflict=Defendant:3
anchor=enter
anchor=shooting/n
anchor=stab
anchor=dead
anchor=hang
anchor=face
anchor=get
anchor=wed
anchor=marriage/n
subtype=Charge-Indict
anchor=go
anchor=donate
conflict=Attacker:0
conflict=Attacker:1
anchor=battle/n
anchor=airstrike/n
conflict=Attacker:4
conflict=Attacker:5
conflict=Attacker:2
conflict=Attacker:3
subtype=Meet
subtype=End-Org
anchor=death/n
anchor=deliver
distance=8
distance=9
distance=6
conflict=Adjudicator:3
distance=7
distance=4
conflict=Adjudicator:5
distance=5
distance=2
anchor=wound/n
conflict=Buyer:5
distance=3
distance=0
distance=1
overlap=Target:2
anchor=married
overlap=Target:1
anchor=take
overlap=Vehicle:5
overlap=Target:0
anchor=arrest
conflict=Giver:5
anchor=down
anchor=bomb
anchor=targeting
subtype=End-Position
anchor=marry
overlap=Person:3
anchor=hit
anchor=arrival/n
overlap=Person:5
subtype=Arrest-Jail
anchor=receive
anchor=divorce
conflict=Victim:5
conflict=Victim:2
conflict=Victim:1
conflict=Giver:0
conflict=Crime:1
anchor=probe
anchor=step
overlap=Adjudicator:5
subtype=Elect
anchor=donation/n
subtype=Transfer-Money
subtype=Phone-Write
anchor=bomb/n
conflict=Place:0
anchor=divorce/n
conflict=Place:1
subtype=Transfer-Ownership
conflict=Place:2
conflict=Place:3
conflict=Place:4
conflict=Place:5
anchor=ambush
anchor=use
anchor=sentence/n
anchorMatch
conflict=Artifact:5
subtype=Convict
anchor=incursion/n
overlap=Giver:5
conflict=Target:1
anchor=demonstration/n
conflict=Target:0
overlap=Place:0
conflict=Person:0
conflict=Person:1
conflict=Target:5
conflict=Target:4
conflict=Target:3
anchor=end
subtype=Injure
conflict=Target:2
anchor=drop
overlap=Place:5
anchor=war/n
overlap=Place:3
overlap=Place:4
conflict=Person:3
overlap=Place:1
anchor=obliterate
overlap=Place:2
conflict=Person:5
anchor=wound
anchor=throw
anchor=pay
subtype=Attack
anchor=summit/n
anchor=release
anchor=trial/n
anchor=detonate
anchor=charge
anchor=nuptials/n
anchor=sentence
anchor=fight
conflict=Instrument:3
conflict=Instrument:4
conflict=Instrument:5
overlap=Agent:5
overlap=Attacker:3
overlap=Attacker:5
overlap=Destination:1
overlap=Agent:1
overlap=Attacker:0
overlap=Attacker:1
overlap=Attacker:2
overlap=Instrument:2
subtype=Start-Position
overlap=Instrument:1
overlap=Instrument:4
overlap=Instrument:3
anchor=wedding/n
overlap=Destination:5
overlap=Destination:4
subtype=Die
anchor=drop/n
overlap=Instrument:5
anchor=attack
conflict=Origin:5
anchor=contribution/n
anchor=parole/n
subtype=Sue
anchor=war
overlap=Victim:5
anchor=haul
overlap=Victim:1
overlap=Victim:3
anchor=destroy
subtype=Divorce
conflict=Time-Within:3
conflict=Time-Within:2
conflict=Time-Within:5
anchor=assault
anchor=atack/n
conflict=Time-Within:4
conflict=Time-Within:1
conflict=Time-Within:0
anchor=wander
anchor=shell
overlap=Origin:5
anchor=explosion/n
overlap=Entity:5
anchor=guilty
conflict=Vehicle:0
anchor=massacre/n
overlap=Buyer:5
anchor=kill
nomAnchor
conflict=Destination:1
conflict=Destination:3
conflict=Destination:4
conflict=Destination:5
anchor=conflict/n
anchor=raid
anchor=elect
anchor=skim
anchor=resistance/n
anchor=invade
conflict=Position:5
subtype=Appeal
conflict=Position:4
anchor=injury/n
anchor=resign
anchor=combat/n
anchor=meeting/n
anchor=blow
overlap=Org:5
anchor=drive
conflict=Recipient:5
anchor=fire/n
anchor=be
conflict=Recipient:3
conflict=Recipient:2
anchor=fly
anchor=arrive
anchor=crossfire/n
subtype=Marry
anchor=charge/n
anchor=injure
overlap=Defendant:2
anchor=shot/n
overlap=Defendant:5
anchor=die
overlap=Defendant:3
overlap=Time-Within:4
overlap=Seller:5
overlap=Person:1
overlap=Crime:5
overlap=Attacker:4
overlap=Position:4
0.316029907414988
1.088678407979121
0.3569437362535123
0.2944576628637436
0.39485445907157096
0.7494311633138113
0.9046750737400528
0.2780185726734382
0.39988815880857026
0.536288487925574
0.34477229805556614
0.14269517804001816
0.22675222156487787
0.8373714615678748
0.26361768795404245
0.42285488789972075
0.3566773385084791
0.5570675990202801
0.31848124427600477
0.9635725537130608
0.5403142449182674
0.3656226211477001
1.4347673263605507
0.43650848328815367
0.26504111041212264
0.9979607266428351
1.100518459186719
0.2252515161449311
0.3073982392351119
0.9625062263189451
0.37674166582989516
0.4519783876774834
0.46856244058201363
0.4155723521778613
0.3755287316352558
0.43154120571365756
0.6643093221371016
0.7956180289958337
0.3459111841044449
1.0935957678231443
1.632013000343072
0.399688691066222
0.3350059577895418
0.5316849889550888
1.0548726078669963
0.5722881224470054
0.343175376069043
0.20064114373306172
0.5120300599751502
0.2639772545132582
0.6160383665234432
0.7585483630298503
0.3848704035192076
0.5250887954364517
0.3947072039434631
0.6081051027865033
0.47707163062688346
0.48911711441695943
0.5223302389902346
0.47367987298472075
0.42039259121089767
0.8596146029575408
0.3615495061040854
0.3094804145473019
0.23183634068470435
0.43155686331512383
0.44081941429061877
0.9023763026705752
0.38374080320161014
0.2744888893334511
0.3189387793236984
0.6167047391921018
0.2658381528510025
0.28914271987843165
0.29182656569117765
0.3138865596120829
0.47559035990230103
0.498703584198925
0.4825787609138128
0.39993946284780635
0.3656923446673544
0.1509126111595489
0.42645906363119057
0.4392831519664453
0.45164591796252207
0.41251846463851555
0.6433984055376343
0.9740194403179979
0.6612842401107081
0.7163247016092895
0.6217749289762788
0.11083084727711268
-0.7879550014989329
0.07966351064272421
-0.30965815867452734
0.22845587983854612
-0.47790181835810064
0.27513438177185734
-1.9462968713808775
0.08812993645397094
-0.22213278413971727
0.2979478808632226
-0.942998545305266
0.42326395598430777
-1.0690731910103437
0.05049593049230476
-0.0220753198980679
0.10069082324116585
-0.5382008138199009
0.012921568103925276
0.038220310734770856
-0.14229328994217366
0.7425600407363099
0.08363366257291847
-0.5098713885040885
-0.2812638543465218
1.0265168157772466
0.24017684508289427
-1.28460302811691
0.04635699347491988
-0.08537103393524727
0.4246070375599907
-0.4829431600845856
-0.8042815116981532
0.6552111426911718
0.2277620898636818
-0.4837089483636912
-1.808176011942382
0.7534554016692598
-1.1823853063970953
0.6332981056216255
0.13662900986932794
-0.32148225590734264
-0.9061272739931009
0.6472554309793626
-0.07266955985976498
0.10203028798241186
-1.0878839113030752
0.6287312027351976
-0.17924869555475753
0.7761074334180806
0.3578428081969602
-0.6303350439031884
0.2970921972690472
-2.129548363811318
0.14304384304546058
-1.4244588791410255
0.11933478083792264
-0.5098174935766765
-0.15364865824717053
0.5717442997473539
0.18857913944953514
-1.0490157414485215
0.305954747593923
-1.2256713421216767
-0.15478511083628124
0.19508924814935702
0.09574651914098957
-0.6906819771588624
0.09427920968602851
-0.16209968525452326
0.26139608636303124
-1.9966420314329787
-0.2976012183012398
0.4953641063915607
-0.04147168728169256
0.2677798061458851
-0.4081039213331892
0.4630817725732301
-0.4321174450382622
0.7073764446399045
0.11630122974768066
-0.9780460172964464
0.12065307703539403
-1.3251849497020054
0.013979519480179408
0.16875478465209628
0.13755023459223284
-1.1162602106061081
-0.25542957165767444
0.8158736619182316
0.04748172613152535
-0.09200779993268003
-1.3829163024536753
0.5268731291357751
0.44429608383452185
-1.6326452185431446
-0.37742323305275843
0.5295686395633187
0.4911617240123086
-2.05577068722968
-0.32820184956087567
1.2354324199195534
0.11708345633392339
-0.802960541700472
0.05212609371134301
-0.11151408274305617
0.08378092720253182
-0.5015396914305855
0.15400311283100532
-1.512808670855072
-0.1279093794298116
0.47136696838555064
-0.11397006502056906
1.498072096270578
0.041023557167198924
-0.056746896497632204
0.4455223002612063
-1.119863459113408
0.09772348850419765
-0.2870504611846034
0.044902570300565915
-0.08764072256935826
-0.3769914211753029
1.4251833743253992
0.11275056692151837
-0.8586569617538509
0.10391723494043523
-0.37328102863152973
0.04440400859119585
-0.08655693817199069
-0.3011898433362194
0.4711122307960029
0.05878548862219275
0.008002772955720664
0.13213900344531257
-0.601860244739596
0.03363434229477589
0.17489054340361743
0.08625592688458232
-0.6170179357847864
0.11261397425097516
-1.1746619367138937
-0.008388121424677191
0.5156458693802741
0.10296216669097386
-0.8103539278153734
0.09383060791853229
-0.774012254441291
0.08081721482205285
-0.46714919855115467
0.017941207150668173
0.3433386697350675
0.08207455497600911
-0.2173294195718339
0.27775185356724824
-0.2598260227398755
-0.1546772811576251
0.3968941357776875
-0.15934734200411874
0.5941721282570845
0.1776057143215383
-1.5691361610446268
0.15905134292572395
-1.983134137649199
0.1601245665807454
-1.0991338481009738
0.6247844062685226
-1.9250332556777698
0.18962102320651225
-1.7277075692971982
0.15309788678043784
-0.8079734581435599
0.43611748087423746
-1.193307810382213
0.16162800850355719
-1.1033854049157017
0.17628057730506647
-0.8811877953537859
0.08365656784820111
-0.16340470878665275
-0.3668342947149521
1.0979145762522666
0.1146666544123761
-0.45431384304615646
-0.23004797367975585
0.289172879892429
0.1018965464435402
-0.3021685142536507
0.19306033379651832
-0.9063558213351517
0.09348518451694143
-0.245803263984154
-0.4687400963983001
0.7054676271503878
0.09513334647601626
-0.6459711694653983
-0.40043482904684186
1.2058847041526366
-1.0205069645245435
0.6079655551003657
-0.9696234159668207
0.41116537179253454
0.06616005528365371
-0.24769631466933412
0.06998568812177308
-0.14740600125995518
0.15049907198604542
-1.1697074193297472
0.12007719558413496
-0.985237054932804
0.29587293210493953
-1.0644563194468197
0.19964949236424687
-1.0327631866581783
-1.2931101847922646
1.7656144160709795
0.16747508612077666
-1.1809465209275185
-0.2640339589922605
1.3959357312232203
-0.7894667317249242
0.8615047624354176
0.960347715432045
-0.37043659782980337
0.08794366091386703
-0.23115915732099493
0.15372832849917795
-0.30456905587543553
0.10428383834284961
-0.730805113840188
0.058052025744418666
-0.1133736938200771
0.14026519884794983
-1.0668551790118852
0.005049998449576049
0.21277174424697273
0.06463637472709724
-0.03920930915196875
0.10194362714278046
-0.466296610659476
-0.20689592444922403
0.760472867224207
-1.1730412226804383
1.027627702038346
0.14689533251292913
-0.6917291632456949
0.033976475067984166
0.011873837602241295
0.1759321304107584
-0.8622720761677031
0.05095078635185748
8.143187010889374E-4
-0.011466551836060337
0.30743198230137764
0.09273626658906355
-1.1264988381918948
-0.014417219099298712
0.04690113848955527
0.031767080475144545
0.08377934765731584
-0.04111178827001457
0.052698499098115206
0.10033960205710739
-1.0581849692917302
0.09266683303563901
-0.8415230158925477
0.09043393441696765
-0.5682961333970414
0.08058048705082291
-0.5347192514884563
0.31424938518289947
-1.4763200624082695
0.012553319773791203
0.29549539991099383
-0.13506284805945493
0.3684561435989923
-0.4705904032370683
0.9904895667613425
0.12383257412350143
-1.718178333495211
-0.46921411262451523
0.520976231134682
-0.17649289851670577
0.8992773396623964
-0.2738279740180263
0.7488375864911505
0.06556181130266862
-0.2928391008326267
-0.04577567352542316
0.5851015971158408
-0.053573548180508634
0.677498595958793
-0.4876316046388805
0.7852054629470028
-0.016485023183952188
0.17604411715367407
-0.07642137167382623
0.2440592973525004
0.015670477170522865
0.17784100236987427
-0.3070025017965184
1.0196238835312024
0.08048052563939506
-0.6111855179296622
-0.1796678675237537
1.2200622539424266
0.1078648485437187
-0.29987619331416787
0.07145322310224948
-0.4307798559814506
0.11014651514959792
-0.5814210520648134
-0.6641167694194371
0.992714373678005
0.0033857158439712385
0.15465050129910787
-0.7153517068620987
0.7512295613501745
-0.7624803206000677
0.9155759165440273
-0.14295688612464258
0.5259763856426471
-0.032190035216667974
0.1928321926598567
-0.040563073700074725
0.28669465522421056
-0.06803579237772754
0.23950969655444992
0.12330770869912405
-0.5709501789985968
0.019311321696915372
-0.0013029914450169429
-0.06126700697365487
0.42843723948483275
-0.6778688281163217
1.2390087530910727
0.13277139376993005
-0.8826360134635268
0.20526878738428098
-0.8195043139921085
-0.07123077099660356
0.288817110061785
-0.020838517814443933
0.04267433491711133
0.0852107807450131
-0.4410703665979015
-0.3688654208330351
0.6932091496869583
0.0204273387720466
0.03829829892347382
0.04596145495082325
-0.0938169201311017
0.03329825383183139
0.11960042282218197
0.00436571687840696
0.22146668198956232
0.09897992790968226
-0.569614808385302
0.04623262405589473
-0.13006503243282053
-0.4549549822176925
0.6337516069928025
-0.6336079363525488
0.9867158421132259
-0.21318067220717593
0.7961510633547361
-0.09175363302926647
0.15676706875111232
-0.5813964854850436
0.7119148534976806
0.15966108623770378
-1.1733796285550897
-0.6511986452076525
0.7958786980824968
-0.6861514381283943
0.6734537978653446
0.14558170617353502
-0.6551264750826818
0.20399862431072668
-0.5117110350319402
0.2575475643010176
-0.8016388407979727
-0.13729005606764214
0.2707572956899757
-0.059487247631425065
0.18740699694609975
0.11165377203047114
-0.39522991738428165
0.01657317041831942
0.09836906771657415
-0.20390496868041358
0.3915174755550487
0.10987145634886107
-0.4607324431397914
0.17440096424035195
-0.8232734795452291
-0.5555047713087269
0.5635640154564737
0.08848077397543316
-0.4741180697261224
0.10339019370566814
-1.0422927849686991
-0.4669166670319828
0.6207330030504687
0.19114977492589622
-0.6217904339215178
0.3009048541392654
-1.1230502955685278
0.11945347069818046
-0.47263733694335536
-0.7685880105618318
0.8034163561216098
-0.4355115865382531
1.7579740532222397
-0.2957208569844774
0.32611305348056213
-0.19023912220526004
0.17070023977102727
0.12824272315046692
-0.3280492872973286
0.04343429867976705
-0.07014424617471042
-0.08703247764843973
0.7467980005704983
0.0653424007070906
-0.3280015446043983
0.003700883193710583
0.30189484072810596
0.147448685399538
-0.4880371084349815
0.10836210966849442
-0.42069053299227005
0.041227897838420874
-0.027215406605597563
-0.019470875024705965
0.3752635722880223
0.08842365283200102
-0.7902984428298035
-0.013108432382379454
0.2215793478067011
0.17207711489568703
-1.3439681502021936
0.10010588696154937
-0.41848610316280377
0.11351452013010545
-0.49881111496863995
-0.10516161507200225
0.14943293839193916
0.4805352915722405
-0.034176977507846616
-0.1389677988082185
1.282434252900335
0.09524459314388908
-0.4608097556686407
-0.15333122336256685
0.1170550149339901
0.125628310558607
-0.7423255266401777
0.06931777209955564
-0.2335074812810399
0.09439497610198587
-0.6110618602622983
-0.10126701564035147
0.5384573684193485
0.11969929377013726
-1.671104060998726
0.09163755934429947
-0.7770962596255961
0.012015271410530451
0.352324854662174
0.11031800048655575
-0.30206119234932083
0.026243259197353815
0.21512222417360166
-0.1723561646976415
0.3831929123222418
-0.08129750887212911
1.108111971760722
0.13286231185234057
-1.6422939416187288
0.030766027554090022
0.12312362512312006
-0.076813056354323
0.10952261166684434
0.2777838509325256
-0.9893928190096287
0.18373484473387386
-1.1537010232749991
0.19912306310929914
-0.7943041721619412
0.0704752153935439
-0.21446294041046568
0.10195075778577299
-0.27888057225280544
0.08080455198855406
-0.852813290336629
0.48525213276273577
-0.27795555054397547
-0.05020153365734751
0.5515923341683987
0.11463986827744822
-0.6663616635499884
0.1273895963015526
-1.331586390110397
0.01464691594355672
0.16167009037125796
-0.3137952363856312
0.9438041721583746
0.1251650393443609
-0.6191074631063127
0.1453954041567923
-1.9039303449647713
0.02046790993066586
0.27654243263578515
0.11477768797576439
-1.2990017705571455
0.13585205550575818
-0.5486668903407385
-0.16256925733239733
0.2429457070728058
0.2789874859275753
-0.9022976424166956
0.1676966944074378
-0.41576894484933596
0.07986623403288957
-0.38704039373840504
-0.07308371590012254
0.10906883940323023
0.22667342676842442
-0.7362644265907607
-0.5372143085374488
0.43000830073033053
1.702248565545065
1.1003498379627945
2.343280847077927
1.1608675507885624
2.164194658588264
1.113854037287049
