GIS
1
0.0
2
event
noEvent
2
25 0
296 0 1
321
incident/n
demonstration/n
loss/n
resign
cut
rape
divorce
invade
lawsuits/n
airstrike/n
shell
invasion/n
assassination/n
indictment/n
lawsuit/n
lose
arrest/n
massacre/n
married
airstrikes/n
ambush
killing/n
died
execution/n
bombings/n
patmatch=N
injury/n
bring
marry
appeal/n
ship
injure
advance
fracture
pick
merge
fire
kidnap
jump
patmatch=2
divorce/n
meeting/n
casualty/n
execute
patmatch=3
former
patmatch=4
tour/n
murder/n
assault/n
rally/n
detain
smuggle
drive
hurt
accuse
sue
campaign/n
be
expel
death/n
wedding/n
roll
dead
charge/n
acquire
elect
control/n
found
retire
attack
explosion/n
targeted
retaliate
grave/n
close
convict
email
receive
battery/n
set
charge
jihad/n
poison
sentence/n
riot
launch
appeal
march
dismantle
call
battle
fly
torture
face
discussion/n
abandon
meet
stab
kick
throw
appoint
travel/n
quit
attack/n
desert
grab
open
discuss
gunfire/n
die
violent
call/n
attend
extradition/n
buy
run
bomb
phone/n
hold
deploy
mission/n
deadly
leave
conference/n
talk
shoot
donate
letter/n
summit/n
land/n
pay/n
murder
forum/n
withdrawal/n
prosecute
pay
gather
jail
clash/n
talk/n
take
shot/n
parachute
guilty
tragedy/n
name
resistance/n
carry
demonstrate
swim
drop
merger/n
blind
hire
occupy
show
retreat/n
remove
parole/n
pound
birth/n
terror/n
filings/n
arrive
target/n
marriage/n
vote
fire/n
sit
protest/n
creation/n
race
introduce
postwar
go
start
purchase
pour
war
end_up
slaughter/n
fight/n
telephone/n
apprehend
ceremony/n
step
employ
nomination/n
release
reach
electoral
approach
launch/n
put
hijack
fighting/n
striking
explode
harm/n
rip
hit/n
enter
catch
battle/n
sentence
give
journey/n
destroy
come
protest
detonate
push
hearing/n
suicide/n
release/n
indict
suit/n
prosecution/n
raid/n
lob
become
use/n
assault
seize
deliver
conviction/n
arrival/n
fall/n
fine/n
injured
gunshot/n
fall
get
wed
bankruptcy/n
speak
election/n
sale/n
reward
wound/n
trial/n
strike
born
sell
combat/n
smack
torture/n
kill
trip/n
interview/n
cease
activity/n
donation/n
future
visit/n
abuse/n
push/n
travel
return
escort
arrest
contribution/n
use
replace
sign
serve
rape/n
hit
find
beat
loan/n
blow
mail/n
conflict/n
atrocity/n
capture
pardon
strike/n
transfer
try
war/n
send
violence/n
raid
critical
sail
steal
flee
bomb/n
head
wound
targeting
appointment/n
land
win
fight
hear
move
advance/n
cross
clear
deal/n
transport
shooting/n
blast/n
cost/n
uprising/n
probe
way/n
sailing/n
engage
warfare/n
convention/n
custody/n
overthrow
visit
terrorism/n
capture/n
collapse
riot/n
2.2280985900099273
2.228098590009929
2.2280985900099273
2.2280985900099344
2.2280985900099273
2.2280985900099353
2.228098590009922
2.228098590009931
2.2280985900099273
2.2280985900099273
2.2280985900099273
2.2280985900099326
2.2280985900099273
2.2280985900099255
2.2280985900099255
2.2280985900099255
2.2280985900099273
2.2280985900099273
2.2280985900099255
2.2280985900099273
2.228098590009922
2.2280985900099255
2.2280985900099273
2.2280985900099273
2.2280985900099273
-1.0224058328455476
0.3704198258860947
0.18356895260664197
0.19788020000542672
0.21479354491430191
0.06658586281531156
0.30802810836593464
-0.6286369340973258
0.15348452527506384
-0.14969395484648185
-0.9950147221792088
1.1593626887158468
0.14552460922292076
0.23932478425241077
-2.9434952686617826
0.8269607782723982
0.10656947564758218
-0.04488444761549409
-0.6372764921250861
1.111635810661805
0.21387479176461754
-0.3337811161262271
0.2491005343616599
-0.4625461116803764
0.3366287312400561
-0.27521925845626044
-1.835628287456366
0.5488808530878697
-0.7586130317574793
0.36229686850574794
0.17053969818766324
0.24547556740288295
0.01938061588599238
0.6204095809979913
-0.8488104440884559
0.6599766302279657
-0.32165338342631966
0.2743038528512832
-0.06709598803186223
0.0901532776790166
0.07007519998678435
-0.020200857439266917
0.5183541795681159
-1.6419138367934578
-2.9498056224772373
0.9093198806562439
-0.44059299951024844
0.44692906130888277
-0.18239547084914265
0.2925156968396383
-0.23639994699013767
0.6936068539449837
-0.20999023606562617
0.17674664645471172
0.009548509073320721
0.07124052893443023
0.17835303581706674
-0.21606573547636498
0.7043485682171526
-0.9887361805443193
0.0978620572511536
-0.06907668291439273
-0.6957001697156768
0.4062190323976176
-0.17987898857715062
0.8758861336497954
0.584831067716961
-1.06680255847076
-0.04547992168679538
0.7226031280883698
-0.06550473014788816
0.32966198088484755
-0.11770125766394446
0.8129007216089955
-0.8503936826560998
0.9303999657754533
0.15122706147814013
-0.17109659276343603
-0.3525154436308324
0.3080203293805368
0.08556405446806747
0.1528066156487624
0.30455614195049363
-0.5855888848778736
-0.03191066339187065
0.11808137323189061
-0.7005682786282031
0.9725414059335553
0.1389381907641749
0.3474054526039177
0.06476033661145153
0.5327387939362784
0.17274657996820397
-0.2202668677504407
0.28325759855260524
-0.3334741935838237
-0.253116691971774
0.2554126969020531
-1.410507145554421
1.1493353734487994
0.3712946671215127
-0.6292472883995693
-0.023931537452537732
0.3673883580807151
-2.5158462196699736
0.761294024635052
0.15910821084854987
-0.20581653462919258
0.14447545631388536
-0.1764104690846776
-0.3016192746640455
0.23784441253778021
-0.02165887948249945
0.16937254934764923
-0.9950147221792035
1.1593626887158526
0.45276831674139273
-1.1921341776835233
0.13152040967546585
0.36897520838846054
-3.0241764476209543
0.7529033183862113
0.031629135625983906
-0.0031470927601260357
0.5497027672576187
-0.4787713471423918
-0.6019741558755506
0.6225074416931208
-0.18365578572575514
0.18745941513420217
-0.3527290790302058
0.2122519284455715
-0.31709317733594256
0.32401968850876917
-0.8827028377105692
0.5771335565375304
0.43027796644180405
-0.8073484786701347
0.3404930711639442
-0.5174311598522144
-1.131589524950862
0.41098002662447986
0.3312992655275069
-0.20121509632697432
-0.012345245931518978
0.029123275118135172
-0.04547992168679538
0.7226031280883698
0.14006376543800875
-0.13441658012220045
0.1016354704476663
-0.10640543476959818
0.055593095760016586
0.55174243005154
-0.8556554924888642
0.7723481030490054
-0.17987898857715062
0.8758861336497954
0.23773437369443218
-0.05023525077971669
-0.04547992168679538
0.7226031280883698
-1.3953480909491467
0.8102590735152039
0.6608720023871439
-0.5806272281550888
-0.5397715469167855
0.5564165304361031
-0.6372764921250862
1.1116358106618052
0.08248066352529859
0.49388876936173154
-1.506718335317935
0.7230905055533903
-0.09988619109340302
0.09462917002910776
-2.1998179890063954
0.6973193840080156
-0.6755433427657426
0.7117906165982967
-0.2611158322931413
0.310770919062729
-0.2740257469692272
0.2276291965360674
0.06910656795340442
0.004758721572249325
0.2766876393103772
-0.5750161461673847
-1.2294430848493894
0.39831542345076365
-0.1462215683372734
0.12494026767491273
0.20512133873629823
-0.26170603397382064
-1.2361947998001228
0.5151228073451952
0.08491793735513187
-0.08214666827871686
-1.4874748273036815
0.924487545502086
0.2588205273002079
-0.10312634774061169
0.03428383504810073
0.22653806950099686
-0.4235105593931382
1.0377196709419725
0.07286302636944186
-0.07058452622190625
0.1389381907641749
0.3474054526039177
-1.9934852557376666
0.8804584892667403
-0.20999023606562617
0.17674664645471172
0.25521878362102013
-0.15535316294546092
-2.396119978191317
0.8689897753277283
-0.19858948444598723
0.32718614767365783
-0.18365578572575514
0.18745941513420217
-0.01786076512706103
0.030705983399053283
-0.25714493345677764
0.19236503647519532
-0.9950147221792074
1.1593626887158484
-0.17987898857715062
0.8758861336497954
-0.9166513091090023
0.652612848513576
-0.3567388950418584
0.2910935436639368
-0.5743653986098507
1.094504196503504
-1.410507145554421
1.1493353734487994
0.00416756666951934
0.3328062634591994
-1.8047255614821596
0.5332619040591902
-1.11135270595409
0.5685178013386378
-0.26386689194474244
0.6407426945955841
-0.920200051728604
0.4148230803662256
-0.8147447578691785
0.8863504352431009
-2.560105744114231
0.9805660279007149
-0.06644872945186941
0.2593246048383363
0.13893819076418124
0.34740545260392386
-0.35358708336800404
0.25496853790184903
0.15578047518518945
0.2952548655379806
-1.5158635924661443
0.7354822942659552
0.43592376350500345
-0.3471127788149481
-0.44359146327009114
0.7278926381366191
0.1403948621986102
-0.1053544118494012
0.27285836048145273
-0.28081442972570164
-0.9306475773388398
0.666573326034342
0.17053969818766324
0.24547556740288312
-1.5237515971270463
0.9875093137877349
0.5442120932828151
-0.29496318421773726
0.07419438907002918
0.1707560240565119
-1.2385453475989232
0.9419040521901869
0.17053969818766324
0.24547556740288312
0.09828004950097974
-0.06572091142692194
-0.11422774973643257
0.4768973825538396
0.1444754563138837
-0.17641046908467944
0.0011938392649384344
0.6514938533837198
-0.6965616604568444
0.32259222776359914
-1.5913733247860282
0.661709310030887
-1.8888867879779605
0.8128409851668881
0.38592671156676417
-0.14278177571349038
-0.020528655591226297
0.1120045401617853
0.34140365281266927
-0.662651219356232
-0.30226018274441635
0.7323783964857777
0.10656947564758307
-0.04488444761549331
0.23469978197494235
-0.2477549100714942
-1.2451393871337788
0.36753828106804676
0.0015012066517902656
0.2653416333458929
-0.031012082373790495
0.1266771767470959
0.09795741346921405
-0.07098794787119667
-0.4887184168950505
0.28926606789502085
0.1800614047549286
-0.05988968739683487
-0.06256254485740387
0.07082469550984283
0.43592376350500345
-0.3471127788149481
-0.44359146327009114
0.7278926381366191
0.44469274227969935
-1.0869789043037743
-0.14031754939392116
0.23832005647005183
-2.314784843205773
0.9442710140742636
-1.2173779362759625
1.1601430259333032
-0.08658711678703923
0.13216778345788416
0.2658344757925458
-0.39017755323980374
-1.238545347598917
0.9419040521901934
0.27651708233129013
-0.30994553069885505
-0.44359146327009114
0.7278926381366191
-0.13820064259288933
0.19859015546005399
-2.210854331164619
0.8749879128719021
-0.6965616604568444
0.32259222776359914
-1.094156022357906
0.6735183124262415
-0.6438996540192441
0.728944430583597
-0.4486799842500174
0.24133514110696797
3.9540636246182537E-4
0.1877998273282213
0.17053969818766768
0.24547556740288756
0.09133866081342701
0.05266252618512146
-0.366632006167514
0.4794802261904011
-0.6156958517131337
0.5013233642661599
-0.5060608457860658
0.6461184843632721
0.039161747187562934
0.5841012456485182
-0.6774666256779753
0.9744110155080902
-0.24523903914624834
0.21602895687541923
-0.41913352794592773
0.5906721764864392
0.012353462225668022
0.20999246128859417
-0.9233781914806183
0.7771126882206671
-0.28124392218106997
0.9568427568398307
-1.0541252827674048
1.1072005005668006
-0.7902592670188439
1.1409745925620023
0.039161747187562934
0.5841012456485182
-0.04547992168679538
0.7226031280883698
0.22692355403040332
-0.35512562485738275
-0.4251999763644866
0.4353054694369786
-0.17987898857715368
0.8758861336497924
-0.02737695018524655
0.2952578836053089
0.22692355403040332
-0.35512562485738275
0.24406873254170391
-0.08646050635124072
0.0970460524391128
0.4596639941061136
0.10931250014129323
-0.0449456280936561
-0.1127179823654405
0.10575137264528855
-0.04547992168679538
0.7226031280883698
-1.8826324587210583
0.9781944842383579
0.27459795946781473
-0.464799789487523
-0.02038250748558701
0.061851711918818664
0.18854473183336573
-0.05626734452067339
0.27651708233129013
-0.30994553069885505
-2.4999495753890906
0.49599689265596725
0.23011297877748182
-0.3796755048423759
-0.17987898857715062
0.8758861336497954
0.02495694449064262
0.04980514236482447
-0.32972765385734015
0.7978827350740568
0.1705396981876488
0.2454755674028688
-0.27101705998882375
0.3056692817629345
-0.19044584067814863
0.15835857148537058
-0.8259611620109395
1.0732033278022106
0.03916174718754517
0.5841012456485007
-0.253116691971774
0.2554126969020531
-1.992933085875653
1.0777350568935575
0.29669872465450586
-0.5235016361327942
-0.5613112786689725
0.4003534479882185
-2.3450773986481765
0.755769218491097
-0.35358708336800404
0.25496853790184903
0.27427027442426505
-0.3359602838020431
-0.22661063294453077
0.42992838851097015
-1.5913733247860282
0.661709310030887
0.041139054582832735
-0.030452611378759098
-0.5674521914106447
0.4879868450467726
-0.3471650939277616
0.8404040661732974
-0.09070215581702423
0.08705319602057615
-1.0193502027816117
0.9755311166417073
-1.238545347598917
0.9419040521901934
0.29405144916382686
-0.4693418720253963
-0.2531166919717772
0.2554126969020498
-0.6137837661811165
0.4953037973732113
0.6200642965470434
-1.2307855197029547
0.49647214264895057
-1.0059254196289342
0.38829973026563847
-0.9234844280925238
-0.7504626244731438
0.8032490577594459
-0.628868723503289
0.7465172784725373
0.17053969818765968
0.24547556740287954
-0.8472206070025116
0.7192336414751979
0.039161747187550944
0.5841012456485064
-0.8223722723394211
0.6077374499730812
-1.0681464112139318
0.8620642764116213
0.12313160862737216
-0.13732327383232446
-2.210815808902618
1.0421738906605476
-0.03151852529651222
0.18250773671385045
-0.09536830436988808
0.17102390408455637
-0.05885917071448543
0.7409725773752598
-0.09536830436988808
0.17102390408455637
0.2527003432843653
-0.4631795903246752
0.07580338467847048
0.4997943908599103
-1.306584288332295
0.7393721720951227
0.3463892113547238
-0.30669822472680863
-0.10412929155305228
0.7974851508466356
-2.3200063806281146
0.6055066464266781
-2.210815808902623
1.0421738906605424
-2.2105441793047387
0.8788782162754378
-0.06701491654935343
0.2221245720621564
-0.40261844152396464
0.4261117219784274
-0.33540297990113355
0.4540381870517103
-0.17534875319517873
0.5702798881212738
-0.04547992168679538
0.7226031280883698
-0.17987898857715062
0.8758861336497954
-0.9013114322169181
0.807855700695575
-1.9736414205473451E-4
0.03177122305108049
-0.18402185326798404
0.7718855495305952
-0.09199645992335237
0.11452363389430387
-0.412020963101974
0.2612273239249261
-1.5087992482576942
0.8970970011828527
-0.8089665223528222
0.7266041624606321
-0.46730362670381237
0.24661305044347803
-1.0355123957158643
0.7724198630045984
0.10656947564758307
-0.04488444761549331
-0.4435914632700909
0.7278926381366193
0.06699837422003285
0.06792485782316948
-0.7436549845396287
0.7900666399015617
-0.17987898857715062
0.8758861336497954
0.7340634632070485
-0.7982589948534493
-0.30161927466403793
0.23784441253778776
-0.9950147221792074
1.1593626887158484
-0.5739821363751314
0.768537688301488
-0.5144144759812044
0.5257066158333825
-2.210815808902618
1.0421738906605476
-0.8947636155786216
0.9981954253533396
-0.1817224106247317
0.6550837947923134
-0.13858381789161633
0.13627511176585316
0.04884285609753536
-0.0033925587523384593
-1.9138842186826046
0.5166114927305103
-0.4873565114588813
0.5053646398687286
-0.253116691971774
0.2554126969020531
