GIS
1
0.0
35
Vehicle
Artifact
Destination
Agent
Person
Position
Entity
Attacker
Place
Time-At-Beginning
Target
Giver
Recipient
Plaintiff
Money
Victim
Time-Within
Buyer
Time-Ending
Instrument
Seller
Origin
Time-Holds
Org
Time-At-End
Time-Before
Time-Starting
Time-After
Beneficiary
Defendant
Adjudicator
Sentence
Crime
Prosecutor
Price
969
4 0
11 0 1
4 0 1 2
4 0 1 2 3
1 0 1 2 3 4 5 6 7 8 9 10 11 12 13 14 15 16 17 18 19 20 21 22 23 24 25 26 27 28 29 30 31 32
2 0 1 2 3 4 5 6 7 8 9 10 11 12 13 14 15 16 17 18 19 20 21 22 23 24 25 26 27 28 29 30 31 32 33 34
1 0 1 2 3 4 5 6 7 8 9 10 11 12 13 14 15 16 17 18 19 20 21 22 23 24 25 26 27 29 30 31 32 33
1 0 1 2 3 4 5 6 7 8 9 10 11 12 13 14 15 16 17 18 19 20 21 22 23 25 26 27 28 29 30 31 32 33
1 0 1 2 3 4 5 6 7 8 9 10 11 12 13 14 15 16 17 18 19 20 21 22 23 25 26 27 28 29 30 31 32 33 34
1 0 1 2 3 4 5 6 7 8 9 10 11 12 13 14 15 16 17 19 20 21 22 23 24 25 26 27 28 29 30 31 32 33 34
1 0 1 2 3 4 5 6 7 8 9 10 11 12 13 14 15 16 17 19 20 21 22 23 24 26 28 29 30 31 32 33
1 0 1 2 3 4 5 6 7 8 9 10 11 12 14 15 16 17 18 19 21 22 23 26 28 29 30 31 32 33 34
1 0 1 2 3 4 5 6 7 8 10 11 12 13 14 15 16 17 18 19 20 21 22 23 25 27 28 29 30 31 32 33 34
1 0 1 2 3 4 5 6 7 8 10 11 12 13 14 15 16 17 18 19 21 22 23 28 29 30 31 32 33
1 0 1 2 3 4 5 6 7 8 10 11 12 13 14 15 16 17 19 20 21 22 23 29 30 31 32 33
1 0 1 2 3 4 5 6 7 8 10 11 12 13 15 16 17 19 20 22 23 25 26 28 29 30 33
1 0 1 2 3 4 5 6 7 8 10 11 12 13 16 17 18 19 21 23 29 30 32
1 0 1 2 3 4 5 6 7 8 10 11 12 14 15 16 19 21 23 28 29 30 31 34
1 0 1 2 3 4 5 6 7 8 10 11 12 15 16 17 19 21 23 25
1 0 1 2 3 4 5 6 7 8 10 11 15 16 17 19 21 30 32
1 0 1 2 3 4 5 6 7 8 10 12 15 17 18 21 23 25 28 29 30 31 32 33
1 0 1 2 3 4 5 6 7 8 11 15 17 23 28
1 0 1 2 3 4 6 7 8 9 10 11 12 13 15 16 17 18 19 20 21 22 23 24 25 26 27 28 29 30 31 32 33
1 0 1 2 3 4 6 7 8 10 11 12 13 14 15 16 17 19 21 23 28 29 30 32 33
1 0 1 2 3 4 6 7 8 10 11 13 14 15 16 17 19 21 22 23 26 27 29 30 32 33
1 0 1 2 3 4 6 7 8 10 11 13 15 16 19 23 26 27 29 30 31 32
1 0 1 2 3 4 6 7 8 10 12 13 15 17 29 30 33
1 0 1 2 3 4 6 7 8 15 16 19 21 22 23 24
1 0 1 2 3 4 6 7 10 11 13 14 16 17 19 20 21 25 29 30 33
1 0 1 2 3 4 6 7 11 12 15 16 17 19 20 25 30 31
1 0 1 2 3 4 6 8 9 16 21 22 24 29
1 0 1 2 3 4 6 8 16 26 27
1 0 1 2 3 4 8 9 11 12 14 15 16 17 18 21 23 29 30 31 32
1 0 1 2 3 6 7 8 10 16 19 21
1 0 1 2 3 6 9 11 12 14 16 21 27
1 0 1 2 3 6 16 21 22 25 26
1 0 1 2 3 8 9 15 16 18 21 22 24 25 26 27
1 0 1 2 3 9 15 16 21 22 24 26
1 0 1 2 3 11 12 21
1 0 1 2 3 16
1 0 1 2 3 16 18 21 22 26
1 0 1 2 3 16 18 21 24 25 27
3 0 1 2 3 16 21
1 0 1 2 3 16 21 22 26
1 0 1 2 3 16 21 22 27
1 0 1 2 3 16 21 26
1 0 1 2 3 18 21
1 0 1 2 3 19 26
3 0 1 2 3 21
1 0 1 2 3 21 27 29 30
1 0 1 2 4 5 6 7 8 9 10 11 12 14 15 16 18 19 21 22 23 24 25 26 27 28 29 30 32
1 0 1 2 4 6 7 8 10 15 16 18 21 23 25 26 27 29 30 32
1 0 1 2 4 6 16 21 25 26 27
1 0 1 2 6 7 8 10 12 13 15 19 21 23 29 30
1 0 1 2 6 7 15 29
1 0 1 2 8 9 14 16 25 26 32
7 0 1 2 16
1 0 1 2 16 18 21 24 26
1 0 1 2 16 21 22
1 0 1 2 16 21 25 27
3 0 1 2 21
1 0 1 2 22 26
2 0 1 3
1 0 1 3 4 5 6 7 8 10 11 12 13 15 16 17 19 21 23 28 29
1 0 1 3 4 5 6 7 8 10 11 12 13 15 17 19 20 21 23 28 29 30 32 33
1 0 1 3 4 5 6 7 8 10 11 12 15 16 17 19 23 28 29
1 0 1 3 4 5 6 7 10 12 13 15 16 19 22 23 27 29 31
1 0 1 3 4 5 8 15 16 21
1 0 1 3 4 6 7 8 10 11 15 17 19 20 21 23 29 30
1 0 1 3 4 6 7 8 10 14 15 17 19 21 23 30 32
1 0 1 3 4 6 7 10 11 12 13 15 17 19 20 29 30
1 0 1 3 4 6 7 13 19 29 30
1 0 1 3 4 7 8 15 19 21 29 33
1 0 1 3 4 16 21
1 0 1 3 6 7 8 10 15 16 18 22 29 30 32
1 0 1 3 6 7 11 15 16 17 19 21 22 23 27 30 34
1 0 1 3 16
2 0 1 3 16 21
3 0 1 3 21
1 0 1 4 6 7 8 10 13 16 19 31
1 0 1 4 6 7 8 10 15 16 26 29
1 0 1 4 15
1 0 1 6 7
1 0 1 7 15 19
1 0 1 8 19
2 0 1 10
6 0 1 10 19
1 0 1 16
1 0 1 21
1 0 2 3 16
1 0 2 4 6 8 10 15 16 18 21 22 29 30
1 0 2 16 18 21
1 0 3 8 11 16 21 24 30 32
1 0 3 16 21 24
1 0 4 6 15
1 0 6 10 15 21
1 0 6 21
1 0 8 10 15 16
1 0 8 16 22
2 0 10
1 0 10 15
1 0 10 15 16 19 26
2 0 10 19
2 0 19
2 0 21
27 1
8 1 2
1 1 2 3
1 1 2 3 4 5 6 7 8 9 10 12 14 15 16 17 18 19 20 22 23 24 26 29 30 32
1 1 2 3 4 5 6 7 8 10 11 12 15 16 19 22 24 26 27 28 29 30 32 34
1 1 2 3 4 5 6 7 8 10 11 16 17 19 21 29 30 31 32
1 1 2 3 4 5 6 7 8 10 16 19
1 1 2 3 4 5 6 8 16 23 32
1 1 2 3 4 5 6 16 21 25
1 1 2 3 4 5 6 16 23
1 1 2 3 4 6 7 8 10 11 12 14 15 16 17 19 21 22 26 27 29 30 31 32
1 1 2 3 4 6 8 9 16 21 22 27
1 1 2 3 4 7 8 15 16 19 22 24 29 32
1 1 2 3 4 21 23
1 1 2 3 6 16 21 22
1 1 2 3 7 8 10 18 19 21 26
1 1 2 3 7 8 10 21 24
1 1 2 3 8 15 23
1 1 2 3 16 21
1 1 2 3 18 22
2 1 2 3 21
1 1 2 3 22 27
1 1 2 4 5 6 7 8 10 11 12 15 16 19 20 21 26 27 30 32
1 1 2 4 5 6 8 16 22 29 30 32 34
1 1 2 4 5 6 8 21 23 26
1 1 2 4 6 7 8 10 11 13 14 15 16 19 21 22 23 29 31 32
1 1 2 4 6 7 8 10 19
1 1 2 4 6 8 31 32
1 1 2 4 6 16
1 1 2 4 6 16 21
1 1 2 4 6 18 22
1 1 2 4 8
1 1 2 4 8 11 12 22 29 33
1 1 2 4 29
1 1 2 6 7 8 11 16 17 19 23 26 29 30 32 33
1 1 2 6 8 14 15 16 21 22 29 32
1 1 2 6 8 16
1 1 2 6 15 16 21
1 1 2 6 16
1 1 2 6 16 25
1 1 2 6 18
1 1 2 7 8 10 12 14 16 18 21 23
1 1 2 7 10
1 1 2 7 10 21 26
2 1 2 8
2 1 2 8 10 21
1 1 2 8 12 16 21
1 1 2 8 15
1 1 2 8 16 17
1 1 2 8 16 29 32
1 1 2 8 21
1 1 2 9 21
1 1 2 10
1 1 2 11 12 21 22
1 1 2 14 23 29 31
1 1 2 15 29
5 1 2 16
2 1 2 16 21
1 1 2 16 21 24
1 1 2 16 24
7 1 2 21
1 1 2 21 27
1 1 2 22 23 26
25 1 3
2 1 3 4
1 1 3 4 5 6 7 8 10 15 16 17 19 20 22 23 29 30 32 33
1 1 3 4 5 6 7 8 11 20 23 29 33
1 1 3 4 5 6 16 21 23
1 1 3 4 6 7 8 10 11 12 23 30 33
1 1 3 4 6 7 8 10 11 15 16 21 23 29 30
1 1 3 4 6 7 8 10 12 14 15 16 17 19 23 29
1 1 3 4 6 7 8 10 13 15 16 17 25 27 29 30
1 1 3 4 6 7 8 10 13 15 19 20 29
1 1 3 4 6 7 8 10 13 15 21 29
1 1 3 4 6 7 8 10 13 15 29 32
1 1 3 4 6 7 8 13 15 23
1 1 3 4 6 7 10
1 1 3 4 6 7 10 11 12 13 15 17 20 23 28 29 30 33
1 1 3 4 6 7 10 11 12 13 15 17 23 28 29
1 1 3 4 6 7 10 11 12 13 15 23 28 29
1 1 3 4 6 7 10 11 12 15 29
1 1 3 4 6 7 10 11 15 17 19 20 23 29 30 32
1 1 3 4 6 7 10 11 15 17 29 33
1 1 3 4 6 7 10 11 17 20 29
1 1 3 4 6 7 10 12 15 21 28 29
1 1 3 4 6 7 10 12 15 29
1 1 3 4 6 7 10 13 15 17 29
1 1 3 4 6 7 10 13 15 23 29
1 1 3 4 6 7 10 13 15 29
1 1 3 4 6 7 10 15
1 1 3 4 6 7 10 15 16 29 30
1 1 3 4 6 7 10 15 19
1 1 3 4 6 7 11 13 15 29
1 1 3 4 6 7 11 13 17 19 20 21 30 33
1 1 3 4 6 7 11 29
1 1 3 4 6 7 15 16 22 23 29 30
1 1 3 4 6 7 19 25
1 1 3 4 6 7 30
1 1 3 4 6 8 10 23
1 1 3 4 6 10 11 13 29
1 1 3 4 6 13 16
1 1 3 4 7 8 12 15
1 1 3 4 7 8 29
1 1 3 4 7 10 11 15 19 29 32
1 1 3 4 7 10 13 15 29
1 1 3 4 7 10 15 29
1 1 3 4 7 10 15 29 30
1 1 3 4 7 15
1 1 3 4 8 11 15
1 1 3 4 8 16 17 20 25 28
1 1 3 4 15
1 1 3 4 15 19
1 1 3 4 19 23
1 1 3 4 29
2 1 3 6
1 1 3 6 7 8 10 11 12 13 15 16 17 19 21 26 32
1 1 3 6 7 8 10 11 12 15 16 19 29 32
1 1 3 6 7 8 10 19
1 1 3 6 7 10
1 1 3 6 7 10 11 12 13 17 20 23 28 29 30 33
1 1 3 6 7 10 11 15 17 29 30
1 1 3 6 7 10 15 16 19 21 29
1 1 3 6 7 10 15 17 28
1 1 3 6 7 10 27
2 1 3 6 7 11
1 1 3 6 7 16 17
1 1 3 6 8
1 1 3 6 8 16
1 1 3 6 10 15 29
1 1 3 6 12 15 17
1 1 3 6 13
1 1 3 6 14
1 1 3 6 15 29
1 1 3 6 29
2 1 3 7
1 1 3 7 8 28 32
1 1 3 7 10
2 1 3 7 10 15
1 1 3 7 10 17 28
1 1 3 7 10 23
1 1 3 7 15
1 1 3 7 17
1 1 3 8 16 17 21
1 1 3 8 16 20 21
1 1 3 10 15
1 1 3 10 21
1 1 3 15
1 1 3 16 21
1 1 3 17
4 1 3 21
1 1 3 21 29 30
1 1 3 25
1 1 4 5
1 1 4 5 6 7 8 11 12 13 15 16 17 19 23 29
1 1 4 5 6 7 8 32
1 1 4 5 6 7 11 12 13 15 16 17 23 29
1 1 4 5 6 7 15
1 1 4 5 6 8 16 17 20 34
1 1 4 5 6 11 12 14 15 16 17 20 28 29 30 31
1 1 4 5 10 12 15
2 1 4 6 7
1 1 4 6 7 8 10 15 17 29
1 1 4 6 7 8 10 19 23 30
1 1 4 6 7 8 10 19 23 30 32
1 1 4 6 7 8 13
1 1 4 6 7 10
1 1 4 6 7 10 11 15
1 1 4 6 7 10 12 15 16
1 1 4 6 7 10 12 15 17 23 28 29 30
1 1 4 6 7 10 15
1 1 4 6 7 12 13 15 20
1 1 4 6 7 13 17
1 1 4 6 7 19 20
1 1 4 6 8 10 11 13 14 15 19 22 23 32
2 1 4 6 10
1 1 4 6 10 11 15
1 1 4 6 10 14 15 16 19 23
2 1 4 6 10 15
1 1 4 6 10 15 28
3 1 4 6 15
1 1 4 6 21
2 1 4 6 29
1 1 4 7
1 1 4 7 10
1 1 4 7 10 12 15 21 29 32
1 1 4 7 10 13 15 19 22
1 1 4 7 10 15 20 29
1 1 4 7 10 15 29
1 1 4 7 16 23 29
1 1 4 7 17
1 1 4 8 10
1 1 4 8 13 15 22 25 29 30
1 1 4 8 16 17 20
1 1 4 8 19
1 1 4 10
1 1 4 10 11
3 1 4 10 15
2 1 4 11
1 1 4 13 15 29
1 1 4 15
1 1 5 6 8 11 16 19 29
1 1 5 10 22
2 1 6
1 1 6 7
1 1 6 7 10
2 1 6 7 10 15
1 1 6 7 11 22
1 1 6 8 9 10 11 15 16 22 23 26 27
1 1 6 8 11 12 14 15 16 17 22 28 30
1 1 6 8 21
1 1 6 10
1 1 6 10 15
1 1 6 10 28
1 1 6 11
1 1 6 11 15
1 1 6 12 17 20 23 29
1 1 6 15
1 1 6 15 16
1 1 6 15 17 29
1 1 6 15 29
1 1 6 21
1 1 6 29 30
1 1 7 8 21
1 1 7 10
1 1 7 10 15
1 1 7 10 15 20
1 1 7 11 12 17 19
1 1 7 12
1 1 8
1 1 8 9 11 12 14 16 17 20 22 25 26 28 34
1 1 8 9 11 12 14 16 17 28 34
1 1 8 10 12 19 29 32
1 1 8 11 12 14 16 22 28
1 1 8 11 12 14 17 20
1 1 8 11 12 14 17 20 28
1 1 8 16
1 1 8 16 17 20
1 1 9 17
2 1 10
2 1 10 15
2 1 10 19
1 1 11 12 14 16 17 20 25 28 34
1 1 11 12 14 17 28
1 1 11 12 14 28 34
1 1 11 12 16 17 20 28
1 1 11 12 17 20 25
1 1 11 12 17 20 28
1 1 11 12 17 28
1 1 11 12 28 34
1 1 11 14
1 1 12
1 1 12 14
1 1 12 16
1 1 13 19
1 1 13 23 29
1 1 14 22
2 1 15
1 1 15 16 30
1 1 15 29
1 1 16 17
1 1 16 17 20 28 34
2 1 16 17 20 34
1 1 17
2 1 17 20
1 1 17 27
1 1 17 28
1 1 17 34
5 1 19
2 1 21
1 1 23
2 1 29
21 2
1 2 3 4 5 6 7 8 9 11 12 15 16 19 21 22 24 27 28 29 31 32 33
1 2 3 4 6 7 8 11 12 15 16 19 22 29
1 2 3 4 6 8 9 13 14 16 18 21 22 24 25 26 27 29 30 31 32 33
1 2 3 4 6 12 23 29
1 2 3 4 8 21 29 30 31 32 33
2 2 3 4 21
1 2 3 6 7 8 11 12 13 17 20 21 28 29 30 33
1 2 3 6 7 8 11 21
1 2 3 6 7 8 20 21
1 2 3 6 7 19 21 23 26
1 2 3 6 8
1 2 3 7 8
1 2 3 7 8 12 13 17 21 30
1 2 3 7 8 20
1 2 3 7 8 21 33
1 2 3 8 21
2 2 3 21
1 2 4 5
1 2 4 5 6 8 10 12 15 17 21 30 31 32
1 2 4 6 21 29
1 2 4 7 14 15 17 19 22 23 25 30
1 2 4 8
1 2 5 6 10 15 23
1 2 6 7 8 10 13 29
1 2 6 7 8 17 21
1 2 6 7 8 21 29
1 2 6 7 10
1 2 6 7 15 21
2 2 6 8
1 2 6 8 10
1 2 6 8 10 16
1 2 6 8 10 16 23 32
3 2 6 8 21
1 2 6 10
1 2 6 23
1 2 7 8 10 29
1 2 7 8 20
1 2 7 8 21
1 2 7 14 31
21 2 8
7 2 8 10
8 2 8 10 21
1 2 8 15
1 2 8 15 21
1 2 8 16 25
1 2 8 17
1 2 8 18 21
17 2 8 21
1 2 8 30 31 32
1 2 10
1 2 14 31
1 2 16
36 2 21
1 2 21 31
1 2 30
1 2 31
8 3
8 3 4
1 3 4 5
1 3 4 5 6
1 3 4 5 6 8 9 16 18 22 25 26 27
2 3 4 5 6 8 16
1 3 4 5 15
1 3 4 5 16
1 3 4 6
1 3 4 6 7 8
1 3 4 6 7 10 11 12 15 17 20 29
1 3 4 6 7 10 15
1 3 4 6 7 12 29
1 3 4 6 7 13 15
1 3 4 6 8 11 16
1 3 4 6 8 13 14 16 29 30 31 32 33
1 3 4 6 8 13 14 29 30 31 32 33
1 3 4 6 8 13 16 22 26 29 30 33
1 3 4 6 8 13 29 30 32 33
1 3 4 6 8 14 29 30 31
1 3 4 6 8 29
1 3 4 6 10 29
1 3 4 6 13 29 30 33
2 3 4 6 15
1 3 4 6 15 29 30
1 3 4 6 16
1 3 4 6 16 23
1 3 4 6 17
1 3 4 6 25
2 3 4 6 29 30
1 3 4 7
1 3 4 7 8 9 10 15 16 18 19 25 26
1 3 4 7 10 11
1 3 4 7 10 15
1 3 4 7 11 15 19
1 3 4 7 15 19
1 3 4 7 20 33
1 3 4 7 29
1 3 4 8
1 3 4 8 9 15 16 18 19 22 25 26 27
1 3 4 8 9 15 16 27 32
1 3 4 8 9 16 32
1 3 4 8 13 14 16 29 30 31 32 33
1 3 4 8 13 16 22 29 30 31 32 33
1 3 4 8 13 29 30 33
1 3 4 8 15
1 3 4 8 15 16
1 3 4 8 15 16 18 26
4 3 4 8 15 16 19
1 3 4 8 15 16 19 22
1 3 4 8 15 16 19 27 29 31
2 3 4 8 15 19
1 3 4 10
1 3 4 10 15
1 3 4 10 29
10 3 4 15
1 3 4 15 16
1 3 4 15 16 19
1 3 4 15 19
1 3 4 15 32
1 3 4 16 22 32
1 3 4 26 32
1 3 4 29
1 3 5 6 7 8 9 12 14 16 19 20 21 22 30 31 32 34
1 3 5 6 15 16 19
1 3 6
1 3 6 7
1 3 6 7 8 12 17
1 3 6 7 10
1 3 6 7 10 23
1 3 6 7 15 23
1 3 6 7 16
1 3 6 7 23
1 3 6 7 32
1 3 6 8
1 3 6 8 11 12 13 23 33
1 3 6 8 12 30
1 3 6 8 18
1 3 6 8 23
1 3 6 10 15
1 3 6 12
1 3 6 13 30
1 3 6 15
1 3 6 30
2 3 7
1 3 7 8
2 3 7 8 10 15
1 3 7 8 10 15 16
1 3 7 8 10 15 16 19 23
1 3 7 8 10 15 16 19 26
1 3 7 8 10 16 19
1 3 7 8 10 19
1 3 7 8 15
1 3 7 8 16
1 3 7 10
4 3 7 10 15
1 3 7 10 15 17
1 3 7 10 23
2 3 7 15
1 3 7 15 19
1 3 7 17
1 3 7 17 28
1 3 7 21
1 3 7 23 29
1 3 7 29
1 3 8
1 3 8 9 16 18 22 23 25 26 27
1 3 8 10 15 16 19
1 3 8 13
2 3 8 15
2 3 8 15 16
5 3 8 15 16 19
1 3 8 15 16 19 22
1 3 8 15 16 19 26
1 3 8 15 19
1 3 8 16 23 25
1 3 8 16 29
1 3 8 17
3 3 8 19
1 3 8 23
1 3 12 14 15
1 3 13 29 30 33
1 3 13 30 33
1 3 14 23
27 3 15
3 3 15 19
1 3 16
4 3 16 23
1 3 16 29 31
2 3 19
1 3 22 26 27
6 3 23
1 3 25
4 3 29
1 3 29 30
47 4
3 4 5
11 4 5 6
1 4 5 6 7 8 10 16 19 26
1 4 5 6 7 8 11 19 20 21 30
3 4 5 6 8
1 4 5 6 8 9
1 4 5 6 8 9 16 26
1 4 5 6 8 9 16 26 27
3 4 5 6 8 16
1 4 5 6 8 16 22
1 4 5 6 8 16 25
3 4 5 6 8 16 26
1 4 5 6 8 16 27
1 4 5 6 8 22 26
1 4 5 6 8 26
1 4 5 6 10 15
1 4 5 6 11 12 14 16 27
1 4 5 6 15
1 4 5 6 16
1 4 5 6 16 23 27
1 4 5 6 16 27
1 4 5 6 26
1 4 5 6 27
1 4 5 8
1 4 5 8 15 16
1 4 5 10
1 4 5 10 15
1 4 5 14
1 4 5 16
1 4 5 29
1 4 5 33
7 4 6
1 4 6 7 8 10
1 4 6 7 10
1 4 6 7 10 27
1 4 6 7 17
3 4 6 8
1 4 6 8 12
4 4 6 8 16
1 4 6 8 16 25 26 29 30 32
1 4 6 8 16 27 32
1 4 6 8 19
1 4 6 10
1 4 6 10 15
1 4 6 10 15 29
1 4 6 10 29
2 4 6 13 29
2 4 6 13 29 30
1 4 6 15 16 22 29
1 4 6 15 28 29
1 4 6 16
2 4 6 29
1 4 6 30
1 4 6 31 32
1 4 7
1 4 7 8 16 21
1 4 7 10
1 4 7 15 23
1 4 7 16
1 4 7 16 17
2 4 7 29
3 4 8
1 4 8 9 14 16 22 29 30 31 32 33
1 4 8 13 14 16 29 31 32
2 4 8 15
1 4 8 15 18
1 4 8 15 19 26
3 4 8 16
1 4 8 16 18 23
1 4 8 16 18 25
1 4 8 16 22
1 4 8 16 25 29 30 32 33
1 4 8 16 26 29 30 31 32
1 4 8 16 30
1 4 8 22 29 31 32
1 4 8 25
1 4 10
1 4 10 15
1 4 10 15 21 29 32
1 4 11 12 14 16
1 4 11 16 33
1 4 12
1 4 12 14
1 4 12 15
1 4 13
1 4 13 14 32
2 4 13 16 29
4 4 13 29
1 4 13 29 31
1 4 13 29 32
1 4 14
7 4 15
1 4 15 16
5 4 15 19
1 4 15 19 22
1 4 15 25
1 4 15 29
7 4 16
1 4 16 32
1 4 19
2 4 29
3 4 29 30
1 4 29 30 32
3 4 29 32
1 4 30 32
8 5
6 5 6
4 5 6 8
1 5 7 8 10 16
1 5 8 14
1 5 8 16
1 5 10
1 5 15
1 5 15 16 24
1 5 22
1 5 29 31
65 6
6 6 7
2 6 7 8
1 6 7 8 9 10 15 16 18 19 22 24 25 26 27
1 6 7 8 9 16
1 6 7 8 10 16
3 6 7 8 10 16 19
2 6 7 8 10 16 19 22
1 6 7 8 10 16 19 22 25 26
3 6 7 8 10 19
1 6 7 8 10 19 22
1 6 7 8 10 19 27
1 6 7 8 16
1 6 7 8 16 19 22
1 6 7 8 17
1 6 7 8 21
1 6 7 8 26
3 6 7 10
1 6 7 10 11 12 15 28
1 6 7 10 11 15 20 29
1 6 7 10 12 28 29
1 6 7 10 15 16 19
1 6 7 10 16
2 6 7 10 19
1 6 7 11
1 6 7 12 20
3 6 7 15
1 6 7 17
1 6 7 17 23
2 6 7 19
16 6 8
1 6 8 9
1 6 8 9 16 18 22 25 26 27
1 6 8 9 16 26 27
1 6 8 10 19 22
1 6 8 14 16 32
14 6 8 16
3 6 8 16 18 22
3 6 8 16 22
1 6 8 16 22 27
1 6 8 16 24
1 6 8 16 25 26
1 6 8 16 30
1 6 8 21
1 6 8 22
1 6 8 22 29 30 32 33
1 6 8 26
1 6 8 30 32
1 6 8 32
1 6 10
1 6 10 11 12 23 29
2 6 10 15
1 6 10 15 29
1 6 10 23
1 6 11 14
1 6 12 13
1 6 13
1 6 13 19
1 6 13 23
2 6 13 29
1 6 14
1 6 14 16
2 6 15
1 6 15 29
7 6 16
1 6 16 18
2 6 16 22
1 6 16 23
1 6 18
1 6 22 26
1 6 27
2 6 29
1 6 30
20 7
20 7 8
1 7 8 9 10 16 18 19
1 7 8 9 10 19
11 7 8 10
1 7 8 10 15 16
1 7 8 10 15 16 19
1 7 8 10 15 16 19 22 25 26
9 7 8 10 16
9 7 8 10 16 19
3 7 8 10 16 19 22
1 7 8 10 16 19 22 25 26
1 7 8 10 16 19 22 26
1 7 8 10 16 19 22 27
1 7 8 10 16 19 25
2 7 8 10 16 19 26
1 7 8 10 16 19 29 32 33
5 7 8 10 16 22
1 7 8 10 16 25 26
1 7 8 10 16 26
1 7 8 10 18
12 7 8 10 19
1 7 8 10 25
1 7 8 10 26
1 7 8 10 27
1 7 8 10 29
2 7 8 16
1 7 8 16 18
3 7 8 16 19
1 7 8 16 19 22
1 7 8 16 19 24
1 7 8 16 26
1 7 8 16 29
1 7 8 17
1 7 8 17 20
1 7 8 18 22
3 7 8 19
1 7 8 22 26
1 7 8 27 29
40 7 10
1 7 10 12 14
1 7 10 13 15
2 7 10 15
1 7 10 15 16
1 7 10 15 20
3 7 10 16
1 7 10 16 19 22
1 7 10 16 22
6 7 10 19
1 7 10 19 22
1 7 12
1 7 14
2 7 15
3 7 16
1 7 16 18
2 7 16 19
3 7 16 22
9 7 19
1 7 19 22
37 8
1 8 9 15 16 19
1 8 9 15 16 26
1 8 9 16 23 27
1 8 9 16 26
14 8 10
4 8 10 16
1 8 10 16 19
1 8 10 16 22
2 8 10 19
1 8 10 22 26 27
1 8 10 23
1 8 11 12 14 16
1 8 11 12 14 29 31
1 8 11 12 20
1 8 11 12 28
1 8 11 16 26
1 8 12 17 28
1 8 13 16 29 32
1 8 13 16 30 32
1 8 13 22 29 30 32
1 8 13 29 30
1 8 13 30
1 8 14 28
1 8 14 30 31 32
2 8 15
5 8 15 16
1 8 15 16 18
1 8 15 19
9 8 16
1 8 16 18 26 29 30 32
4 8 16 22
1 8 16 22 26 29 30 32 33
2 8 16 23
1 8 16 25 26
1 8 16 26
1 8 16 26 29 30 32 33
1 8 16 29 30 31 32
2 8 16 29 30 32
1 8 16 29 30 32 33
1 8 16 32
1 8 19
8 8 21
1 8 21 29 30
1 8 22 29 32
2 8 24 29 30
1 8 29 31 32
2 8 29 32 33
1 8 29 33
4 8 30
1 8 30 32
1 8 32
1 9 16
1 9 16 18 22 24 25 26 27
1 9 16 22 24 25 27
1 9 16 25
2 9 16 26
1 9 21 22
1 9 29 30 32
19 10
1 10 12 15
10 10 15
1 10 15 16
1 10 15 27
1 10 15 29
3 10 16
11 10 19
1 10 21 29
1 11
3 11 12
1 11 12 14 16
1 11 12 14 16 26 28
1 11 12 14 16 28
2 11 12 17
1 11 12 17 20
2 11 12 17 20 28
1 11 12 17 28
4 11 12 28
1 11 14 17 20
1 11 14 22
1 11 17
4 11 17 20
1 11 17 22 34
1 11 17 28
1 11 20
2 12
1 12 13 29 33
2 12 14
1 12 14 16
1 12 14 16 20 34
1 12 14 16 25 28
1 12 14 17
1 12 17
1 12 23
1 12 28
2 13 16 29
1 13 17
1 13 19 29
1 13 29
1 13 29 30
3 14
1 14 15 31 32
1 14 16
2 14 34
40 15
4 15 16
1 15 17 19 29
1 15 19
1 15 19 27
37 16
3 16 18
2 16 18 22
2 16 18 25 26 27
5 16 18 26
3 16 22
1 16 22 24
1 16 22 24 26 29 30 32
1 16 22 25 27
1 16 22 27
1 16 22 29
1 16 22 29 30 32
1 16 23 28
3 16 25
2 16 25 26
10 16 26
1 16 27
1 16 27 31
3 16 29
1 16 29 31
3 16 29 32
1 16 29 32 33
1 16 32
1 17
1 17 20
1 17 28
37 19
2 21
11 23
1 28
25 29
3 29 30
2 29 30 32
2 29 31
1 29 32
1 29 32 33
1 29 33
3 30
1 30 32
3 31
2 31 32
11 32
3 33
2041
evTypeArg=Transport:vehicles
evTypeArg=Transport:tanks
prevTokenAndType=Movement_aboard
prevToken=aboard
evTypeArg=Transport:plane
prevTokenAndType=Movement_took
synPathTypes=Movement_VEH_subject
prevToken=sending
arg=rovers
synPathTypes=Movement_VEH_object
evTypeArg=Transport:car
prevTokenAndType=Movement_sending
prevTokenAndType=Movement_take
prevTokenAndType=Movement_As
evTypeArg=Transport:rovers
anchor=roll
prevTokenAndType=Movement_--
evTypeArg=Transport:some
anchor=landing/n
chunkPathAndType=Movement_precede_have
prevTokenAndType=Movement_)
anchor=direct
anchor=transport
dist=5
dist=3
noSynPath
dist=4
dist=2
dist=0
dist=1
prevToken=,
chunkPath=follow_
chunkPath=precede_
prevToken=and
prevToken=of
prevToken=.
dist=10
synPath=object
anchor=take
prevToken=as
prevToken=to
chunkPath=precede_have
dist=6
dist=8
dist=7
dist=12
prevToken=)
anchor=go
prevToken=by
prevToken=--
anchor=come
anchor=head
anchor=get
anchor=drop
anchor=send
anchor=trip/n
evType=Movement
prevTokenAndType=Movement_,
anchor=ship
prevTokenAndType=Movement_.
anchor=fly
anchor=arrive
anchor=escort
anchor=move
prevTokenAndType=Movement_by
chunkPathAndType=Movement_follow_
chunkPathAndType=Movement_precede_
anchor=carry
prevTokenAndType=Movement_and
anchor=launch/n
prevTokenAndType=Movement_to
prevTokenAndType=Movement_as
prevTokenAndType=Movement_of
anchor=bring
prevToken=in
prevToken=on
anchor=return
arg=it
arg=some
chunkPath=follow_in
anchor=sail
anchor=rumble
anchor=jump
chunkPathAndType=Movement_follow_in
anchor=traveling/n
anchor=flight/n
anchor=arrival/n
prevTokenAndType=Movement_in
anchor=journey/n
prevTokenAndType=Movement_on
anchor=land
evTypeArg=Transport:it
synPathEvType=Movement_object
anchor=voyage/n
evTypeArg=Transport:they
chunkPathAndType=Movement_precede_will
chunkPath=precede_be
synPath=subject
prevToken=that
prevToken=after
anchor=remove
prevToken=when
prevToken=with
arg=they
chunkPath=precede_will
prevToken=because
anchor=lift
dist=14
chunkPath=precede_to
prevTokenAndType=Movement_that
chunkPathAndType=Movement_precede_be
chunkPathAndType=Movement_precede_to
prevTokenAndType=Movement_when
synPathEvType=Movement_subject
prevTokenAndType=Movement_with
prevToken=or
chunkPath=precede_,
prevToken=took
arg=which
prevToken=As
prevToken=take
arg=plane
arg=cars
arg=ship
arg=car
menType=VEH
arg=aircraft
arg=vehicles
arg=tanks
prevTokenAndType=Movement_after
prevTokenAndType=Movement_because
anchor=mission/n
prevToken=at
prevTokenAndType=Movement_at
chunkPath=precede_and
chunkPathAndType=Movement_precede_and
chunkPath=precede_'
prevToken=leaving
chunkPath=follow_out-of
prevToken=hit
prevToken=In
arg=boat
arg=bus
arg=convoy
prevToken=off
arg=helicopter
arg=planes
arg=carrier
arg=rocket
chunkPathAndType=Movement_follow_out-of
prevTokenAndType=Movement_leaving
synPathTypes=Movement_PERSON_object
evTypeArg=Transport:them
prevToken=send
evTypeArg=Transport:president
prevTokenAndType=Movement_:
synPathTypes=Movement_PERSON_object-1:make:subject
prevToken=provides
evTypeArg=Transfer-Ownership:base
prevTokenAndType=Movement_sent
prevTokenAndType=Movement_send
synPathTypes=Movement_PERSON_poss
evTypeArg=Transport:him
evTypeArg=Transport:their
evTypeArg=Transport:Bush
evTypeArg=Transfer-Ownership:weapons
synPathTypes=Transaction_FACILITY_object
evTypeArg=Transport:our
evTypeArg=Transfer-Ownership:airport
chunkPathAndType=Movement_precede_want_to
synPathEvType=Movement_poss
evTypeArg=Transport:bush
evTypeArg=Transport:journalists
synPathTypes=Transaction_WEA_object
evTypeArg=Transport:person
chunkPathAndType=Movement_precede_can
evTypeArg=Transport:Iraqis
evTypeArg=Transport:she
anchor=thrust
prevTokenAndType=Movement_-
arg=base
anchor=show
anchor=approach
prevTokenAndType=Movement_get
anchor=withdraw
anchor=penetrate
anchor=tour/n
dist=9
prevToken=for
dist=13
anchor=throw
anchor=put
anchor=leave
anchor=run
dist=11
anchor=drive
prevToken='s
prevToken=see
anchor=visit/n
anchor=launch
anchor=invade
anchor=back
anchor=smuggle
anchor=deport
anchor=deploy
anchor=haul
prevTokenAndType=Movement_for
prevToken=from
chunkPath=follow_for
anchor=be
chunkPath=follow_of
prevToken=-
prevToken=got
anchor=head/n
anchor=transfer
anchor=end
anchor=report
anchor=have
prevToken=bring
dist=17
prevToken=over
anchor=march/n
anchor=that
anchor=march
anchor=visit
anchor=reach
prevToken=into
anchor=punch
anchor=push
arg=bridge
arg=prison
prevToken=through
menType=FACILITY
chunkPath=follow_into
arg=another
anchor=deliver
chunkPath=follow_over
arg=airport
anchor=due
arg=house
anchor=pour
prevToken=get
prevToken=now
anchor=advance
anchor=move/n
chunkPathAndType=Movement_follow_over
anchor=advance/n
anchor=travel
anchor=flee
anchor=travel/n
anchor=cross
anchor=enter
anchor=push/n
prevTokenAndType=Movement_through
anchor=way/n
prevTokenAndType=Movement_over
chunkPathAndType=Movement_follow_of
anchor=follow
prevTokenAndType=Movement_see
prevTokenAndType=Movement_from
anchor=close
prevTokenAndType=Movement_say
synPathEvType=Movement_nameMod
chunkPathAndType=Movement_precede_try_to
evTypeArg=Transport:that
evTypeArg=Transport:us
evTypeArg=Transport:we
evTypeArg=Transport:he
chunkPath=precede_try_to
evTypeArg=Transport:you
evTypeArg=Transport:We
evTypeArg=Transport:forces
prevTokenAndType=Movement_where
evTypeArg=Transport:soldiers
prevTokenAndType=Movement_so
chunkPathAndType=Movement_precede_did
evTypeArg=Transport:He
chunkPathAndType=Movement_precede_expect_to
chunkPathAndType=Movement_precede_have_to
evTypeArg=Transport:I
prevTokenAndType=Movement_have
evTypeArg=Transport:They
synPathTypes=Movement_PERSON_subject
chunkPathAndType=Movement_precede_'ll
evTypeArg=Transport:troops
chunkPathAndType=Movement_precede_could
chunkPath=precede_'m
chunkPath=precede_would
prevToken=the
synPath=nameMod
anchor=out
arg=we
prevToken=but
prevToken=:
prevToken=said
prevToken=where
arg=people
prevToken=including
chunkPath=precede_have_to
arg=Bush
menType=PERSON
arg=he
arg=him
arg=who
prevToken=if
arg=you
arg=I
arg=her
arg=members
arg=she
arg=his
arg=woman
arg=Iraqis
prevToken=think
arg=one
arg=He
chunkPath=follow_by
arg=your
prevToken=before
prevToken=have
chunkPath=precede_want_to
arg=us
arg=officials
prevToken=so
prevToken=how
prevToken=like
prevToken=say
arg=person
arg=man
prevToken=are
arg=father
chunkPath=precede_who
anchor=capture
arg=pilots
chunkPath=precede_could
arg=that
arg=head
prevToken=brought
arg=kramers
dist=15
prevToken="
prevToken=time
arg=We
menType=ORGANIZATION
arg=They
chunkPath=follow_,
arg=troops
prevToken=not
chunkPath=precede_'ve
chunkPath=precede_'ll
prevToken=then
chunkPath=precede_did
prevToken=meet
arg=mother
arg=women
chunkPath=precede_expect_to
arg=thousands
chunkPath=precede_will_be
chunkPath=precede_didn't
arg=gunman
chunkPath=precede_--
prevToken=an
arg=marines
arg=fighters
arg=soldiers
arg=forces
arg=force
arg=soldier
arg=terrorists
anchor=pick
anchor=abandon
arg=journalists
anchor=kick
evTypeArg=Transport:who
prevTokenAndType=Movement_but
chunkPath=precede_do
evTypeArg=Transport:people
anchor=expel
anchor=withdrawal/n
chunkPathAndType=Movement_follow_by
anchor=clear
prevTokenAndType=Movement_said
prevToken=put
synPath=poss
prevToken=be
chunkPath=precede_'s
arg=president
anchor=win
anchor=give
prevToken=among
arg=bush
chunkPath=precede_go_to
arg=their
prevToken=says
chunkPath=follow_with
prevToken=day
prevToken=saying
arg=Americans
chunkPath=precede_get
arg=them
arg=wife
arg=i
chunkPath=precede_plan_to
chunkPath=precede_can
synPath=of
prevToken=once
arg=our
arg=leader
prevToken=out
arg=son
arg=many
arg=children
arg=daughter
chunkPath=precede_who_have_be
chunkPath=precede_be_to
anchor=force
chunkPath=precede_go_to_be
chunkPath=precede_be_be
arg=militants
arg=personnel
chunkPath=precede_have_be
prevToken=which
prevToken=whether
arg=men
prevToken=until
prevToken=want
prevToken=captured
dist=16
anchor=seize
chunkPath=precede_that_be
chunkPath=precede_be_to_be
arg=girls
arg=boy
arg=baby
arg=officers
arg=Giuliani
arg=member
arg=brother
prevToken=When
prevToken=was
chunkPath=follow_the
arg=Tony_Blair
arg=representatives
chunkPath=precede_may_have
arg=team
arg=sons
synPath=of-1
prevToken=what
prevToken=since
anchor=pay
synPath=object-1:make:subject
arg=protesters
arg=saddam_hussein
arg=friends
arg=family
arg=citizens
arg=company
prevToken=''
prevToken=all
prevToken=let
arg=friend
anchor=retreat/n
prevToken=told
arg=side
arg=units
arg=Israelis
arg=enemy
chunkPath=precede_that
prevToken=sent
prevTokenAndType=Transaction_captured
evType=Transaction
chunkPathAndType=Transaction_follow_
dist=20
prevTokenAndType=Transaction_in
prevTokenAndType=Transaction_of
prevTokenAndType=Transaction_,
prevTokenAndType=Transaction_on
anchor=sell
anchor=purchase
arg=target
prevToken=make
arg=diplomats
arg=Most
prevToken=prevent
menType=WEA
chunkPathAndType=Transaction_precede_
prevTokenAndType=Transaction_and
synPathEvType=Transaction_object
prevTokenAndType=Transaction_.
prevTokenAndType=Transaction_--
anchor=provide
chunkPathAndType=Transaction_precede_be
prevTokenAndType=Transaction_for
chunkPathAndType=Transaction_follow_of
synPathTypes=Transaction_ORGANIZATION_object
prevTokenAndType=Transaction_into
chunkPathAndType=Transaction_precede_get
prevToken=dropped
prevToken=So
prevTokenAndType=Transaction_over
arg=crew
arg=passengers
prevToken=MALE
arg=sister
anchor=acquire
anchor=buy
anchor=export
anchor=sale/n
anchor=buys
evTypeArg=Transfer-Ownership:company
evTypeArg=Transfer-Ownership:they
chunkPath=precede_from
anchor=control/n
anchor=swallow
arg=weapons
arg=missiles
arg=arms
arg=gun
arg=rifle
evTypeArg=Transport:her
synPathEvType=Movement_object-1:make:subject
arg=silver_cross
prevToken=ship
arg=Ocalan
prevToken=come
evTypeArg=Transport:Boston
prevTokenAndType=Movement_entering
prevTokenAndType=Movement_come
evTypeArg=Transport:house
evTypeArg=Transport:planet
evTypeArg=Transport:mars
prevTokenAndType=Movement_up
chunkPathAndType=Movement_follow_back_to
evTypeArg=Transport:New_England
prevToken=coming
arg=Boston
arg=planet
evTypeArg=Transport:center
arg=New_England
prevTokenAndType=Movement_towards
prevTokenAndType=Movement_coming
chunkPath=follow_back_to
prevTokenAndType=Movement_enter
chunkPathAndType=Movement_follow_at
prevTokenAndType=Movement_visited
noChunkPath
prevToken=is
evType=Justice
prevToken=?
prevTokenAndType=Justice_to
anchor=extradite
anchor=extradition/n
menType=GPE
arg=U.S
arg=United_States
prevToken=between
prevToken=headed
arg=Israel
arg=state
arg=US
arg=u.s
arg=Turkey
evTypeArg=Transport:Turkey
evTypeArg=Transport:United_States
anchor=return/n
chunkPath=follow_to
anchor=walk
prevToken=about
prevToken=secure
prevToken=up
prevToken=against
arg=country
arg=Iraq
chunkPath=follow_in_GPE_,
prevToken=left
arg=Seoul
arg=where
arg=facility
chunkPath=follow_at
chunkPath=follow_on
arg=there
arg=iraq
arg=Jordan
prevToken=visited
arg=sides
chunkPath=follow_against
arg=Washington
arg=region
prevToken=him
arg=Mosul
prevToken=across
arg=compound
prevToken=along
arg=camp
arg=border
arg=port
arg=florida
arg=mall
arg=Karbala
arg=mars
arg=areas
arg=room
prevToken=enter
prevToken=inside
prevToken=entering
arg=Paris
arg=village
arg=streets
arg=saudi_arabia
arg=place
arg=checkpoint
prevToken=outside
arg=center
arg=buildings
arg=site
prevToken=towards
arg=store
arg=baghdad
menType=LOCATION
arg=home
arg=hotel
arg=office
prevToken=near
arg=building
arg=outskirts
arg=part
arg=Pearl
prevToken=within
arg=Pyongyang
prevTokenAndType=Movement_into
arg=FL
arg=city
arg=town
arg=china
arg=hospital
arg=Baghdad
arg=desert
evTypeArg=Transport:Iraq
chunkPathAndType=Movement_follow_into
arg=London
arg=capital
prevToken=around
arg=here
arg=area
arg=Kuwait
arg=france
arg=New_York
chunkPathAndType=Justice_follow_to
chunkPath=follow_towards
chunkPath=follow_him
chunkPathAndType=Movement_follow_on
evTypeArg=Transport:hospital
evTypeArg=Transport:station
chunkPath=follow_through
arg=jurisdiction
evTypeArg=Transport:capital
chunkPathAndType=Movement_follow_through
evTypeArg=Transport:Niagara_Falls
arg=Afghanistan
evTypeArg=Transport:outskirts
evTypeArg=Transport:town
evTypeArg=Transport:city
evTypeArg=Transport:there
chunkPath=follow_toward
chunkPathAndType=Movement_follow_to
arg=Niagara_Falls
prevTokenAndType=Movement_toward
evTypeArg=Transport:state
evTypeArg=Transport:home
evTypeArg=Transport:airport
prevTokenAndType=Movement_left
evTypeArg=Transport:Baghdad
evTypeArg=Transport:Afghanistan
chunkPathAndType=Movement_follow_toward
evTypeArg=Transport:building
evTypeArg=Transport:iraq
synPathTypes=Movement_FACILITY_object
evTypeArg=Transport:country
synPathTypes=Movement_LOCATION_object
arg=station
synPathTypes=Movement_GPE_object
evTypeArg=Transport:here
evTypeArg=Transport:area
prevToken=toward
chunkPathAndType=Movement_follow_her_to
evTypeArg=Transport:London
evTypeArg=Transport:baghdad
chunkPath=follow_her_to
prevToken=reached
chunkPath=follow_him_to
chunkPathAndType=Life_precede_find_guilty_of
synPathTypes=Movement_GPE_subject
evTypeArg=Start-Org:they
prevTokenAndType=Life_Trial
evTypeArg=Arrest-Jail:we
evTypeArg=Die:Scott_Peterson
evTypeArg=Arrest-Jail:police
chunkPath=precede_find_guilty_of
arg=cleric
chunkPath=precede_should_be
prevTokenAndType=Personnel_see
chunkPathAndType=Life_precede_want_to
evTypeArg=Arrest-Jail:they
evTypeArg=Arrest-Jail:you
prevToken=me
synPathTypes=Personnel_PERSON_subject
anchor=nominate
synPathEvType=Personnel_subject
evType=Personnel
chunkPathAndType=Personnel_precede_
prevTokenAndType=Personnel_and
anchor=did
anchor=name
prevTokenAndType=Personnel_by
prevToken=know
arg=someone
arg=leaders
arg=You
arg=group
prevToken=00
prevTokenAndType=Justice_,
prevTokenAndType=Justice_and
prevTokenAndType=Justice_.
synPathEvType=Justice_subject
synPathEvType=Justice_object
prevTokenAndType=Justice_that
arg=killer
synPathTypes=Justice_PERSON_subject
arg=somebody
arg=parents
prevToken=And
prevTokenAndType=Personnel_--
anchor=start
chunkPath=precede_need_to
anchor=select
prevTokenAndType=Justice_when
synPathTypes=Justice_PERSON_object
arg=serious
anchor=kill
arg=Saddam
prevToken=allow
prevToken=had
prevToken=why
prevToken=If
arg=Tugle
synPathEvType=Life_nameMod
evType=Life
anchor=execute
anchor=arrest
prevTokenAndType=Justice_of
chunkPathAndType=Justice_precede_
prevTokenAndType=Justice_)
chunkPathAndType=Life_precede_be
synPathEvType=Life_object
anchor=execution/n
chunkPathAndType=Life_precede_
prevTokenAndType=Life_.
chunkPathAndType=Life_follow_
anchor=die
prevTokenAndType=Life_,
anchor=death/n
prevTokenAndType=Life_of
prevTokenAndType=Life_when
arg=suspect
arg=Saddam_Hussein
arg=nichols
prevTokenAndType=Life_after
synPathTypes=Life_PERSON_object
prevTokenAndType=Life_before
prevTokenAndType=Life_if
prevTokenAndType=Life_think
prevTokenAndType=Life_that
prevTokenAndType=Life_)
prevTokenAndType=Life_but
synPathTypes=Life_PERSON_subject
prevTokenAndType=Life_because
prevTokenAndType=Life_:
prevTokenAndType=Life_and
synPathEvType=Life_subject
anchor=do
anchor=detain
anchor=custody/n
arg=peterson
prevToken=a
prevToken=been
arg=delegates
arg=Palestinian
arg=nation
arg=police
arg=regime
prevToken=while
prevToken=woman
arg=administration
prevToken=who
arg=texas
arg=government
arg=court
prevToken=A
anchor=turn
prevToken=``
prevToken=tell
prevToken=But
arg=Yasser_Arafat
prevToken=asked
arg=sniper
arg=military
arg=israel
anchor=torture
anchor=gun
anchor=blow
anchor=destroy
anchor=shoot
anchor=open
anchor=assault/n
arg=Israeli
anchor=it
arg=militia
anchor=beat
anchor=poison
prevToken=killing
arg=those
arg=Marines
arg=hamas
arg=Sharif
arg=attackers
arg=bomber
arg=extremists
arg=coalition
arg=countries
arg=banks
arg=malvo
anchor=this
evType=Business
anchor=stab
synPathTypes=Justice_GPE_subject
prevTokenAndType=Life_'s
chunkPathAndType=Life_precede_who
anchor=assassination/n
anchor=murder/n
prevTokenAndType=Life_the
anchor=injury/n
anchor=casualty/n
anchor=wound
anchor=injure
anchor=dead
anchor=killing/n
anchor=murder
anchor=set
chunkPath=follow_in_the
arg=Pakistan
prevTokenAndType=Life_a
chunkPath=follow_when
chunkPathAndType=Life_follow_when
anchor=shape
prevToken=plus
prevTokenAndType=Justice_by
chunkPathAndType=Justice_follow_by
prevToken=than
evTypeArg=Die:soldier
evTypeArg=Die:journalists
evTypeArg=Injure:one
evTypeArg=Die:Iraqis
chunkPathAndType=Life_precede_have
evTypeArg=Die:he
evTypeArg=Die:her
chunkPathAndType=Life_follow_,
prevTokenAndType=Life_say
evTypeArg=Die:woman
anchor=extermination/n
evTypeArg=Die:mother
evTypeArg=Die:his
evTypeArg=Die:you
evTypeArg=Die:soldiers
prevTokenAndType=Life_including
evTypeArg=Die:Yasser_Arafat
evTypeArg=Die:they
evTypeArg=Die:people
evTypeArg=Die:man
evTypeArg=Die:members
prevTokenAndType=Life_where
evTypeArg=Die:troops
evTypeArg=Die:bomber
evTypeArg=Die:person
prevTokenAndType=Life_killing
evTypeArg=Die:who
prevTokenAndType=Life_"
anchor=blind
anchor=hurt
prevToken=just
prevTokenAndType=Business_and
anchor=found
prevTokenAndType=Business_that
chunkPathAndType=Business_precede_
prevToken=sentenced
prevTokenAndType=Life_by
chunkPathAndType=Life_follow_by
prevToken=After
anchor=create
synPathEvType=Business_subject
chunkPathAndType=Business_precede_to
synPathTypes=Business_ORGANIZATION_subject
prevTokenAndType=Business_,
prevTokenAndType=Business_.
prevTokenAndType=Business_by
arg=Scott_Peterson
prevToken=Trial
arg=Vang
arg=Peterson
prevTokenAndType=Justice_are
chunkPathAndType=Personnel_precede_would_like_to_see
prevToken=hire
evTypeArg=Start-Position:he
evTypeArg=Start-Position:figures
evTypeArg=Start-Position:people
prevTokenAndType=Personnel_fired
prevTokenAndType=Personnel_Cabinet
arg=Sistani
evTypeArg=Start-Position:Who
prevTokenAndType=Personnel_hire
anchor=divorce/n
prevTokenAndType=Personnel_-
arg=Tvrdik
chunkPathAndType=Personnel_precede_would_you
evTypeArg=Arrest-Jail:people
chunkPath=precede_would_like_to_see
chunkPathAndType=Personnel_follow_president
synPathTypes=Personnel_PERSON_object
evTypeArg=End-Position:she
arg=candidate
evTypeArg=Arrest-Jail:him
prevTokenAndType=Personnel_appoint
anchor=ceremony/n
chunkPathAndType=Personnel_precede_'m
prevToken=Cabinet
evTypeArg=Arrest-Jail:he
chunkPath=follow_president
synPathTypes=Personnel_PERSON_of
prevTokenAndType=Personnel_which
evTypeArg=End-Position:Colin_Powell
evTypeArg=Elect:Sistani
evTypeArg=Release-Parole:your
evTypeArg=Be-Born:child
evTypeArg=Start-Position:I
chunkPathAndType=Personnel_precede_get
evTypeArg=End-Position:he
evTypeArg=End-Position:I
evTypeArg=Start-Position:they
arg=CEO
chunkPath=precede_would_you
evTypeArg=Elect:Bush
prevTokenAndType=Personnel_think
evTypeArg=Elect:he
evTypeArg=End-Position:him
evTypeArg=End-Position:members
evTypeArg=End-Position:CEO
arg=figures
prevTokenAndType=Personnel_put
evTypeArg=End-Position:minister
chunkPathAndType=Personnel_follow_ORGANIZATION
anchor=quit
chunkPathAndType=Personnel_precede_be
anchor=removal/n
prevTokenAndType=Personnel_be
prevTokenAndType=Personnel_as
chunkPathAndType=Personnel_follow_to
chunkPathAndType=Personnel_precede_'s
prevTokenAndType=Personnel_to
synPathEvType=Personnel_object
prevTokenAndType=Personnel_that
chunkPathAndType=Personnel_precede_have
anchor=fire
chunkPath=follow_from
synPathEvType=Personnel_poss
prevTokenAndType=Personnel_of
anchor=new
anchor=hire
prevTokenAndType=Personnel_,
prevTokenAndType=Personnel_in
prevTokenAndType=Personnel_.
anchor=former
prevTokenAndType=Personnel_for
prevTokenAndType=Personnel_the
anchor=resign
chunkPathAndType=Personnel_follow_
anchor=elect
anchor=election/n
anchor=retire
anchor=become
prevTokenAndType=Personnel_from
arg=minister
anchor=appoint
arg=chief
anchor=step
anchor=replace
anchor=appointment/n
anchor=introduce
prevTokenAndType=Personnel_after
synPathEvType=Personnel_nameMod
anchor=lose
arg=President
arg=governor
chunkPath=follow_ORGANIZATION
anchor=re/n
arg=executive
arg=prosecutor
arg=Al-Douri
prevTokenAndType=Personnel_if
chunkPathAndType=Personnel_follow_by
arg=Colin_Powell
arg=Rumsfeld
prevTokenAndType=Personnel_says
prevTokenAndType=Personnel_when
anchor=overthrow
anchor=cut
prevToken=has
chunkPath=precede_might
anchor=electoral
chunkPathAndType=Personnel_follow_of
prevTokenAndType=Personnel_said
arg=jordan
anchor=release/n
prevTokenAndType=Personnel_at
prevTokenAndType=Personnel_:
anchor=dismiss
prevTokenAndType=Justice_on
anchor=release
prevToken=were
anchor=hold
arg=employees
arg=She
arg=guy
arg=Anwar
arg=Pasko
prevTokenAndType=Justice_said
chunkPathAndType=Justice_precede_will
prevToken=only
synPath=object-1:have:subject
anchor=join
chunkPathAndType=Justice_precede_be_be
arg=sam_waksal
arg=judge
prevTokenAndType=Justice_got
arg=terrorist
dist=18
prevToken=engage
chunkPath=precede_be_in
prevToken=arrested
dist=19
arg=Ba'asyir
arg=Toefting
anchor=married
anchor=arrest/n
synPathEvType=Personnel_of
chunkPathAndType=Justice_follow_
chunkPathAndType=Justice_follow_of
anchor=fall
synPathEvType=Life_poss
prevTokenAndType=Life_to
prevTokenAndType=Life_from
anchor=birth/n
anchor=wed
anchor=born
anchor=tie
prevTokenAndType=Personnel_on
anchor=marry
anchor=charge/n
anchor=sentence/n
prevToken=The
anchor=serve
anchor=marriage/n
arg=minor
arg=Shah
chunkPath=precede_,_be
anchor=sign
dist=21
arg=candidates
prevToken=pay
synPath=object:lot:of
synPathTypes=Justice_PERSON_of
synPathEvType=Justice_of
synPathEvType=Justice_poss
chunkPathAndType=Justice_precede_'s
chunkPathAndType=Justice_precede_be
synPathTypes=Justice_PERSON_poss
prevTokenAndType=Justice_where
arg=Chiluba
prevTokenAndType=Justice_after
prevTokenAndType=Justice_including
prevToken=appoint
arg=girl
arg=child
synPathTypes=Life_PERSON_poss
chunkPathAndType=Life_follow_to
arg=my
synPathTypes=Life_PERSON_of
arg=Who
chunkPathAndType=Life_precede_'s
prevTokenAndType=Life_out
prevTokenAndType=Life_--
chunkPathAndType=Life_follow_of
prevTokenAndType=Life_with
synPathEvType=Life_of
prevTokenAndType=Life_for
prevTokenAndType=Life_about
arg=three
prevToken=fire
anchor=wedding/n
anchor=resignation/n
prevToken=release
prevTokenAndType=Justice_arrested
anchor=divorce
prevToken=On
anchor=parole/n
prevToken=fired
arg=martha_stewart
arg=murderer
prevTokenAndType=Justice_before
prevTokenAndType=Justice_but
prevTokenAndType=Justice_think
prevTokenAndType=Justice_if
chunkPathAndType=Justice_precede_have_be
chunkPathAndType=Justice_precede_,_be
prevTokenAndType=Justice_say
prevTokenAndType=Justice_with
arg=Senator
arg=Gov
synPathTypes=Personnel_Job-Title_object
menType=Job-Title
chunkPathAndType=Personnel_follow_as
evTypeArg=End-Position:Senator
prevTokenAndType=Personnel_new
prevToken=new
prevToken=elected
prevTokenAndType=Personnel_former
prevToken=former
chunkPathAndType=Personnel_follow_from
evTypeArg=Elect:president
prevTokenAndType=Personnel_elected
prevTokenAndType=Personnel_Former
prevTokenAndType=Personnel_retired
prevToken=retired
prevToken=Former
anchor=eliminate
chunkPath=follow_a
prevTokenAndType=Personnel_a
chunkPath=follow_as
prevToken=lost
chunkPath=follow_GPE
chunkPathAndType=Personnel_follow_the
prevToken=serving
evTypeArg=Meet:you
synPathEvType=Contact_subject
synPathEvType=Contact_object-1:get:subject
evTypeArg=Phone-Write:who
prevTokenAndType=Contact_is
evTypeArg=Meet:leaders
evTypeArg=Demonstrate:Iraqis
synPath=object-1:get:subject
anchor=contact
prevTokenAndType=Contact_``
evTypeArg=Start-Position:there
anchor=tell
synPathTypes=Contact_PERSON_poss
prevTokenAndType=Contact_by
evTypeArg=Meet:bush
synPathEvType=Contact_poss
evTypeArg=Phone-Write:we
evTypeArg=Meet:Al-Douri
evTypeArg=Phone-Write:us
evTypeArg=Meet:He
prevTokenAndType=Contact_of
evTypeArg=Meet:George_W._Bush
chunkPathAndType=Contact_follow_with
evTypeArg=Phone-Write:I
prevTokenAndType=Contact_where
evTypeArg=Meet:Annan
anchor=sit
synPathTypes=Contact_PERSON_object
synPathTypes=Contact_PERSON_subject
arg=Annan
prevTokenAndType=Contact_-
prevTokenAndType=Contact_what
evTypeArg=Meet:minister
prevTokenAndType=Contact_when
synPathTypes=Contact_PERSON_object-1:get:subject
prevTokenAndType=Contact_''
evTypeArg=Phone-Write:her
evTypeArg=Demonstrate:protesters
prevTokenAndType=Contact_between
prevTokenAndType=Contact_that
chunkPathAndType=Contact_follow_from
evTypeArg=Meet:who
synPathTypes=Personnel_ORGANIZATION_object
evTypeArg=Meet:officials
evTypeArg=Phone-Write:you
evTypeArg=Phone-Write:mother
evTypeArg=Meet:members
synPathTypes=Personnel_ORGANIZATION_subject
prevTokenAndType=Contact_with
anchor=write
evTypeArg=Meet:their
chunkPathAndType=Contact_precede_can
evTypeArg=Phone-Write:they
evTypeArg=Meet:we
chunkPathAndType=Contact_follow_of
chunkPathAndType=Contact_precede_will
evTypeArg=Meet:they
evTypeArg=Meet:people
evTypeArg=Phone-Write:people
evTypeArg=Meet:he
anchor=message/n
chunkPathAndType=Contact_precede_have
evTypeArg=Meet:North_Korea
evTypeArg=Meet:president
evTypeArg=Demonstrate:people
chunkPath=follow_between
arg=groups
arg=demonstrators
synPathTypes=Conflict_PERSON_poss
arg=George_W._Bush
chunkPathAndType=Conflict_precede_go_to
arg=China
arg=israeli
evType=Conflict
anchor=one
prevTokenAndType=Conflict_"
chunkPathAndType=Conflict_precede_be
prevTokenAndType=Conflict_and
chunkPathAndType=Conflict_precede_
prevTokenAndType=Conflict_of
prevTokenAndType=Conflict_,
prevTokenAndType=Conflict_.
synPathEvType=Conflict_subject
prevTokenAndType=Conflict_as
prevTokenAndType=Conflict_with
chunkPathAndType=Conflict_follow_of
anchor=use
chunkPath=precede_for
prevTokenAndType=Conflict_a
arg=Japan
prevToken=persuade
anchor=campaign/n
prevToken=sure
synPathTypes=Conflict_PERSON_subject
prevTokenAndType=Conflict_)
arg=Arafat
arg=others
prevToken=give
prevTokenAndType=Conflict_that
prevTokenAndType=Conflict_said
prevTokenAndType=Conflict_by
prevTokenAndType=Conflict_says
prevToken=Because
arg=North_Korea
chunkPath=precede_'d
prevToken=long
arg=Palestinians
arg=Army
arg=army
chunkPath=precede_don't
synPathEvType=Conflict_poss
anchor=telephone/n
prevTokenAndType=Contact_from
anchor=reunite
prevTokenAndType=Contact_to
prevToken=call
prevTokenAndType=Contact_call
anchor=gather
arg=United_Nations
evTypeArg=Meet:Seoul
synPathEvType=Contact_object
anchor=gathering/n
synPathEvType=Contact_nameMod
chunkPathAndType=Contact_follow_to
evTypeArg=Elect:government
evTypeArg=Elect:Iraq
anchor=demonstration/n
prevTokenAndType=Contact_,
evType=Contact
anchor=meet
synPathEvType=Conflict_of
anchor=fine/n
prevTokenAndType=Contact_meeting
prevTokenAndType=Contact_meet
prevTokenAndType=Contact_on
anchor=letter/n
prevToken=meeting
anchor=speak
anchor=protest/n
anchor=conference/n
prevTokenAndType=Contact_.
anchor=talk
chunkPathAndType=Contact_follow_
chunkPath=follow_be
anchor=demonstrate
anchor=protest
anchor=summit/n
anchor=meeting/n
chunkPathAndType=Contact_precede_
prevTokenAndType=Contact_a
anchor=call
prevTokenAndType=Contact_the
anchor=talk/n
anchor=rally/n
prevTokenAndType=Contact_in
anchor=hear
prevToken=leave
prevTokenAndType=Contact_and
prevTokenAndType=Justice_the
anchor=call/n
prevTokenAndType=Justice_from
chunkPathAndType=Justice_follow_on
synPath=object-1:receive:subject
arg=companies
arg=american
arg=me
arg=two
arg=airline
anchor=spend
arg=families
arg=shareholders
prevToken=drop
arg=enron
arg=paper
prevTokenAndType=Justice_against
anchor=fine
chunkPath=follow_PERSON
arg=commanders
arg=husband
chunkPath=follow_,_include
prevTokenAndType=Contact_as
anchor=e-mail
prevToken=met
anchor=interview/n
chunkPathAndType=Contact_precede_'s
prevTokenAndType=Contact_met
anchor=discuss
anchor=discussion/n
prevTokenAndType=Contact_for
anchor=phone/n
prevToken=started
anchor=talks/n
prevTokenAndType=Personnel_since
prevTokenAndType=Contact_said
arg=physician
arg=stewart
arg=judges
evTypeArg=Attack:US
evTypeArg=Attack:North_Korea
chunkPathAndType=Conflict_precede_have
evTypeArg=Attack:america
evTypeArg=Attack:military
evTypeArg=Attack:Japan
evTypeArg=Attack:militants
evTypeArg=Attack:group
chunkPathAndType=Conflict_follow_between
evTypeArg=Attack:U.S
synPathTypes=Conflict_GPE_poss
evTypeArg=Attack:terrorists
evTypeArg=Attack:terrorist
evTypeArg=Attack:israeli
synPathTypes=Conflict_ORGANIZATION_subject
evTypeArg=Attack:coalition
evTypeArg=Attack:u.s
evTypeArg=Attack:Palestinian
evTypeArg=Attack:groups
evTypeArg=Attack:sniper
arg=united_states
anchor=firefight/n
evTypeArg=Attack:Israel
anchor=resistance/n
arg=america
evTypeArg=Attack:China
arg=iran
evTypeArg=Attack:Iran
evTypeArg=Attack:Iraq
synPathTypes=Conflict_GPE_subject
chunkPathAndType=Conflict_follow_from
evTypeArg=Attack:Israeli
evTypeArg=Attack:country
synPathTypes=Conflict_GPE_nameMod
synPathTypes=Conflict_GPE_object
arg=Britain
evTypeArg=Attack:nation
evTypeArg=Attack:United_States
synPathEvType=Conflict_nameMod
evTypeArg=Attack:Britain
chunkPathAndType=Conflict_follow_
anchor=ambush
anchor=strangle
anchor=targeted
anchor=conquer
evTypeArg=Attack:people
evTypeArg=Attack:their
anchor=engage
prevTokenAndType=Conflict_but
evTypeArg=Attack:we
prevTokenAndType=Conflict_against
anchor=rape
chunkPathAndType=Conflict_follow_against
prevToken=killed
anchor=hit
anchor=war/n
anchor=airstrikes/n
anchor=shot/n
anchor=battle
anchor=attack
anchor=raid
anchor=combat/n
anchor=front/n
anchor=storm
anchor=assault
prevTokenAndType=Conflict_from
anchor=raid/n
prevTokenAndType=Conflict_or
anchor=detonate
anchor=hit/n
anchor=battle/n
anchor=clash/n
anchor=attack/n
prevTokenAndType=Conflict_:
anchor=fire/n
prevTokenAndType=Conflict_the
anchor=explosion/n
anchor=bomb
anchor=fighting/n
anchor=fight
anchor=strike/n
anchor=strike
prevTokenAndType=Conflict_in
anchor=charge
anchor=clash
anchor=slaughter
anchor=bombings/n
anchor=bombardment/n
prevTokenAndType=Conflict_for
prevTokenAndType=Conflict_on
chunkPathAndType=Conflict_precede_,
prevTokenAndType=Conflict_into
synPathEvType=Conflict_object
anchor=obliterate
anchor=shell
prevTokenAndType=Conflict_when
anchor=striking
anchor=explode
anchor=target/n
anchor=massacre/n
prevTokenAndType=Conflict_-
anchor=violence/n
evTypeArg=Attack:it
chunkPathAndType=Conflict_follow_with
prevTokenAndType=Conflict_to
anchor=rape/n
anchor=scald
synPath=object-1:face:subject
anchor=terrorism/n
anchor=gunfire/n
anchor=War
anchor=drop/n
anchor=terror/n
anchor=fight/n
prevTokenAndType=Conflict_is
prevTokenAndType=Conflict_'s
anchor=invasion/n
anchor=action/n
arg=Indonesia
arg=Iran
anchor=riot
chunkPathAndType=Conflict_precede_at
prevTokenAndType=Conflict_because
chunkPath=precede_at
anchor=conflict/n
prevToken=this
evTypeArg=Attack:hamas
evTypeArg=Attack:who
evTypeArg=Attack:We
prevTokenAndType=Conflict_whether
evTypeArg=Attack:Americans
evTypeArg=Attack:fighters
anchor=targeting
prevTokenAndType=Conflict_attack
evTypeArg=Attack:marines
evTypeArg=Attack:woman
evTypeArg=Attack:units
evTypeArg=Attack:men
evTypeArg=Attack:others
synPathTypes=Conflict_PERSON_object
evTypeArg=Attack:man
evTypeArg=Attack:iraqis
evTypeArg=Attack:forces
evTypeArg=Attack:soldiers
evTypeArg=Attack:you
evTypeArg=Attack:her
evTypeArg=Attack:him
evTypeArg=Attack:his
evTypeArg=Attack:militia
evTypeArg=Attack:civilians
prevTokenAndType=Conflict_including
evTypeArg=Attack:Marines
prevTokenAndType=Conflict_engage
chunkPathAndType=Conflict_precede_have_be
evTypeArg=Attack:They
evTypeArg=Attack:them
prevTokenAndType=Conflict_killing
evTypeArg=Attack:Iraqis
evTypeArg=Attack:members
evTypeArg=Attack:troops
evTypeArg=Attack:he
evTypeArg=Attack:those
evTypeArg=Attack:regime
anchor=punch/n
evTypeArg=Attack:Saddam
evTypeArg=Attack:she
chunkPath=precede_in
arg=victims
evTypeArg=Attack:person
arg=civilians
anchor=assassinate
arg=iraqis
anchor=abuse/n
prevTokenAndType=Conflict_killed
prevToken=attack
prevTokenAndType=Conflict_after
anchor=shootings/n
prevTokenAndType=Conflict_where
prevTokenAndType=Conflict_if
evTypeArg=Attack:they
prevTokenAndType=Conflict_say
evTypeArg=Attack:one
chunkPathAndType=Conflict_follow_,
prevTokenAndType=Conflict_which
arg=gunmen
chunkPath=follow_:
arg=attacker
arg=israelis
prevTokenAndType=Conflict_Iraq
chunkPathAndType=Conflict_precede_to
chunkPathAndType=Conflict_precede_'s
prevToken=Iraq
anchor=incursion/n
anchor=lob
chunkPath=precede_engage_in_major
prevTokenAndType=Conflict_before
chunkPathAndType=Conflict_precede_engage_in_major
evTypeArg=Attack:bomber
prevTokenAndType=Conflict_had
prevToken=firing
anchor=use/n
prevTokenAndType=Conflict_between
prevTokenAndType=Conflict_why
chunkPathAndType=Conflict_follow_by
prevTokenAndType=Conflict_--
prevTokenAndType=Conflict_have
prevTokenAndType=Conflict_about
evTypeArg=Attack:hills
evTypeArg=Attack:city
arg=Bali
prevTokenAndType=Contact_at
arg=Kut
evTypeArg=Die:Iraq
evTypeArg=Die:hospital
evTypeArg=Attack:Kut
evTypeArg=Attack:place
evTypeArg=Attack:there
arg=new_york
evTypeArg=Injure:mall
evTypeArg=Die:there
prevTokenAndType=Conflict_across
chunkPath=follow_near
evTypeArg=Injure:Baghdad
chunkPathAndType=Conflict_follow_near
evTypeArg=Die:checkpoint
prevToken=recent
chunkPath=precede_otherName
evTypeArg=Attack:Baghdad
prevTokenAndType=Personnel_recent
evTypeArg=Attack:Vietnam
arg=Vietnam
evTypeArg=Attack:area
arg=africa
evTypeArg=Attack:iraq
evTypeArg=Attack:village
prevTokenAndType=Conflict_around
arg=gaza
evTypeArg=Elect:US
evTypeArg=Attack:gaza
evTypeArg=Attack:capital
synPathTypes=Conflict_GPE_of
evTypeArg=Attack:bridge
evTypeArg=Attack:here
chunkPathAndType=Personnel_precede_otherName
anchor=suicide/n
prevTokenAndType=Life_in
anchor=bankruptcy/n
chunkPathAndType=Personnel_follow_in
chunkPathAndType=Conflict_follow_to
arg=houses
arg=cafe
prevTokenAndType=Conflict_near
synPathTypes=Conflict_FACILITY_object
evTypeArg=Attack:buildings
evTypeArg=Attack:baghdad
anchor=shooting/n
prevTokenAndType=Conflict_outside
evTypeArg=Attack:hotel
prevTokenAndType=Conflict_down
evTypeArg=Attack:outskirts
evTypeArg=Attack:building
chunkPathAndType=Conflict_follow_at
anchor=blast/n
chunkPathAndType=Conflict_follow_on
prevTokenAndType=Conflict_hit
anchor=ambush/n
anchor=airstrike/n
prevTokenAndType=Conflict_at
prevToken=use
prevTokenAndType=Conflict_use
prevTokenAndType=Conflict_since
prevToken=down
anchor=contribution/n
anchor=receive
prevTokenAndType=Transaction_from
anchor=e
prevToken=At
prevTokenAndType=Transaction_to
anchor=suit/n
anchor=appeal/n
anchor=sue
anchor=lawsuit/n
anchor=appeal
anchor=transfer/n
prevTokenAndType=Justice_a
anchor=slaughter/n
prevTokenAndType=Life_said
prevTokenAndType=Life_on
chunkPathAndType=Life_precede_,
chunkPath=precede_,_people
prevTokenAndType=Life_over
prevTokenAndType=Life_killed
prevTokenAndType=Life_at
anchor=wound/n
prevToken=died
prevTokenAndType=Life_In
chunkPathAndType=Business_follow_in
prevTokenAndType=Life_died
chunkPathAndType=Life_follow_in
prevTokenAndType=Personnel_The
prevToken=rally
chunkPathAndType=Contact_follow_on
prevTokenAndType=Justice_In
prevTokenAndType=Justice_in
eleven
prevTokenAndType=Conflict_over
prevTokenAndType=Conflict_In
anchor=nine
anchor=trial/n
chunkPathAndType=Business_follow_
prevTokenAndType=Business_in
chunkPathAndType=Contact_follow_in
chunkPathAndType=Conflict_follow_in
anchor=hearing/n
anchor=sentence
anchor=conviction/n
anchor=convict
anchor=indictment/n
chunkPathAndType=Justice_follow_in
prevTokenAndType=Conflict_was
arg=headquarters
arg=Northern_Ireland
arg=Malaysia
arg=West_Bank
arg=Ohio
arg=Jerusalem
arg=hills
arg=Fallujah
prevTokenAndType=Justice_at
prevTokenAndType=Justice_'s
anchor=pardon
anchor=case/n
anchor=face
anchor=accuse
anchor=try
synPathEvType=Justice_nameMod
evTypeArg=Trial-Hearing:court
evTypeArg=Sentence:court
evTypeArg=Appeal:court
evTypeArg=Charge-Indict:court
prevTokenAndType=Justice_as
prevTokenAndType=Justice_an
arg=1997
menType=Time
menType=Age
chunkPath=follow_in_GPE
prevToken=began
arg=last_week
prevTokenAndType=Movement_a
anchor=verdict/n
prevTokenAndType=Conflict_slaughtered
prevToken=destroyed
prevToken=slaughtered
evTypeArg=Attack:children
evTypeArg=Attack:journalists
chunkPathAndType=Conflict_follow_and_kill
prevToken=targeting
prevTokenAndType=Conflict_perhaps
prevTokenAndType=Conflict_targeting
arg=targets
evTypeArg=Attack:targets
evTypeArg=Attack:divisions
arg=divisions
prevTokenAndType=Conflict_destroyed
evTypeArg=Attack:boy
evTypeArg=Attack:bus
chunkPath=follow_and_kill
synPathTypes=Conflict_LOCATION_object
evTypeArg=Attack:convoy
arg=himself
arg=Ferguson
prevToken=kill
prevToken=perhaps
prevToken=wounding
arg=opponents
arg=grandmother
prevToken=injuring
arg=more
arg=civilian
prevToken=caused
prevToken=injured
arg=4-year-old
arg=journalist
prevToken=bombing
prevTokenAndType=Conflict_bombing
anchor=crossfire/n
evTypeArg=Attack:ship
evTypeArg=Attack:tanks
prevToken=shot
arg=tank
prevTokenAndType=Conflict_shot
evTypeArg=Attack:planes
prevTokenAndType=Conflict_out
synPathTypes=Conflict_VEH_object
evTypeArg=Attack:car
evTypeArg=Attack:helicopter
evTypeArg=Attack:aircraft
prevToken=clear
anchor=park
evTypeArg=Transfer-Money:they
evTypeArg=Transfer-Money:him
evTypeArg=Transfer-Money:government
anchor=gift/n
anchor=loan/n
anchor=donation/n
chunkPathAndType=Transaction_precede_'s
synPathEvType=Transaction_poss
synPathTypes=Transaction_ORGANIZATION_subject
synPathTypes=Transaction_PERSON_subject
synPathEvType=Transaction_subject
prevTokenAndType=Transaction_that
evTypeArg=Transfer-Money:he
anchor=donate
evTypeArg=Transfer-Money:Arafat
synPathTypes=Transaction_PERSON_object
prevTokenAndType=Transaction_by
anchor=fund
prevTokenAndType=Transaction_as
synPathTypes=Transaction_GPE_subject
prevTokenAndType=Transaction_if
chunkPathAndType=Transaction_follow_by
prevTokenAndType=Transaction_when
chunkPathAndType=Transaction_precede_to
chunkPathAndType=Transaction_precede_have
synPathEvType=Transaction_nameMod
prevToken=paying
prevTokenAndType=Transaction_paying
arg=lawyers
prevTokenAndType=Transaction_pay
anchor=out-raised
anchor=steal
prevTokenAndType=Transaction_a
anchor=skim
prevTokenAndType=Transaction_:
chunkPathAndType=Transaction_follow_to
arg=organizations
prevTokenAndType=Transaction_give
prevTokenAndType=Justice_sentence
prevToken=sentence
arg=Bechtel
prevToken=represent
anchor=lawsuits/n
synPathTypes=Justice_ORGANIZATION_subject
prevTokenAndType=Justice_pay
chunkPathAndType=Transaction_follow_:
chunkPathAndType=Justice_precede_in
chunkPath=follow_include
chunkPathAndType=Transaction_follow_in
synPathTypes=Transaction_Numeric_object
menType=Numeric
evTypeArg=Die:He
chunkPathAndType=Life_follow_PERSON_and
evTypeArg=Die:baby
chunkPathAndType=Life_precede_illness_and
chunkPathAndType=Life_precede_have_be
evTypeArg=Die:son
evTypeArg=Die:Arafat
evTypeArg=Die:Americans
evTypeArg=Die:child
prevTokenAndType=Life_lost
evTypeArg=Die:journalist
chunkPathAndType=Life_precede_,_be
evTypeArg=Die:Marines
prevToken=murdering
arg=THOUSANDS
evTypeArg=Injure:others
evTypeArg=Injure:people
chunkPath=precede_illness_and
prevTokenAndType=Life_kill
prevTokenAndType=Life_leader
evTypeArg=Die:civilian
prevTokenAndType=Life_whether
evTypeArg=Die:THOUSANDS
evTypeArg=Die:Jews
evTypeArg=Die:men
prevToken=surrounding
evTypeArg=Die:wife
prevToken=leader
prevTokenAndType=Life_surrounding
prevTokenAndType=Life_injuring
evTypeArg=Die:civilians
prevTokenAndType=Life_wounding
arg=Jews
prevTokenAndType=Life_murdering
chunkPathAndType=Life_follow_,_include
chunkPath=follow_PERSON_and
evTypeArg=Die:crew
evTypeArg=Die:children
anchor=died
evTypeArg=Injure:he
anchor=die/n
anchor=loss/n
prevTokenAndType=Life_injured
anchor=injured
prevToken=keep
evTypeArg=Die:one
chunkPathAndType=Life_precede_to
evTypeArg=Injure:Tuesday
evTypeArg=Attack:Sunday
arg=yesterday
evTypeArg=End-Position:former
prevTokenAndType=Life_hospital
chunkPathAndType=Personnel_precede_GPE_otherName
evTypeArg=Die:last_week
evTypeArg=Die:Monday
prevToken=hospital
prevToken=another
arg=this_weekend
arg=last_year
evTypeArg=Elect:recent
evTypeArg=Attack:Monday
arg=1985
arg=1995
arg=1992
arg=1991
evTypeArg=Meet:today
evTypeArg=Elect:January
arg=recently
arg=2004
arg=2001
arg=recent
prevTokenAndType=Conflict_during
arg=next_week
evTypeArg=Transport:Wednesday
evTypeArg=Attack:tonight
arg=April_30
evTypeArg=Attack:yesterday
evTypeArg=Die:today
chunkPath=follow_in_hospital
arg=Sunday_morning
arg=former
arg=february
chunkPathAndType=Life_follow_in_hospital
chunkPath=precede_GPE_otherName
evTypeArg=Meet:Friday
arg=tonight
evTypeArg=Attack:today
evTypeArg=Meet:two-day
arg=two-day
arg=Friday
arg=today
arg=Thursday
arg=tomorrow
arg=this_morning
arg=1994
arg=January
evTypeArg=Attack:nine_eleven
arg=1980
arg=currently
arg=a_month
prevTokenAndType=Justice_for
arg=now
arg=nine_eleven
prevToken=during
chunkPathAndType=Justice_follow_for
prevToken=gave
arg=Sunday
evTypeArg=Attack:Saturday
arg=Saturday
arg=Monday
arg=March_20
arg=Tuesday
evTypeArg=Meet:Tuesday
arg=1998
arg=1999
arg=Wednesday
evTypeArg=Attack:Tuesday
prevToken=erupted
evTypeArg=Meet:tomorrow
evTypeArg=Transport:Thursday
evTypeArg=Transport:today
evTypeArg=Transport:now
prevToken=her
prevToken=here
prevTokenAndType=Justice_until
prevTokenAndType=Justice_:
prevTokenAndType=Justice_sentenced
anchor=acquit
anchor=indict
anchor=pled
anchor=prosecution/n
chunkPath=precede_,_PERSON
evTypeArg=Transfer-Ownership:she
evTypeArg=Transfer-Ownership:Iran
evTypeArg=Transfer-Ownership:forces
synPathTypes=Conflict_WEA_object
arg=bomb
prevToken=using
evTypeArg=Attack:missiles
prevTokenAndType=Life_detonated
arg=guns
evTypeArg=Attack:missile
evTypeArg=Attack:bombs
evTypeArg=Attack:bomb
arg=explosives
evTypeArg=Attack:explosives
prevTokenAndType=Conflict_using
synPathTypes=Conflict_VEH_subject
arg=bullet
evTypeArg=Attack:weapons
prevToken=second
arg=artillery
evTypeArg=Attack:arms
evTypeArg=Attack:warplanes
prevTokenAndType=Conflict_drop
synPathTypes=Conflict_WEA_subject
evTypeArg=Attack:gun
prevTokenAndType=Life_second
prevToken=detonated
prevTokenAndType=Conflict_detonated
prevToken=suicide
arg=knife
evTypeArg=Die:explosives
arg=rounds
evTypeArg=Injure:bullet
evTypeArg=Attack:artillery
arg=missile
synPathTypes=Conflict_WEA_of
evTypeArg=Die:bomb
arg=bombs
arg=warplanes
prevTokenAndType=Conflict_dropped
prevTokenAndType=Movement_leave
chunkPathAndType=Movement_follow_from
evTypeArg=Start-Org:government
synPathTypes=Business_ORGANIZATION_object
anchor=merge
chunkPathAndType=Business_precede_be
evTypeArg=End-Org:regime
chunkPath=precede_file_for
anchor=merger/n
prevTokenAndType=Business_of
evTypeArg=Declare-Bankruptcy:enron
chunkPathAndType=Business_precede_file_for
synPathEvType=Business_object
evTypeArg=Transfer-Ownership:him
synPathTypes=Justice_GPE_object
evTypeArg=Charge-Indict:her
evTypeArg=Sentence:he
evTypeArg=Convict:he
evTypeArg=Sentence:your
synPathTypes=Justice_ORGANIZATION_object
chunkPathAndType=Justice_follow_against
synPathTypes=Justice_PERSON_nameMod
arg=executives
prevTokenAndType=Justice_Trial
prevToken=suing
evTypeArg=Sue:companies
evTypeArg=Sentence:sam_waksal
arg=Dell
evTypeArg=Charge-Indict:she
chunkPathAndType=Justice_precede_find
evTypeArg=Convict:Scott_Peterson
prevTokenAndType=Justice_suing
evTypeArg=Charge-Indict:he
evTypeArg=Sue:Dell
chunkPath=precede_find
evTypeArg=Charge-Indict:executives
arg=terry_nichols
arg=Basson
evTypeArg=Sentence:him
evTypeArg=Convict:they
evTypeArg=Sentence:they
evTypeArg=Charge-Indict:they
anchor=guilty
anchor=find
prevTokenAndType=Justice_serving
prevTokenAndType=Justice_get
prevTokenAndType=Justice_over
anchor=prosecute
prevTokenAndType=Justice_because
arg=jury
evTypeArg=Trial-Hearing:judge
evTypeArg=Convict:court
chunkPathAndType=Justice_follow_with
evTypeArg=Sentence:the_death_penalty
arg=the_death_penalty
menType=Sentence
prevToken=faces
prevTokenAndType=Justice_faces
menType=Crime
arg=obstruction_of_justice
chunkPath=follow_on_charge_of
evTypeArg=Trial-Hearing:murder
arg=murdering_his_wife_Laci_and_their_unborn_son
evTypeArg=Convict:murdering_his_wife_Laci_and_their_unborn_son
arg=corruption
arg=murder
chunkPathAndType=Justice_follow_on_charge_of
arg=sodomy
arg=treason
evTypeArg=Charge-Indict:prosecutors
evTypeArg=Trial-Hearing:prosecutors
arg=prosecutors
2.1059860149305245
1.9274649328427722
1.8321224811621781
1.8321224811621781
1.2823710837689295
1.2229592058720673
2.1158747790886028
0.8499851555142567
1.4835279532846357
-0.06335835152556844
1.2101935450741912
0.7878587508721093
0.29843280775693304
1.6412570616352564
1.2205364213491858
1.2089188758104294
1.5323460758133287
1.8436784930247667
1.2101935450741912
0.7878587508721093
0.9826541648555659
0.9257443298298571
1.419154450113624
0.8838116465434646
0.29843280775693304
1.6412570616352564
1.0445431227347188
1.144956329893981
1.7057327644764217
1.5956086742260138
1.4190847758656524
1.716461582696845
1.868312282532375
1.2382009771944251
0.8803985960441069
1.9344335333545557
-0.1365707573027333
1.494451710702109
1.4766816653929022
1.2098409624096262
1.0457421603678032
1.4565697442557672
1.774267911422574
1.4418638591220694
1.6280901857145746
1.7552448674828458
2.3637130459421622
1.2771472351758961
0.4383195045307457
1.657496671542838
2.588373735848265
1.405743823312772
1.7651054985109793
2.0771792934668785
-1.099945245306801
-0.00635903596721692
-0.00579837423309449
0.13583501280992838
0.0634245033888499
-2.0235123714311305
0.052370520362128054
0.14850975508840214
0.5228838057627099
0.7742116183676897
-0.30271760589007374
-0.563598657743693
0.11990130021707751
-0.20090494926605093
-0.5322074289075646
0.17723755222816853
0.5100678110162309
-0.6109126095063105
0.7759700580513628
-0.01438770493244731
-0.08501562596768394
-0.35065036008158074
0.31538067801527914
-0.33322647374189013
0.8156041826469539
-0.36364560330661383
-0.9040082029253222
-0.42755352668495034
0.10026117939578937
0.2303570767131975
0.050994252630623293
-0.547127039189166
-0.1065083158688774
-0.5046819823146085
0.10544531376510567
0.04528291656452079
-0.20181916301540875
-0.17747778904862918
-0.17509982274138794
0.379227907904063
0.08756581638095429
0.5737780379851851
-0.9181257760668632
0.06877270012668132
-1.0272319764757913
-0.30275552490198376
-0.05947389373799306
-0.6845281630657007
0.534317390686068
0.20840997644684756
-1.6482212601892872
0.5518459011236648
0.08931182601559977
-0.4091893818366301
-0.16504132710404354
-0.7540529319516917
-0.3420554489053302
-0.23261911114309317
-0.519737735850426
-0.13288126030010305
-2.1915502328283543
-0.22377325162577072
-0.2050395824656771
-0.9257097669864037
-0.961585364189306
-0.17573297853086672
-0.66249702711492
-0.4299112490000899
-0.5085380850864789
2.2418333167980225E-4
0.22139599245131894
-0.003268000443318814
0.1188035144020474
-0.34364685677689494
0.30622395512411316
0.11762128766522274
0.45153207877061396
-0.861866078830707
0.089150677310554
-0.5091602675620789
-0.6609273006520712
-0.8617116130894851
-0.44023121981477714
0.2013463395200008
0.5360294198806884
-0.46720317787361004
-1.1586022620918406
-0.06917103821821201
-1.2901836833805604
-0.41410637100297415
-0.34221844571799115
-0.33107193587826006
-2.0243035570771473
-0.8929268163668402
-0.4674948092354767
-0.8309184520572872
-1.3285166210637511
-0.16376491199480353
-0.5141664965875932
-0.5805763155032297
-0.027741518986457075
-1.2417649822934727
-3.0219956267228416
-0.9186445547514395
0.08360619608639122
0.12892199964422513
0.012424528167409835
0.03690666383588018
-0.3866393776483727
0.31148685204218984
0.08573776241049912
0.6729500609550725
-1.1560584584192746
0.3632923188351749
-0.7416841985618781
0.3416973635546917
-0.80438160815437
-1.4846881629915898
-0.14152855482337248
0.32919735761081237
-0.28241104030906405
0.0326311732000935
-0.11851844398201054
-1.0555749029467556
-0.7789931398219088
-1.107145879562197
-0.6624556614788809
0.6433098552870465
0.07307674882765001
-0.2769628796011892
-1.5900691564741662
0.08397663112343211
0.33435873781182207
-1.2610639945855187
-0.6556467600552855
0.11907635685082484
-0.7519199021618421
0.4438361383817561
0.23970854679238401
-0.3279926699698954
0.06094658419433214
-0.08332150811511074
0.39411237432657054
0.150569356354202
0.4514717720848118
-0.9142385294276142
0.06803406466935658
-0.4903452711316032
-0.5313325287879136
-1.8917004578000085
-0.5675502719079126
0.5059615366462169
0.484779596096131
-0.8546845710265282
-1.811659996442178
-0.6914898605062341
-1.2461926458621182
-0.8413141435035549
-0.36870174265697
-0.16342021865554907
-0.4082432767541638
-0.5788879780731583
-1.2555681323355838
-0.049843388937962405
-0.0096621801082567
-0.9940011828465389
-1.5754651088198528
-0.21988722530443328
-0.5858740300123445
-0.21460457073835223
0.2145352208311408
0.10264346119853544
-0.03529823272281656
0.24124468111511516
0.07411505889353989
0.16527939788680168
0.03677564256347875
0.12290698305393184
-1.2221308512085096
0.0739043342245682
-0.40995216857690997
-0.30608233118689326
-1.045269552598843
-0.035436414901683866
0.38183617545135223
0.3179062847374057
-0.21451002084953547
-0.7298459774023719
0.09246937058600026
-1.6721274459349658
-0.5393186056916877
-0.2401824458532046
-0.03266761305091589
-2.2574318569236853
-2.055660804388693
-2.7005883041289898
-0.5886540436758456
-0.1528888705692362
-0.4833533577225441
-0.24190806075454158
-0.29417563239739564
-0.7697713897890569
-0.6776778597800236
-0.7927969141930956
0.12740296692835412
0.24552259538689045
-0.1960553515459881
0.3937249131505965
-0.1444989580303777
0.4412029303527271
0.018086548987523442
0.33625721744759574
-2.801668443683558
-0.019180030193270622
-0.49527458694880694
-0.6706973674890357
-0.723267958225282
-0.34130071976763493
0.2592520840526552
0.4214838863217663
-0.6526368032632338
-0.4009325068184283
-1.4514880666291887
-0.3708105109039131
-0.7044420932796998
0.12593819948431773
-1.5548210218569214
-0.8720574023796274
-0.499613244838486
-1.7114221445558522
-1.4724539767090579
0.09696742694732714
-1.2074410530371402
-0.3554464849938206
-0.24805009359855962
-1.8602298198917957
-0.9696013505713869
-0.03980658762915042
0.3304503030654214
-1.4638939007981535
0.3835133755204172
0.2495269079205921
-0.32613856973982924
0.3095396904233726
0.2625119574179531
-0.1717055671348379
0.5566212256902463
-0.32288963558624245
-0.08050051636218451
-0.20022700634975538
-0.17914023280910552
0.08692060146060777
0.4159619016703053
-0.5778102013330719
0.498380424916224
-0.048951744449273284
-0.5250089156882088
-0.9932232071290267
-0.20974055272721995
-0.4146922519762854
-1.041777651870516
-0.601364826746456
-0.12181059893966585
-0.2722946967416976
0.08739169047913478
-1.3642765672502146
-0.6805663892906697
-0.3888650191902841
-0.7854508968295292
0.21146275238398718
0.23883329899884675
-1.9355031019239979
0.31976825025733396
0.2594717789716256
0.06225358125655906
-0.6798809038638375
0.09360162909828602
0.5468377808753113
0.2684479216957583
-1.79465618425139
-0.3048893608844448
0.20442888393614667
0.40315395667402637
0.45324153284416174
-1.7066328653194411
-0.7474628463879646
-0.409387440868795
-0.37904271306255866
-0.8472867321218744
0.07734022886456063
-0.24771846056353444
-0.48965447000982804
-0.12473179762991134
-2.0068562052253
-0.0017288368061331109
-0.4554800839300402
-1.0586096603701824
-0.6938504507431954
0.01591097599746303
0.21976334609735912
-1.5175501156470472
0.16600257808984906
0.1583410927101484
-1.6474050211376556
0.24832618418055577
0.1959547784886074
0.1521329815942024
-1.7319443408986819
-0.2049002458235023
-0.2983102925708022
0.21341525996854277
-2.1096004197659672
0.3568105805149258
0.041592705680637825
0.019931568656118066
-0.7019538426245863
0.3654371641924767
-0.2449836685341176
-1.3301531038063346
-0.019735288641192405
-0.2932615782550077
-0.07000408915256205
-0.25630813361481275
-0.7650209955092557
-0.1728432565017497
-0.2064393153129778
-0.9030017467262909
-0.1807851804724514
-0.6018753171008459
-0.6585047590416471
-1.1580997884242383
0.2851389130634718
-0.2071769261256579
0.36155234356119065
0.017083757885319458
-0.3821745220561853
0.45206313136124604
0.08818015333401655
-0.17468778116011374
0.2141109201436656
0.19914888370701547
-0.6290907783327774
0.33919335676265355
-0.38999708406316724
0.45692379871387484
-0.7571597642003325
-0.4844848695532333
-0.011969505961011323
0.3349195192373268
-0.1842319009459736
-0.8304435866812127
-0.4106447078411048
-0.6875329847867284
-0.35798767381848756
-1.0281098823875447
0.31880866788587603
0.5221173882939608
0.17293917161878122
-0.5251946066917047
0.10412860702421269
-0.698057618227342
-0.25806528622555674
0.09059826929090141
-1.0202589140562401
0.20832694659600118
-0.1933031548327415
0.3957956220105308
-0.1606258760922454
-0.18448934565124642
-0.5622595372926322
-0.13054612555360695
0.29296846714456143
0.534792596688054
-2.3004160062405674
-0.7541332739616797
0.25821747079696444
-0.5182430805465221
0.17803384504431594
-1.6206789756062685
-0.3271391638315259
-0.29035882007373576
-0.5766146748223676
-0.9527615241452738
0.7229643534746976
-0.8386848820361936
-0.2918015405465418
0.4376893958256114
-2.058145257094168
0.3438016017699169
0.3891545493687015
-1.6466634873769206
0.5175677795641068
0.2458618335785519
-0.2275743288729841
-0.2137412027319982
-0.16680809290051368
-0.137372279182621
0.23316274278321025
0.4471671129037438
0.20281556530847558
0.1569896489603271
-0.1729518084049664
-0.5285395311387918
-0.5923145173923797
-0.02006613018264513
-0.9064652841837506
-0.8253619298235553
-1.5062126763559394
0.4591536627384774
-0.5675441340550612
-0.22131353151447122
0.6180757652221464
-0.3633455583084989
-0.8886693094179868
0.4942062945305102
0.405477498852402
0.10138111344002639
0.5984511616876442
0.2992068892151473
0.584264985152828
1.0856429327403205
0.09322595440147416
1.7978262950242
-0.3527423880081129
0.5131651209784454
0.7403955971515006
1.4886993790975964
-0.1920963375805463
1.2972491070536514
0.8048799008805143
-0.4321920135758125
0.00906799196274286
0.6960500319294433
-0.8968141275634061
0.3919712741946476
0.18565281764622538
-0.7141892542760442
0.315551125372316
-0.9269531641058327
0.2411842267752
-0.7354425493830627
-0.46820566084633203
0.3713766643621752
-1.322290878443319
0.034378328412667136
-0.6464402323500525
0.36923261566996984
-1.9509135174283811
-0.0682166002070065
0.25042230725895803
0.235598397265432
-0.3605628821942607
0.43976700917968226
-1.0574219220992491
-0.947083147928384
-1.2940757255573412
1.2219055624540247
0.18122080310122948
0.7051388187857223
1.6859057287001793
-0.14208184004331695
0.3996041251054227
-0.08500444088615455
-0.6404305845559343
0.27783529107976085
0.8776548132093883
-1.365226381939036
0.2573689428040632
-1.1481577143427182
0.5040590369129659
0.5797704528597938
0.15730524297190623
-0.005426145895038264
-0.9745879342725158
0.9552828561301531
-0.3016153215415584
0.42356220286833807
-0.2783733243436364
0.34239171477580915
0.3998839343230814
0.9504464003958251
0.27781878657749204
0.06960170401608311
-0.04623806093139461
-0.3339785432059991
0.6138758834755584
1.5026546848605455
-1.5254753815349589
0.44780245500412125
0.5992568295461347
0.7208638303803094
0.6682392845638877
0.34411237005103307
-0.19199056404299164
-1.6373223350084822
0.9491338723123668
-0.4882146103886637
-0.2837440832600346
-0.7225544755698449
0.035251518265149606
-0.24760930311026802
0.5184549141242198
-0.5665272302753771
0.9754077696107001
-1.270319199679335
0.8041769531170493
0.08774181812243297
0.3587512614841269
-1.1057547510848278
0.501177885104871
-0.0075873380492146
-1.1851366181871452
-0.46425232280490253
0.6027403501023751
-0.47489080500427483
0.10489958193267268
0.6696844255525038
0.5874627171151023
-0.2641555304060684
1.0221560034358066
-0.09112549529301364
0.3046431205082555
0.4483944518195189
0.5912527946370618
-0.66061779029711
0.7813391371615147
0.5004789660349905
-0.31004996049370925
0.46332839973822765
2.187519267098225
-0.22660795404648112
-0.7954021481968602
-0.7731387679560514
0.16303459609444915
-0.739166192024766
0.5148757584045776
0.026677181483294062
0.6114695538641409
0.26627301086382754
0.7653697653956885
0.17435080758605387
-0.6962817029345763
-0.23440955142821404
0.32108417059145117
0.10066219910405383
-0.9210075709019268
0.7598135030633854
-0.38014094401870047
0.7928056786160521
0.4818317883135944
-0.5783188024832364
-0.3423396230734983
0.41348530548537277
0.3806067386098879
-0.05369458850811494
1.1331862130283683
0.9284568078297685
0.17870723755643805
-0.8478775817534268
-1.4916972948508458
-0.9899279576405984
-1.1907338862024655
-1.1796282678045742
0.20833675430389162
0.18470374842619006
0.428179509689829
0.17414048937170234
0.8936047242483499
0.6417141049828181
0.6062262923741033
0.7239875948871943
0.49265872084569357
-0.5182246242332016
-0.4000089375555774
-0.40797044111029335
-0.4837531655090857
0.548618880854068
0.14730959459291684
-0.18739786705866446
0.2595864589219896
0.03994905844028571
0.33431646757294936
0.39278864463837837
-0.2275168292436975
-0.35307575580053574
-0.0848407864779513
-0.7331089603515963
0.21159738121178476
0.2114562730674158
0.5843005888305273
0.5119413723340424
-0.02396537346612552
0.587523683098679
0.7379249473670155
-0.08773969771365583
0.8601501041689139
-0.17816372996961408
-0.7126000180485086
0.25394060859229994
0.7981832963035519
0.39182309173726004
-0.03334260435814282
-0.13995614405824555
-0.4355019842561578
-0.2945846125790546
-0.11808086675974204
0.6343169491495917
0.3423571035225784
-0.3960020155073423
0.19111459117998877
-0.06677475800092957
0.9708570043391566
0.07440047596001023
1.4581540872522736
0.45167552546838313
-0.13190816765854668
-0.335080609444266
0.5684816912258115
0.2866770448375187
1.068150240290231
1.4074414081814346
0.07069830082292498
-1.141629696305847
0.871866760929968
0.3873031383210577
1.9827838381574932
0.02991002274313499
1.1077070834200509
-0.6882193712391285
0.3718197303100907
0.8221283275488211
-0.5548389455693225
0.7534110247057862
0.30863687311874755
0.15687036408262459
0.7146115048887102
0.46622255431939913
0.7329851033600151
0.6456237798239823
-0.037828597557071304
-0.8847558427415703
1.4650222540704303
0.6257209918821538
0.6187959682073083
0.8287397651144756
0.7549553280213784
1.3228644165086714
1.0115145195689708
0.6183035606947377
0.9080807724512132
0.8831850864974555
-1.4351266537221172
-0.1490062381172935
-0.47071059665391984
-1.2935964879135955
0.3397178312717391
0.33658557871421874
0.8145798363709161
0.32901523358307494
0.6219929615770726
0.9270526678215028
-1.227527846678866
1.6401935707941617
-0.17263649652148547
-0.5734919827514885
-1.0550866452886776
0.9856879757236678
-1.7706380683138134
0.1624196038495187
0.7495736455480138
-1.4136420305846973
1.0523016374678293
0.5588166799066075
0.43562520552339695
-1.8417371079917162
0.8912994744085824
0.5905577219760653
0.3335312546552733
-1.0013085894050704
0.7793000064108684
-0.2586434531006028
1.2762581753034157
1.3599943996236912
0.44756628617980876
0.48411667559992977
0.5353608620786161
-0.30655475263538173
1.227740724871529
0.16851395479693285
0.6734979092096647
0.2812257192622718
-0.18374418688786026
-0.2101081636838446
-0.9365848743307449
0.680719732267272
0.7631526638279118
2.0802169376333097
1.4621132355494206
0.7545510976989853
1.5361854855781407
1.3570942506618622
1.0714086804054435
0.68683639893366
-1.7494483096980702
-0.3329039926978709
-0.32042274752337047
0.06691795908234612
0.9102455579816089
0.38306831904356337
0.577345938842586
1.243471055286352
2.2441736091816002
-0.1865525009233888
0.44796144997839155
1.1895768660140178
0.9055256843600582
0.3113166335013346
-0.1617593884767031
0.12021785533899199
1.2677850627451333
1.048659594031388
1.6539048163214822
2.260342473017272
0.4582618483156351
0.7206419926146286
0.7704193445326377
-0.4398394139522815
-0.4251199131320696
0.5735219132691708
1.528831036699413
0.14507825418336628
1.5826930907024888
0.5896757254716266
-0.8002693117850569
0.6878910566470734
-1.6643968626993253
1.9441531752156163
0.81902212887669
0.26666854618963143
0.6903066810012135
0.3574566720119006
1.614688647107419
0.7846381131923359
1.2801058589620542
-0.17519242560215528
1.1864702667211335
2.095731691677382
-0.37633918683767614
0.06685421931429505
-0.178235584571694
0.7565241442351867
0.32424959945470483
1.027082575773284
0.16010450528937112
0.7803539074175402
0.2516871285638275
0.603836725380327
2.022162717341885
1.077512687831142
3.0500973338331687
2.747385780497269
-0.23084330924580068
0.8194095636961961
0.6576831291294971
-0.14732735693679794
1.6172190690855393
1.222785804304105
1.4166164487454054
1.0857250022550289
0.684470813686824
-0.3877225194057032
0.13628871532224704
-0.11180811020481278
2.453190832687895
2.057708431329904
1.680475005543677
0.9566965963925846
1.2500817990322386
1.0425018545618385
0.6156617624302696
-6.166042842674417
-1.1807959262568317
-4.096653756886321
0.4469241937413168
-1.0171172898206184
0.9105500698177781
-0.8786775170012164
-0.37669090721452403
-1.1919523837370096
-0.8390976417933586
-0.8199143878794868
1.2747767854973187
1.191445516639939
0.9957090690956875
1.08273009070407
1.3794692240893347
2.2309176347105053
-0.34562984505071737
1.0309361217777562
1.245159182047924
2.3800638504616596
1.1594279368096896
1.899864593327927
0.7239316028806551
1.1101906475191372
2.4913736537983877
2.081740097611479
0.1122474458787495
0.11073821644417983
1.0345116115169402
1.4192973822099457
1.4518003529292853
1.1801289122712104
0.5725550232065737
1.3645933880125218
1.1022815218224395
0.9997895433016102
0.40025375137771113
0.9680538702683784
2.436902604326495
0.5927871690428976
1.805321551086037
1.0837690987713713
0.2717837674600781
1.2433913573258024
1.312198165275235
-0.339960276016692
0.3182039390781618
1.3006771342669337
-0.8054973709076884
2.8177633626092886
2.071007053637165
1.582016302874969
1.0987001983628661
-1.4962628928635602
1.1341082263333295
1.292438964799461
1.8702690494980108
2.34771500802035
1.4015358252297003
1.0501125874839021
0.9388203169611509
0.88584461245843
1.0132959906493977
0.9921454069155049
2.145157769166139
1.4189129407519216
1.3950236962806681
1.2848564248111294
2.3672810036327063
0.784406512754172
0.8080109056804593
0.7987844057415853
0.8839758488447081
0.7851913751866368
-0.8902327886985004
0.404868251613998
2.6942547126505123
2.0629370863280143
0.9720794537422743
0.8667792338425875
1.1992433043270272
0.6573275799321747
0.06833220820321664
0.46834051490693535
2.0442755023863506
1.9565687135089833
2.105872675688585
0.38253979539952465
-0.273307383952108
2.4326455912752274
0.7190656646386748
1.276970816652371
3.6498939687142484
1.5477724294102722
1.273561872101527
1.519037539570665
0.9942766790892044
2.7086899601624843
1.7896641271480196
2.0370817346625905
1.3448146297960306
0.7265374297207771
2.636260961534046
2.0096250826384665
4.310038083849871
0.7216163441376466
0.328033744492475
1.1295741003761801
-0.3523507875623352
0.5589188226255782
0.37099635884229837
0.9251954346948549
1.5511558935992313
0.7181257414999137
2.571567580747395
1.2103486405348796
0.7954339571730921
1.3776181103050444
1.0637881859779679
1.3974484219388192
0.28950103514409026
1.0539173405142963
0.6997637372507454
2.1867445908000414
0.5931985740943503
2.5094640045220546
0.37015526537700455
1.091007281058379
-0.537570325668042
-1.4992197716458164
-0.319234441552954
-2.9697605603212667
-1.9646710941344583
-1.6919061480446034
-1.6904679074028723
0.8877051028385806
-0.09951223470558677
-2.440293680322378
-2.0560378098271452
-1.1913234450956347
-2.0546136098367294
-2.09060359821238
0.5703947196389498
-0.19819458574905627
-1.5261135549612057
0.2730877896507545
-1.5626711836571416
-1.6450538513021633
-0.5968719858322402
-1.8235359267729896
0.027831628870560936
-1.6074104948438854
-1.119658937313855
-2.3244596256061887
-1.5366918048567466
-1.2565593172326917
0.18326501228145786
-0.7369627243469371
0.18523092179633519
-0.5000851994374402
-1.303806344500079
-0.6140653417640765
0.7785557450565928
0.42581357960985755
-0.9396550056626158
0.9237676847062131
-0.3483527624249476
-0.6185927975535717
0.05364354065557916
0.8281228433833042
-0.9870883476214453
0.07399340890481264
-0.7651800765004882
-0.5265287803536128
0.6396290927287568
0.6335605216299038
1.4422979386557124
0.8288888021110346
0.6126656028154286
0.030740031484859202
-1.1458265399196699
1.786132020974852
1.3192601199422551
2.6821642710272684
2.9289809876251676
0.658209211821044
1.0503899161184849
0.5945500625233069
1.1758728474000462
0.3559023093363704
0.9160212885713213
-0.0768843026450138
1.7929940681223995
2.918588548157123
1.192714446575587
0.6415128702374291
0.4897301066925867
1.1055586408277327
1.4187585798982714
0.6616971171883743
1.3983500325732006
0.9023442698941084
0.526514389809743
1.5922533071024856
1.8654818206361312
1.526197410876102
2.7772707088765696
0.20962634365117108
0.26418364837198155
0.5075761712073368
0.683728675624705
1.2827387175197162
1.2316220597416356
0.6040032595849599
1.745111063099136
0.82312801916108
0.3249675379084942
2.267290197232926
1.3967172010248214
1.285237076333899
1.8326285011995316
0.9216595636851064
1.4869950945266037
0.6675838008132147
1.0823499220131232
1.1678518920158638
2.094150557026455
2.595893543998355
0.2945240690938677
1.754012050848586
3.181503897588305
1.587203163914537
0.39911856341340446
0.8433536960266946
1.9102949852734494
2.1989179050981464
0.9160245629693343
2.678858243198845
1.0229714846916014
0.7251796645289245
1.9401234279323358
2.3061068746022038
1.3397240737866174
1.7721614775864751
1.0573344074233846
1.0983686328360622
-1.313099077727014
1.1115289551680703
-0.13409165240374915
1.2112635070394238
1.8351032566266907
2.1350434851357267
-0.5783794658758444
2.2486841499354804
1.5772371093122775
0.9575342592198153
-0.5139613240327893
0.830544307635834
2.2881200860328255
1.9856343312591656
-0.6033766299720744
1.209712799982903
0.868676865413014
0.8518432290671933
1.4528635762383026
2.7738302251777234
1.8211989085672806
1.5359453255216196
1.4305314101576214
0.8673261689893577
1.2793469339373549
0.5489120770047072
2.6039962621947
1.5970761143439822
-0.041913669771666426
0.7881950813147192
0.6269649942216311
0.7879804167244422
1.2742133437425602
3.0725341673308924
0.019635337532624846
2.47016150921423
2.830432190442681
0.8199697666494409
1.1049219272521167
1.1620287421373472
1.394778462664445
0.7661735445073915
0.1578990202457658
0.22226795843256472
0.38037369444468855
-0.5463118236787692
0.6117822918642286
-0.1207541108066774
-0.6805853788951601
-0.5043038374276222
-0.6235547491475135
0.48716085214259286
-0.3245648138315939
-0.5299278858795234
-0.5844628224854543
0.5934380969167192
-1.0037534762436178
-0.9624957236287103
-0.40168908281286414
-1.0935305212725395
0.33087358241298476
0.5860555292154382
0.3848631591036426
-0.31900023162547697
0.3431640126149766
0.4124243507946726
0.19816148780753073
-0.68552776301229
0.33402618672560336
0.23601987037640973
-0.7541514520123482
-0.7756411259763535
0.08689808917263761
-0.2601282714783747
0.12592951449997344
0.22683520378464508
0.4489265343822991
0.09749512847283269
-0.11339926556118694
-0.7502361331716001
0.08067200700549876
-0.7290196089910219
-0.03443767957119897
-0.10542097005550159
-0.9674050026807786
-0.09171586619462838
0.029910499451438036
0.16319836872454246
0.2740914373413886
0.4509827781345084
-0.5656001119126244
0.4383548347750711
0.6449414468787572
-2.0555024665323036
0.24808355494188628
0.5747940079584353
-0.03923255290795574
0.8218324749811463
-0.5298693911519469
0.685749937113408
-0.05413769192250956
0.5401390251850937
-1.3794625230866573
-0.015997617011272947
0.317829931617464
0.17805314782583853
0.16097824413198814
-0.0035578716945455723
0.7290481321961182
1.0847340567316297
0.3272951311518768
0.8040028224425009
1.1686237014161944
1.2275765812544046
-0.457741779426296
-0.13177048809144778
-0.4656924599901232
1.085683898469379
0.34555222128771057
2.349691282306606
-0.20854116749034937
1.1610636919044568
2.2540998035786153
-0.8230162020502167
0.3696356074685671
1.213101751355322
2.161604205813477
1.680461054103973
-0.020964892279091606
1.637421010926505
1.2594448484485796
0.016394628228200158
0.5507800662106876
0.8777345812513359
0.4023581838696242
0.22759131050848563
0.6050803070106541
-0.7149158948327332
-1.3076978059580098
0.02568189549596486
0.37987437934172996
0.45971037005437476
0.667021605489594
1.0908125979594032
0.5884724377873358
1.1278438639257213
-0.2559332342122074
0.6295161795898526
-0.02131159386313833
-0.4097812628521056
-0.5648423520644114
0.5714382909287548
0.8393488331581901
0.5960288455411301
-1.1125336479350558
-0.07176032335692949
1.4050816411647757
0.5083771787054925
0.46564515140661034
0.9096151375443846
-0.1717709067617793
0.7529479657791589
0.04118411642588519
0.6033716911359424
-0.2762288134690872
0.5500363739177868
1.22549700562725
0.047291515598652925
0.18145287615816547
0.4932757359126134
-0.24700584582937116
0.7022178418434857
0.08635943258296529
0.6021798588405696
-0.7440027118559277
0.6191269418307555
-0.8464950565575525
0.3694407710271653
0.2180571788218799
1.603495297554296
0.9729287994303772
0.3282451151342742
1.3437166819875561
0.911830629006625
0.9440825737196042
0.19030165314452482
0.41083766359536783
0.7549409010133079
0.3292715498759711
1.3180965752371574
1.0391984614421494
0.4540127250469651
0.6856317278875007
0.02237477398642494
1.0254187673725894
0.16150963435792398
0.40600198840585094
0.7158174207212936
1.5477133327700587
1.006914805337818
1.8099842645294877
-0.03806902952449961
1.9740020715184847
1.7126806618425972
1.553689430182204
1.9515610475436502
0.7038858069110693
0.5196383554749657
1.0653172196073333
0.5773594718905947
0.5134224702996584
0.44471082418548663
1.3307455196834017
1.1989662993814691
0.3105922147378927
0.6068732313041829
2.0126390329951
0.2500734640615652
0.955882241677195
0.1465668792328676
1.1980944267157816
0.7797029669982565
0.764248402410891
0.9823967575734864
0.6727069206127845
0.5536579829257643
1.2151536126250246
1.1748849733295843
0.3287471654988729
0.18778349030884234
0.8130413968731879
0.6157838836515602
0.49298326099203
0.9689686586516796
0.97065260358182
2.1778568792134587
2.4403405507526865
1.7962926421799037
1.4138166544337847
0.9329129522642542
1.6089890406197795
1.5175671319212636
1.0358202618026051
0.9123177386499943
0.21721420975541805
0.7775339641997956
1.698222462606485
1.4054456814122447
2.72561734593938
0.7400284041661904
1.429711303093934
2.0664480006599297
1.1114990682331702
1.5949606596870598
1.8344358772919076
0.23099189282520535
0.7407956169693203
0.7131991184963364
0.49586785084309204
1.6044490749756886
1.6887024259418943
4.262174697106286
2.2099058637724234
-0.2558472549034111
1.6693676936101243
0.2917571619061988
1.4938394530838175
0.7277983885529817
0.4228998494453601
0.7437133040653768
1.182767851913134
0.5457195341580663
0.6352722939011167
2.7174423911296635
1.1694613890047207
0.6227280746257172
1.2399517663211534
0.18229748944990262
0.09018375007050447
1.0445899154331115
0.030871019000800356
0.8772208120952699
-0.36931926781234026
1.3308121308522882
1.0644852775505897
1.7632801359846086
0.9354549221043069
1.5831646711559324
0.01641234197195057
2.986190887539147
2.13217363041909
2.418379909169378
1.717224104720274
1.2749815250053957
0.7075427412068519
0.4369475066690291
2.5335150960312998
0.21796617621879086
0.9285419030817065
0.8584417577332343
0.9552463803503036
0.8738278087417395
1.138375834553963
0.9245427403940493
1.1475200204963207
1.8366245950817863
1.1950033979358787
1.2849670796059216
2.6629154935282906
1.7241486098124124
0.6754512588133129
1.4807079197388324
1.1379014663336666
1.4466654974410427
1.5955824845899087
2.046742704006927
3.019216797314543
0.5592836485555532
1.4762888556670104
1.7747743762815054
0.8515260803831991
2.4538669565100864
0.6928944692289272
0.36572256867500086
1.7876039404920148
1.138756974134203
-0.2098761745649447
2.0704672913268354
1.4421913471629213
0.5892500908965282
0.3256620330118777
1.5286081592384155
1.1120707823030898
1.1951142165548487
1.1006405353693018
1.5914217985794072
1.4638009329971513
2.5801634053093547
3.1304832693489093
0.39470055299838047
3.24085361014848
1.9313235190234688
0.2183209456886769
0.849023097912812
-1.3754153429700007
0.6001232931476034
1.188401214391642
0.7187865485338361
0.3676538001455428
0.6551362103777801
1.58854167119288
0.7112656467740133
1.0753480142278768
0.20460454893518612
0.21725237518004795
1.299985059435479
1.621213722648401
0.29708251784047646
1.9687054286346517
1.6953352388194616
1.0958657458732228
0.1123292076683597
1.3461992375311962
1.5641094956048154
1.0948283038298572
1.47460920046069
3.199094195782809
0.7969868255820061
1.074160289229461
1.3703749892722246
1.7123578712079603
-0.3512423263429665
1.9345634286676943
3.831433804011057
2.8270052427444434
1.6254510272880798
1.5458705859761606
1.1878406805912944
1.7148002679394592
1.5631277504820824
2.857335662388095
1.5608196080945125
1.484439972725035
1.1751269729203695
1.7634967919356805
1.8398907281646946
1.2625594650984235
1.1952537478358103
0.4649942066109869
1.1928277882050455
0.8684227228916139
2.2916625462294244
1.5358104371095562
1.440770793654407
1.2369979414331251
1.6997371716254397
4.519519560085957
2.575929682461489
0.8737019824030761
2.01686028832276
1.0027827128526265
1.5195279258347878
1.6247013385660984
1.1380594501662142
2.764959457295782
0.9266534009673859
0.43627446243703316
1.8693552970987721
1.4139735528347996
0.22713669997689628
1.6289729876409094
1.695721468381269
0.8034936179754645
1.2742684057590818
2.5631768928777623
2.488571079225536
2.1547353841441472
2.5862074113381652
1.2439159847803838
1.919025071583434
2.174666303094787
1.708432399341915
1.2240644716629407
1.446728139908768
0.7638639942508179
1.5589522269254348
2.263531881404598
1.0543204038535359
2.142430588476836
2.1453939457096487
0.9511291471097326
0.7638639942508179
1.4402929654237933
1.5132851254574198
1.1804728405227762
1.525421254154174
1.3498040460446223
1.4852951461959252
1.5011198867661055
1.4004568412965575
1.6485292473201687
1.4402929654237933
1.366075062343464
1.3234147204532045
1.1178694084593028
1.9728016239424437
1.2749602491089376
1.40450789288598
1.729283438030342
0.4131769853583201
1.4250108743786223
1.2554076327823003
2.1197626935030263
2.0037740230032157
0.5830699862834487
1.6998102184012212
0.7091157553345707
0.940725361981251
1.7355437285803554
1.0302469913130625
0.9229398008080446
1.5903604938149807
0.5708508423242046
1.1316392236301014
1.373383213531256
1.3362116542199736
1.359980346739262
2.6450936132142018
0.04965259272177048
0.41876241019337856
0.09919079821829932
-1.9378506442831431
-0.08521080972660895
0.7930922511623587
0.23123758576675027
0.7623850538130958
-0.17772625629527394
0.5423709542473811
0.894201099590245
0.18551029531094515
-0.009910117100861357
0.9257624333250809
-0.8659453200599372
0.5833366448051923
-0.07119321600029972
1.2584082741236244
-0.060293921442036574
0.8936204109119313
0.8627248805727549
-0.470860629053816
0.4901822952214398
0.9158212411537842
0.17286541504745218
0.5604937066781919
0.18193569170025004
-1.446233246054372
-0.3663123983622006
-0.4531023033171143
-0.28532474122641155
-0.26587456407245824
-0.46309287534291
-0.7355268885463658
-0.27731279045443935
-0.2949038126495534
-0.17399203031978297
0.004404549518050228
-1.2044302340733908
1.4356437841856848
0.33196343969481923
-0.6763621908889925
1.3265514845686786
-0.059393812732996154
-0.44257546721955265
0.2426580890379835
1.1517386835727816
0.45797980713757314
0.017165985036829305
0.3034795187097914
0.9351659042836409
-0.28311203104787636
0.23318924479920897
1.3222023642084146
0.039123770556947164
0.6926868795147871
2.070516429962574
0.6260378758076229
0.9282106301043507
0.7597603431721536
0.8173966797552242
0.979965485672697
0.9356817510005454
0.19910626687077185
0.10867262275555348
0.6565195124169022
-0.5939570841715137
1.906099810735628
1.8500795497994362
0.5901675849808387
1.4858585042538386
0.9862403214857708
1.6339857060482552
0.04483638049422732
-0.06929295906695436
-0.27584687744657044
1.1788095397502323
-0.4690798764265974
0.6810894111686674
1.2564739033265053
1.267653408368568
0.6579984240989046
1.5829107507298283
0.9005276099887493
0.5589174185459357
0.9425874678532461
1.461671189896634
1.2776016322305164
-0.2742942771148626
0.00871005928026893
0.7115353992183414
1.2349016618862907
-0.13829246661025257
0.5554915180959092
1.4326203281683425
2.185518039248076
1.2784290641423404
1.3862698249504675
1.0278428181552388
0.8801458190411514
1.8223317849825236
-0.18641219687109298
0.4675875798997001
1.5738278438882065
0.5488158336829951
0.8895612055859018
0.22695594691472598
-0.34276172926561416
-0.5375257278334998
0.17377734478916107
1.154814270815769
0.1849837355958004
-1.6119445278497817
0.598713714886658
-0.15533497101329566
-1.660648647705108
0.7427075795261129
0.1824310954375442
0.513465554360326
0.7642690975535924
1.8853754153451807
1.2532287695100837
1.590698810190916
-0.16101352556712856
-0.3053675595040186
-0.28888911902092435
-0.7017797650201468
0.8590163416648958
1.1281539426937706
0.40848781423504604
-0.0486532507571459
-0.7173101865530941
0.28107349594485054
2.4891284138432423
0.4297961898778626
0.3476568802988706
1.796455515951917
3.2028894467856848
1.0588604436528353
1.448446137435462
0.13989653256503765
0.22812238026388265
0.8526803429331713
0.6653423238288626
0.32508028670567946
0.9927296345058331
0.2390952249631284
1.1796695466325264
2.186833629452301
0.5316658731967386
1.071065762376548
0.9071885156409187
1.040696466125304
1.2369619708054576
0.6998505830513683
1.1152991890441142
1.3029893426102628
1.3625064092145962
0.9971662930852172
0.9715121431952566
0.513654378767955
0.42981573261346934
1.6090998931008043
2.3948985313037547
1.8269072173035967
0.555136998348515
0.9926734419748421
0.6154652542848108
-0.35400757642250946
0.7788549746498835
2.3980913895931457
0.6283242201868002
1.287233375637179
4.324243090783349
0.5916437036035636
1.073353178709394
0.28417348254243135
1.5152109571213832
0.6743536404984767
-0.1212325895658616
0.1514557929336227
3.9413553087243383
0.3794375436111145
-1.7267197429675443
2.7302151367074883
2.7503087877410546
2.8812176440545385
0.9894809059035812
0.5085453583571757
0.9876876541796942
2.3587927588088524
1.8510508975448356
1.4355809432654765
1.8876984510194386
0.4009909359416968
1.1131577617084027
3.143941355187296
2.4287387653405004
1.7987727106143563
-0.016567125757554275
1.0038517483042801
1.279858437687939
1.0770591713603992
-0.28915855266633755
1.847298846211304
1.797118359997139
1.1951834501909107
1.6272698890456039
1.4041541908681532
2.101483962002391
1.5863406331629402
-1.9119055348534575
-0.4259898268547102
0.0412794618360459
-0.3790187471859477
0.053934913118033764
-0.4715761806232455
0.845761889223795
-1.7450347508894781
1.386634560765615
-0.9058454502522708
-0.32608214968966387
-2.6036151741167806
-0.5961570769941098
1.3953202922050905
1.3816012550593193
0.9115977383411488
0.24714340191271872
-0.1056035393937345
-0.6191807760361567
-0.598082764042099
1.5015423547267956
0.4748800149287046
0.7109362376080026
0.2851672657535072
0.9714328420789671
-0.2847878857947678
0.16163986146813977
0.1244960155637424
1.1009296067233887
0.6810496547359554
2.9065825248368293
1.2069217175066307
1.0522590694983402
0.6307752570304561
1.4838939134306266
0.49010893152922325
1.0337503617024673
0.6390260440188769
1.6080149292166717
1.5229247594720077
0.3172439546442885
-0.43475674016545546
0.34965692712829954
-0.08972741199100627
-0.8681304424812158
-0.2780993135928621
-0.030010787511491867
-0.4664624677942596
-0.5834432507061644
0.43127760627004025
0.5928637788917258
0.7070827344483557
-0.18211014033854142
0.5058603661129061
0.43376734607826667
0.322706504858543
-0.58141927999548
0.9104016818110895
0.5124890295624152
0.5093497521791811
1.277700881371845
1.8383543383658691
0.8004312165056717
0.7326547087373687
0.31852248505965747
0.107176910950726
0.537960023251025
0.3062725321269213
1.0743285633029995
1.5062329394325502
1.4474271830919045
1.1326809174511607
1.072684574425151
1.4616424190529562
0.986761882135517
1.6380010922181858
2.354644892790357
1.9212455311395653
1.1142814123065554
1.0230550610709062
-0.5482142103747176
1.6864514307373146
0.45166326535403917
0.8818338877399278
2.217330231026466
1.9162268270552207
1.158932283648504
1.1513809783431437
1.368558265403023
4.035895136212644
2.0359455787602703
1.9150229622441206
0.4627198994358049
0.9687661192609404
2.957384077353995
0.9957170032295004
0.9258502260047916
1.1752188749853525
2.2236485998754443
1.9237297368060566
2.25064385618057
4.364642315615935
1.6307323908726292
3.8022637297629154
0.31089869712672535
1.0985242627037257
0.35171012534209095
1.9786598457145286
0.8134668514608773
0.5911882014652114
0.5434012987330844
1.3291639064952008
-0.06730614655312857
1.208893081016632
-0.052061692915374505
0.719417560416165
0.6735942332286812
1.9905215767756517
2.8172248745330886
1.4716950813994714
0.8015916687104337
1.1810658897511097
0.9811485105041031
-0.10751023788964247
0.8532528225238126
1.2568054125756087
1.1335636076204625
0.19503679695915738
-0.32483858599585597
-0.1626783777082055
0.5028989515199316
1.6791573388208147
-0.3001753497580265
0.9126632337681697
0.9049063266798745
0.9765602625697783
2.7280101928167193
1.4324602910462063
1.8039625557166266
0.7120504712067597
1.495962195998513
1.8244960660048157
1.0881518352897999
1.913886365923478
0.5301452666929432
1.3870091143564822
0.8462157803924187
3.644238881474897
1.2412841064587588
1.3788517417783348
1.8772084566995908
0.6126330275423736
0.1752975955920377
3.270666435416809
1.0454475124556726
2.562644320980613
0.6729992697646456
4.775932677866835
-1.5470843951588484
1.0512436127617506
-0.09969219599004445
1.0022511998728914
-0.7576416044458226
0.8933654784448873
0.38659022203484356
-1.5657872024589035
1.4272989372893852
-0.8552317585333467
0.27485087549866105
1.5999047780329592
2.024628369050529
1.0834609442742356
0.49723465818814583
0.3927733338216733
1.1266020377725887
0.7950876917495494
1.8513613592487916
0.8201450852779906
3.485013012920165
2.2028280490692955
0.4998072623038355
1.3587714808482172
1.0628922964012109
0.06376187347722061
3.217395646569134
-0.1420878051166414
0.8429552600279381
1.7121618294462408
0.7511100062975358
0.6250800490993194
-0.07218667917025746
1.3063252153707376
1.912714590818132
1.2183523051313732
1.0720532150753
1.1687780404522476
0.7533356029452513
0.9393041156340125
0.8294997598215917
1.533275101964826
0.876986046821242
1.768324845983327
0.5754507161386241
2.337420998919534
2.039856583112976
1.8517184331922931
1.2481501388905498
2.4957614935112695
1.4073142381542985
3.4620168464774754
1.117351513255015
0.4978159896247463
0.5405032554266379
1.4309268406044382
1.4162503373783255
0.8511219102218697
0.9003146326138868
0.9246134006220561
1.6638240725800921
1.0367313740080928
2.52543537497878
1.070168052857244
4.391179860045264
1.7129706054724438
2.2804560159580545
0.9211118476500005
2.4389750416955316
-0.5139198942801777
0.8392395303559989
3.1221967331987988
0.49571556081632767
0.853458857112987
4.530722029850867
0.7945943870908613
0.765808620468993
1.460594719392403
0.44596952100332576
0.6844806358643217
0.7151224728550725
0.06932800322233744
1.9041222827387796
2.164205724219029
3.4002062047549724
0.4325987193456428
2.539163467863902
2.0118767601946788
1.8568383342900372
2.0181646582043604
1.282295882623286
1.6184231343497462
0.7226890841507974
0.2873476175450784
1.9105090808233056
0.8223493341907653
1.2913972392705542
1.2262709512428658
1.8094983224018384
1.4629255353372188
1.4079933991052225
-0.13898832957637008
0.7364589345948448
2.417311252519656
0.4591748782742963
1.9790722848797613
1.0550589119054963
1.8483143425917452
1.042922270677057
1.939952057967037
1.6526118107996315
0.8180993917224584
4.009499856497338
1.6911015477065985
0.9639850309179357
1.002836767495456
3.2159057544945067
1.7294517968356142
0.5863083585282692
0.5159924871860807
0.023482021531371404
0.9429714475749625
0.7002890629294725
1.1177575495791785
1.1809902973216482
0.4590630050227449
0.106337639453319
1.3202165433033977
1.2900418919283514
1.3914570447081436
1.04941153862296
1.3980503471104113
3.0373373018969287
0.26836720176667445
1.80377598212196
1.3710168274942498
