GIS
1
0.0
35
Vehicle
Artifact
Destination
Agent
Person
Position
Entity
Attacker
Place
Target
Giver
Recipient
Plaintiff
Money
Victim
Time-Within
Buyer
Time-Ending
Instrument
Seller
Origin
Time-At-End
Time-At-Beginning
Time-Starting
Time-Holds
Beneficiary
Time-Before
Defendant
Adjudicator
Crime
Time-After
Sentence
Prosecutor
Org
Price
617
5 0 1
1 0 1 2
1 0 1 2 3 4 5 6 7 8 9 10 11 12 13 14 15 16 17 18 19 20 21 22 23 24 25 26 27 28 29 30 31 32 33 34
1 0 1 2 3 4 5 6 7 8 9 10 11 12 13 14 15 16 17 18 19 20 22 23 24 25 27 28 29 31 32 33 34
1 0 1 2 3 4 5 6 7 8 9 10 11 12 13 14 15 16 18 19 20 21 22 23 24 25 26 27 28 29 31 32 33
1 0 1 2 3 4 5 6 7 8 9 10 11 12 13 14 15 16 18 20 22 23 24 25 26 27 28 29 30 31 32 33
1 0 1 2 3 4 5 6 7 8 9 10 11 12 13 14 15 17 18 19 20 22 23 24 25 26 27 28 29 30 31 32 33 34
1 0 1 2 3 4 5 6 7 8 9 11 13 14 15 18 20 22 23 24 25 27 28 29 31 33 34
1 0 1 2 3 4 5 6 7 8 9 11 13 14 18 20 25 27 28 33 34
1 0 1 2 3 4 5 6 7 9 16 18 20 28 29
1 0 1 2 3 4 6 7 8 9 10 11 12 13 14 15 16 17 18 19 20 21 24 26 27 28 29 31 33
1 0 1 2 3 4 6 7 8 9 10 11 12 13 14 15 16 17 18 19 20 24 25 27 28 29 31 32 33 34
1 0 1 2 3 4 6 7 8 9 10 11 12 14 15 16 17 18 19 20 22 23 24 27 29 30 33
1 0 1 2 3 4 6 7 8 9 10 11 15 16 18 20 33
1 0 1 2 3 4 6 7 8 9 10 12 13 14 15 18 20 24 27 29 32 33
1 0 1 2 3 4 6 7 8 9 10 12 14 15 16 18 20 23 24 27 28 29 32 33
1 0 1 2 3 4 6 7 8 9 11 12 13 14 15 16 18 20 27 28
1 0 1 2 3 4 6 8 15 23 30
1 0 1 2 3 6 7 8 9 15 16 17 27 28 33
1 0 1 2 3 15 17 20 21 23 24 26 30
1 0 1 2 3 15 17 20 24
1 0 1 2 3 15 20
2 0 1 2 3 15 20 24
1 0 1 2 3 20
1 0 1 2 3 20 23 24 26
1 0 1 2 4 6 8 15 20 22 27
1 0 1 2 6 7 8 11 13 15 17 20 22 23 24 26 27 29 33
1 0 1 2 6 8 9 12 18 20 27 33
2 0 1 2 15
1 0 1 2 15 17 20 23
1 0 1 2 15 20 23 26
2 0 1 2 20
1 0 1 3
1 0 1 3 4 5 6 7 8 9 10 11 12 13 14 15 16 18 19 20 22 23 24 25 27 28 29 31
1 0 1 3 4 5 6 7 8 9 10 11 12 14 15 16 18 19 23 24 27 28 32 33
1 0 1 3 4 5 6 7 8 9 10 11 12 14 16 18 19 20 27 28 32 33
1 0 1 3 4 5 6 7 8 9 10 12 14 15 16 20 25 27 33
1 0 1 3 4 6 7 8 9 10 14 16 18 19 20 28 33
1 0 1 3 4 6 7 9 10 11 16 27 28
1 0 1 3 4 6 18 27
1 0 1 3 4 7 14 18 20 27 32
1 0 1 3 15
1 0 1 3 15 20
3 0 1 3 20
1 0 1 3 20 23 24
1 0 1 4 6 7 8 14 15 23 27
1 0 1 9 18
1 0 2 4 5 6 7 8 9 11 16 17 20 27 28 29 31 33
1 0 2 6 8 9 14 15 17 20 27 28
1 0 2 15 17 20
2 0 2 20
1 0 3 4 5 8 20
1 0 3 10 15 20 28 29
1 0 3 15 20
1 0 6 20
1 0 8 9 14 15
2 0 9
3 0 9 18
14 1
9 1 2
3 1 2 3
1 1 2 3 4 5 6
1 1 2 3 4 5 6 7 8 9 11 14 15 16 17 18 19 20 21 23 26 27 28 29 30 32 33
1 1 2 3 4 5 6 7 8 10 14 16 25 33
1 1 2 3 4 5 6 15 20
1 1 2 3 4 6 7 8 9 10 11 12 13 14 15 16 18 25 27 28 29 31 32
1 1 2 3 4 6 7 8 9 10 15 18 23 27 28 30 33
1 1 2 3 4 6 7 8 9 11 14 15 18 23 24 25 27 28 29
1 1 2 3 4 6 7 9 10 12 15 16 18 19 28 32
1 1 2 3 4 6 7 9 12 14 27 28 32
1 1 2 3 4 6 8 15 18 20
1 1 2 3 4 7 8 9 15 16 18 20 24 29 30
1 1 2 3 4 8 10 11 13 15 16 17 20 27 28 29 31
1 1 2 3 5 6 7 8 9 14 15 16 18 22 23 27 28 29 33
1 1 2 3 6 15 20
1 1 2 3 7 8 9 20 21
2 1 2 3 15
1 1 2 3 15 20
1 1 2 3 15 20 24
1 1 2 3 17 24
1 1 2 3 20 27 28
1 1 2 3 23
1 1 2 3 24
1 1 2 3 33
1 1 2 4 5 6 8 20 23
1 1 2 4 6 7 8 9 14 15 20 23 26 29 33
1 1 2 4 6 7 10 11 14 18 19 28 31
1 1 2 4 6 8 9 13 14 15 18 20 24 27 29 33
1 1 2 4 6 15
1 1 2 4 6 20
1 1 2 4 7 8 14 18 29
1 1 2 4 8 27
1 1 2 6
1 1 2 6 8 15
1 1 2 6 8 15 24 29
1 1 2 6 14 27
1 1 2 6 15 26
1 1 2 7 9 17 20
1 1 2 7 9 20 23
1 1 2 8
1 1 2 8 9 20
1 1 2 8 13 15 22 23 26 29
1 1 2 8 15
1 1 2 8 15 20 24
1 1 2 8 20
1 1 2 9
1 1 2 13 27 31
5 1 2 15
3 1 2 15 20
1 1 2 15 20 26
1 1 2 15 21
1 1 2 15 21 26 30
4 1 2 20
1 1 2 23 33
17 1 3
1 1 3 4
1 1 3 4 5 6 7 9 10 11 14 15 16 18 25 27 33
1 1 3 4 6 7 8 9 12 14 18 27
1 1 3 4 6 7 8 10 11 32 33
1 1 3 4 6 7 8 12 15 26 27 30
1 1 3 4 6 7 9
1 1 3 4 6 7 9 10 11 12 14 16 19 25 27 28 32 33
1 1 3 4 6 7 9 10 16 32
1 1 3 4 6 7 9 11 12 14 16 25 27 33
1 1 3 4 6 7 9 11 14 27
2 1 3 4 6 7 9 12 14 27
1 1 3 4 6 7 9 14
1 1 3 4 6 7 9 15 27 30 33
1 1 3 4 6 7 10 14 27
1 1 3 4 6 7 12 16 18 19 28
1 1 3 4 6 7 14 15 28 33
1 1 3 4 6 7 27
1 1 3 4 6 8 10 15 20 27
1 1 3 4 6 10 16 19 27
1 1 3 4 7 9 12 14 27 29
1 1 3 4 7 9 14
1 1 3 4 7 9 14 15 27
1 1 3 4 7 9 14 18 27 29
1 1 3 4 7 14
1 1 3 4 8 15 16 19 25 26
1 1 3 4 9 12 14
1 1 3 4 18
2 1 3 6
1 1 3 6 7 8 9 11 15 16 18 20 23
1 1 3 6 7 8 9 14 17 27
1 1 3 6 7 8 9 15 16 18 24 27 28 32 33
1 1 3 6 7 9 10 11 12 16 19 27 28 32 33
1 1 3 6 7 9 14 16 25
1 1 3 6 7 10 27
1 1 3 6 7 14 15 16 18 24 28 33
1 1 3 6 7 18
1 1 3 6 8
1 1 3 6 9
1 1 3 6 9 14
1 1 3 6 10
1 1 3 6 12 14
1 1 3 6 15
1 1 3 6 27
1 1 3 7
1 1 3 7 9
1 1 3 7 9 16 25
1 1 3 7 9 27 28
1 1 3 7 14 20
1 1 3 8 9 18 20
1 1 3 8 14
1 1 3 15
1 1 3 15 20
1 1 3 26
1 1 4 5 8 16 19 34
1 1 4 6 7
1 1 4 6 7 8 9 13 16 18 20 29 33
1 1 4 6 7 8 10 14 15 27
1 1 4 6 7 8 14 15 27 33
1 1 4 6 7 9 11 14 16 27 33
2 1 4 6 7 9 14
1 1 4 6 7 9 14 27
1 1 4 6 7 10 12 14 15 33
1 1 4 6 7 11 12 14 19
1 1 4 6 8 9 13 14 18 24 29 33
1 1 4 6 8 18
1 1 4 6 8 29
1 1 4 6 9
1 1 4 6 9 14 25 27
1 1 4 6 9 14 27 33
1 1 4 6 14
1 1 4 6 18
1 1 4 7 9 14 27
1 1 4 7 10 14 25 27 33
1 1 4 7 14 27 29
1 1 4 8 9
1 1 4 8 15 16 19
1 1 4 9
1 1 4 9 14
1 1 4 9 14 25
1 1 4 10 11 13 15 19 25 27 28 31
1 1 4 10 14
3 1 4 14
1 1 5 6 7 14
1 1 6
1 1 6 7 8 9 11 14 15 29
1 1 6 7 8 10 19 27
1 1 6 7 9 12 15 18 31
1 1 6 7 12 16
1 1 6 7 27
1 1 6 8
1 1 6 9 13 14 18 33
2 1 6 9 14
1 1 6 10
1 1 6 13
1 1 6 14
1 1 6 15 16
1 1 6 16 19 27 33
1 1 7
1 1 7 9
1 1 7 9 14
1 1 7 9 14 19
1 1 7 10 16 18
1 1 7 15 27 33
1 1 8 10
1 1 8 10 11 13 15 16 19 22 24 25 34
1 1 8 11 13 15 22 25 34
1 1 8 11 13 15 24
1 1 8 16 19
1 1 8 18 27 29
1 1 8 19 20
1 1 9 14
1 1 9 18
1 1 10 11 13 15 16 19 25 34
1 1 10 11 13 16 19 25
1 1 10 11 13 16 25
1 1 10 11 16 19
1 1 10 11 19
1 1 10 16 25
1 1 10 23 24 30
1 1 11
1 1 11 13 25 34
1 1 14 27
1 1 15 16 19
2 1 15 16 19 34
2 1 16
1 1 16 19
1 1 16 22
3 1 18
1 1 20
1 1 27
1 1 33
13 2
1 2 3 4 5 6 7 8 15 21 22 27 29 31
1 2 3 4 6 7 15 18 24 27
1 2 3 6 7 8
1 2 3 6 7 8 10 11 16 19 20 25 27 32
1 2 3 6 7 18
1 2 3 6 8
2 2 3 7 8
1 2 3 8 11 16 20
1 2 3 8 20
1 2 3 20
1 2 4 5 6 8 9 11 16 29 31
1 2 4 6 7 8 10 14 18 19 20 23 28 30
1 2 4 6 11 27 33
1 2 4 8
1 2 4 8 29 31
1 2 6 7 8 19 20
2 2 6 8
1 2 6 8 15 24 27 28 29
3 2 6 8 20
1 2 6 8 20 27
1 2 7 8 9 27
1 2 7 14 20
4 2 8
2 2 8 9
1 2 8 9 15
1 2 8 9 15 33
3 2 8 9 20
1 2 8 15 26
1 2 8 16
1 2 8 16 20
11 2 8 20
1 2 9 27
1 2 9 33
1 2 15
1 2 17 20
22 2 20
1 2 20 30
2 3 4
1 3 4 5 6
1 3 4 5 6 8 15 22 23 24 26 30
1 3 4 5 14
1 3 4 6 7 9 10 11 19 27
1 3 4 6 7 9 14 27 29 33
2 3 4 6 7 14
2 3 4 6 8
1 3 4 6 8 12 13 15 17 21 22 23 24 26 27 28 29 30 31 32
1 3 4 6 8 12 15 23 27 28 32
1 3 4 6 8 15
1 3 4 6 26
1 3 4 6 28
1 3 4 7 9 10
1 3 4 7 18
1 3 4 7 27
1 3 4 8 12 13 27 28 29 31
2 3 4 8 12 27 28 29 31 32
1 3 4 8 12 27 28 32
3 3 4 8 14
1 3 4 8 14 15 17 18 23 24 26
1 3 4 8 14 15 17 23
3 3 4 8 14 15 18
1 3 4 8 15 22 29
1 3 4 8 15 22 29 30
1 3 4 8 27 28
2 3 4 12 27 28 32
6 3 4 14
1 3 4 15
1 3 4 19 32
1 3 4 23 29
1 3 4 27
1 3 4 27 28
1 3 5 6 7 8 13 15 18 19 20 28 31 34
1 3 6
2 3 6 7
1 3 6 7 8 15 16 18 20 29 31
1 3 6 7 9 33
1 3 6 7 14 33
1 3 6 8 10 11 32 33
1 3 6 8 17
1 3 6 9 14
1 3 6 10 12 27
1 3 6 11
2 3 7
1 3 7 8 9
1 3 7 8 9 14 15
1 3 7 8 9 14 15 18 26
1 3 7 8 9 18
1 3 7 9
3 3 7 9 14
1 3 7 9 33
1 3 7 14
1 3 7 25
1 3 7 27 33
2 3 8
2 3 8 14
1 3 8 14 15
3 3 8 14 15 18
1 3 8 14 15 18 27 31
1 3 8 14 15 24
2 3 8 14 18
1 3 8 15
2 3 8 15 33
1 3 8 33
1 3 9 27
1 3 12 28
1 3 12 28 32
9 3 14
1 3 14 18
1 3 14 27 28
3 3 15 33
2 3 18
2 3 27
1 3 27 28
3 3 33
13 4
2 4 5
8 4 5 6
1 4 5 6 7 8 9 15 18 23
2 4 5 6 8 15
2 4 5 6 8 15 23
1 4 5 6 8 15 26
1 4 5 6 8 23 24
1 4 5 6 15
1 4 5 6 15 22
1 4 5 6 15 30
1 4 5 6 15 33
1 4 5 6 23
1 4 5 14 15
1 4 5 32
3 4 6
1 4 6 7 8 18 29 33
1 4 6 7 9 11 14
1 4 6 7 16
1 4 6 7 18 33
3 4 6 8
2 4 6 8 15
1 4 6 8 15 29 33
1 4 6 9 27
1 4 6 11 27
1 4 6 14
2 4 6 15
1 4 6 22
1 4 6 30
1 4 7
1 4 7 9 12 14
1 4 7 13 16 18 24 26 33
1 4 7 14 18
1 4 7 15
1 4 7 15 16
1 4 7 27
3 4 8
1 4 8 12 13 15 27 29 32
1 4 8 13 15 27 29
2 4 8 14
1 4 8 14 18 23
2 4 8 15
1 4 8 15 20
1 4 8 15 22 27 28 29 31
1 4 8 15 24
1 4 8 15 26 27 28 29 32
1 4 8 17
1 4 8 18
1 4 8 26
1 4 8 27 28 29 31
1 4 8 27 29 31
1 4 9
1 4 11
1 4 12 15
3 4 12 27
1 4 12 27 29
1 4 13 29
6 4 14
1 4 14 18 24
1 4 14 27
1 4 14 27 29
1 4 14 33
2 4 15
1 4 15 26 29
1 4 15 27
1 4 27
3 4 27 29
2 4 29
4 5
2 5 6
1 5 8 13
1 5 9
1 5 14
35 6
2 6 7
1 6 7 8 9 14 15 17 18 21 22 23 24 26 30
2 6 7 8 9 15
2 6 7 8 9 15 18
1 6 7 8 9 15 18 23 24
2 6 7 8 9 15 18 24
2 6 7 8 9 18
1 6 7 8 9 18 30
1 6 7 8 10 18 19 20 28
1 6 7 8 18
1 6 7 9
1 6 7 9 14 15 18
1 6 7 9 14 27
2 6 7 9 18
1 6 7 11 19
1 6 7 16 18 23 33
1 6 7 18
1 6 7 33
18 6 8
2 6 8 9 18 24
10 6 8 15
2 6 8 15 17
1 6 8 15 17 22 23 24 26 30
1 6 8 15 17 24
1 6 8 15 21
1 6 8 15 22 23
1 6 8 15 22 23 30
1 6 8 15 24
1 6 8 15 24 30
2 6 8 23
1 6 9 14
2 6 9 33
1 6 11 12
1 6 13
2 6 14
8 6 15
1 6 15 24
1 6 17
1 6 22
1 6 24 27 28 32
9 7
8 7 8
3 7 8 9
2 7 8 9 14 15 18
1 7 8 9 14 15 23 24
6 7 8 9 15
6 7 8 9 15 18
1 7 8 9 15 18 23
1 7 8 9 15 18 23 24 26
2 7 8 9 15 18 24
1 7 8 9 15 23 26
3 7 8 9 15 24
1 7 8 9 15 30
4 7 8 9 18
1 7 8 9 18 22
1 7 8 9 23
5 7 8 15
1 7 8 15 18
1 7 8 15 23
2 7 8 16
1 7 8 17 24
3 7 8 18
1 7 8 19
1 7 8 24
1 7 8 27 30
20 7 9
1 7 9 13
1 7 9 14 15
1 7 9 14 19
1 7 9 14 27
2 7 9 15
1 7 9 15 18
1 7 9 15 18 27 29 32
2 7 9 18
1 7 14
1 7 15 17
1 7 15 18
1 7 15 18 24
2 7 15 24
6 7 18
1 7 18 24
24 8
5 8 9
1 8 9 14 15
3 8 9 15
1 8 9 15 18
2 8 9 18
1 8 10 13 15
1 8 10 15 18 27
1 8 10 23
1 8 12 24 26
1 8 12 27
1 8 12 28 29
3 8 14
3 8 14 15
1 8 14 15 18
5 8 15
1 8 15 17 23 27 29
1 8 15 22 23
1 8 15 23 24 27 28 29 32
2 8 15 23 26
1 8 15 23 27 28 29 32
1 8 15 27 28 29
1 8 15 27 28 29 31
1 8 15 27 28 29 32
1 8 15 27 29
1 8 15 29
3 8 15 33
1 8 18
3 8 20
1 8 21 27 28
1 8 24
1 8 27 28
1 8 27 28 29 31
1 8 27 29 32
1 8 28
1 8 28 31
1 8 29 31
5 9
5 9 14
1 9 14 27
1 9 15
1 9 15 18
2 9 18
1 9 25 27
2 10 11
1 10 11 13
1 10 11 13 15
1 10 11 13 15 24 25
1 10 11 16
2 10 11 16 19
1 10 11 16 25
2 10 11 25
1 10 11 27 33
1 10 13 24
1 10 16 19
1 10 19
2 11
1 11 12 27
1 11 13
1 11 13 15
2 11 16
1 11 25
1 12 15 27 29
1 12 16
1 12 18 27
1 12 24 27 28 29
2 12 27
1 13 15 19 34
2 13 34
20 14
1 14 15 21
1 14 18
18 15
3 15 17
1 15 17 21 22 23 24 26 30
2 15 17 23
2 15 17 23 26
1 15 22 23
1 15 22 24 30
6 15 23
1 15 23 24 27 28 29
1 15 23 26
1 15 24
1 15 24 27 28 29
2 15 26
1 15 27
2 15 27 29
2 15 30
1 16 25
18 18
1 20
1 22 23
12 27
2 27 28
1 27 28 29
1 27 31
1 27 32
1 28
7 29
3 31
1 32
6 33
1122
synPathTypes=Movement_VEH_subject
synPathTypes=Movement_VEH_object
chunkPathAndType=Movement_precede_will
prevToken=take
prevTokenAndType=Movement_take
anchor=land
noSynPath
dist=0
dist=1
dist=2
dist=3
chunkPath=follow_
synPath=object
prevToken=as
dist=5
chunkPath=precede_
dist=6
anchor=take
prevToken=of
dist=7
dist=8
anchor=head
dist=10
evType=Movement
anchor=fly
anchor=move
chunkPathAndType=Movement_follow_
chunkPathAndType=Movement_precede_
prevTokenAndType=Movement_of
anchor=trip/n
anchor=come
prevToken=in
arg=it
anchor=arrival/n
anchor=jump
prevTokenAndType=Movement_in
anchor=return
prevTokenAndType=Movement_as
synPathEvType=Movement_object
evTypeArg=Transport:they
prevToken=,
prevToken=.
synPath=subject
chunkPath=precede_be
prevToken=when
arg=they
chunkPath=precede_will
prevToken=because
prevTokenAndType=Movement_.
chunkPathAndType=Movement_precede_be
synPathEvType=Movement_subject
prevTokenAndType=Movement_when
anchor=carry
prevTokenAndType=Movement_,
chunkPath=precede_,
menType=VEH
prevToken=to
prevToken=at
prevTokenAndType=Movement_at
prevTokenAndType=Movement_to
evTypeArg=Transport:it
anchor=remove
chunkPath=precede_and
chunkPathAndType=Movement_precede_and
prevToken=leaving
prevToken=hit
arg=boat
arg=bus
arg=helicopter
arg=planes
arg=tanks
synPathTypes=Movement_PERSON_object
evTypeArg=Transport:soldiers
evTypeArg=Transfer-Ownership:weapons
synPathTypes=Transaction_FACILITY_object
chunkPathAndType=Movement_precede_want_to
synPathEvType=Movement_poss
evTypeArg=Transport:journalists
evTypeArg=Transport:her
synPathTypes=Transaction_WEA_object
synPathTypes=Movement_PERSON_poss
chunkPathAndType=Movement_precede_can
evTypeArg=Transport:forces
evTypeArg=Transport:their
evTypeArg=Transport:she
anchor=push/n
evTypeArg=Transport:some
chunkPathAndType=Movement_precede_have
anchor=approach
chunkPathAndType=Movement_follow_over
prevTokenAndType=Movement_--
prevTokenAndType=Movement_get
anchor=withdraw
prevTokenAndType=Movement_over
prevTokenAndType=Movement_)
prevTokenAndType=Movement_and
anchor=tour/n
anchor=throw
dist=4
chunkPath=precede_have
anchor=leave
prevToken=and
dist=12
prevToken=for
prevToken=by
prevToken=)
anchor=go
dist=11
anchor=get
dist=9
anchor=send
anchor=invade
anchor=escort
prevTokenAndType=Movement_by
anchor=smuggle
anchor=visit/n
anchor=deport
anchor=bring
anchor=launch/n
prevTokenAndType=Movement_for
anchor=back
anchor=be
prevToken=on
prevToken=--
chunkPath=follow_of
anchor=head/n
anchor=transfer
prevToken='s
anchor=have
anchor=reach
anchor=march/n
prevToken=over
arg=some
anchor=visit
prevToken=into
anchor=push
arg=bridge
menType=FACILITY
chunkPath=follow_in
chunkPath=follow_over
anchor=drive
arg=airport
arg=house
prevToken=get
anchor=advance
anchor=move/n
chunkPathAndType=Movement_follow_in
anchor=advance/n
anchor=travel
anchor=flee
anchor=cross
anchor=travel/n
prevTokenAndType=Movement_on
anchor=enter
anchor=arrive
prevTokenAndType=Movement_through
chunkPath=follow_into
anchor=follow
prevToken=through
anchor=close
prevTokenAndType=Movement_say
chunkPathAndType=Movement_precede_did
evTypeArg=Transport:He
chunkPathAndType=Movement_precede_try_to
evTypeArg=Transport:that
evTypeArg=Transport:we
evTypeArg=Transport:I
synPathTypes=Movement_PERSON_subject
prevTokenAndType=Movement_that
evTypeArg=Transport:people
evTypeArg=Transport:he
chunkPathAndType=Movement_precede_'ll
chunkPath=precede_try_to
evTypeArg=Transport:you
evTypeArg=Transport:troops
evTypeArg=Transport:who
evTypeArg=Transport:We
chunkPath=precede_'m
prevToken=that
prevToken=where
arg=we
prevToken=said
arg=Bush
menType=PERSON
arg=you
arg=he
arg=who
arg=people
arg=she
arg=one
prevToken=after
arg=He
chunkPath=follow_by
prevToken=before
arg=your
prevToken=but
arg=I
prevToken=including
arg=man
prevToken=think
prevToken=say
arg=father
anchor=capture
arg=person
arg=that
prevToken=brought
chunkPath=precede_want_to
dist=15
dist=14
prevToken=the
menType=ORGANIZATION
arg=troops
arg=They
chunkPath=precede_to
prevToken=have
chunkPath=precede_did
arg=We
arg=mother
chunkPath=precede_'ll
chunkPath=precede_have_to
prevToken=so
chunkPath=precede_didn't
arg=terrorists
arg=marines
arg=forces
prevToken=are
chunkPath=follow_,
anchor=drop
chunkPath=precede_who
chunkPathAndType=Movement_precede_to
prevTokenAndType=Movement_but
prevTokenAndType=Movement_said
anchor=win
arg=bush
prevToken=with
synPath=poss
prevToken=:
arg=them
arg=woman
arg=Iraqis
arg=members
chunkPath=precede_'s
arg=i
synPath=of
prevToken=-
prevToken=be
prevToken=saying
arg=her
arg=his
chunkPath=precede_who_have_be
chunkPath=precede_can
arg=men
arg=him
chunkPath=precede_have_be
prevToken=captured
anchor=seize
prevToken=once
arg=leader
arg=children
anchor=give
arg=Americans
arg=son
arg=brother
arg=baby
arg=president
arg=protesters
prevToken="
synPath=nameMod
prevToken=or
chunkPath=precede_plan_to
arg=their
synPath=object-1:make:subject
prevToken=out
arg=saddam_hussein
arg=many
arg=family
arg=thousands
prevToken=''
prevToken=then
arg=company
chunkPath=precede_go_to
arg=units
arg=soldiers
arg=enemy
chunkPath=precede_that
prevToken=until
prevTokenAndType=Transaction_of
evType=Transaction
chunkPathAndType=Transaction_follow_
prevTokenAndType=Transaction_in
anchor=sell
dist=20
anchor=abandon
arg=journalists
menType=WEA
chunkPathAndType=Transaction_precede_
prevTokenAndType=Transaction_,
prevTokenAndType=Transaction_and
prevTokenAndType=Transaction_.
prevTokenAndType=Transaction_--
chunkPathAndType=Transaction_precede_be
prevToken=since
synPathTypes=Transaction_ORGANIZATION_object
synPathEvType=Transaction_object
arg=sister
anchor=buy
anchor=export
anchor=sale/n
anchor=buys
anchor=acquire
evTypeArg=Transfer-Ownership:company
anchor=purchase
arg=gun
arg=weapons
arg=missiles
prevTokenAndType=Movement_with
arg=Ocalan
arg=silver_cross
prevToken=come
chunkPathAndType=Movement_follow_to
chunkPathAndType=Movement_follow_back_to
evTypeArg=Transport:New_England
evTypeArg=Transport:Boston
arg=Boston
arg=planet
evTypeArg=Transport:center
arg=New_England
prevTokenAndType=Movement_come
chunkPath=follow_back_to
prevTokenAndType=Movement_enter
evTypeArg=Transport:planet
noChunkPath
prevToken=is
arg=U.S
menType=GPE
prevToken=between
prevToken=headed
arg=Israel
arg=US
arg=state
arg=Turkey
evTypeArg=Transport:Turkey
chunkPath=follow_to
prevToken=from
prevToken=?
prevToken=secure
prevToken=got
arg=United_States
arg=Seoul
arg=where
chunkPath=follow_for
arg=there
arg=Jordan
arg=iraq
arg=Iraq
prevToken=against
prevToken=left
prevToken=enter
prevToken=inside
prevToken=towards
arg=place
arg=baghdad
arg=center
chunkPath=follow_at
chunkPath=follow_on
menType=LOCATION
arg=building
arg=outskirts
prevToken=within
arg=Pyongyang
arg=country
arg=city
arg=capital
prevToken=near
arg=here
arg=area
arg=hospital
arg=home
arg=Baghdad
arg=desert
arg=france
arg=New_York
chunkPath=follow_against
prevToken=up
chunkPathAndType=Movement_follow_on
prevTokenAndType=Movement_into
arg=Niagara_Falls
prevTokenAndType=Movement_toward
evTypeArg=Transport:state
chunkPathAndType=Movement_follow_into
evTypeArg=Transport:hospital
evTypeArg=Transport:home
evTypeArg=Transport:airport
evTypeArg=Transport:Baghdad
chunkPathAndType=Movement_follow_toward
evTypeArg=Transport:building
evTypeArg=Transport:iraq
evTypeArg=Transport:capital
synPathTypes=Movement_FACILITY_object
evTypeArg=Transport:Niagara_Falls
evTypeArg=Transport:country
synPathTypes=Movement_GPE_object
evTypeArg=Transport:city
evTypeArg=Transport:there
evTypeArg=Transport:area
prevToken=toward
evTypeArg=Transport:Iraq
chunkPath=follow_toward
prevTokenAndType=Movement_from
arg=cleric
synPathTypes=Personnel_PERSON_subject
synPathEvType=Personnel_subject
evType=Personnel
anchor=did
arg=someone
prevToken=if
arg=group
arg=leaders
prevToken=know
prevTokenAndType=Personnel_and
evType=Justice
prevTokenAndType=Justice_.
chunkPathAndType=Personnel_precede_
anchor=select
prevTokenAndType=Justice_when
arg=Saddam
prevToken=had
arg=Tugle
prevTokenAndType=Justice_,
prevTokenAndType=Justice_and
chunkPathAndType=Justice_precede_
synPathEvType=Justice_subject
prevTokenAndType=Life_of
chunkPathAndType=Life_precede_be
synPathEvType=Life_object
evType=Life
anchor=execution/n
chunkPathAndType=Life_follow_
chunkPathAndType=Life_precede_
prevTokenAndType=Life_.
anchor=arrest
anchor=execute
synPathEvType=Justice_object
prevTokenAndType=Justice_)
synPathTypes=Justice_PERSON_subject
synPathTypes=Life_PERSON_object
prevTokenAndType=Life_if
prevTokenAndType=Life_and
prevTokenAndType=Life_think
prevTokenAndType=Life_that
prevTokenAndType=Life_because
anchor=name
prevToken=If
anchor=custody/n
prevTokenAndType=Justice_that
synPathTypes=Justice_PERSON_object
prevToken=a
arg=delegates
prevToken=who
arg=police
dist=13
arg=regime
prevToken=while
arg=government
prevToken=A
prevToken=``
arg=officials
prevToken=tell
anchor=it
arg=sniper
anchor=open
anchor=blow
anchor=kill
anchor=assault/n
prevToken=allow
arg=Marines
anchor=torture
arg=those
arg=hamas
arg=attackers
arg=coalition
arg=banks
prevTokenAndType=Life_a
synPathTypes=Justice_GPE_subject
anchor=murder
anchor=murder/n
anchor=assassination/n
anchor=wound
anchor=injure
anchor=die
anchor=death/n
prevTokenAndType=Life_,
anchor=dead
prevTokenAndType=Life_when
prevTokenAndType=Life_the
evType=Business
anchor=set
anchor=shape
arg=nichols
chunkPathAndType=Justice_follow_by
prevTokenAndType=Justice_by
prevTokenAndType=Life_including
evTypeArg=Die:people
synPathTypes=Life_PERSON_subject
chunkPathAndType=Life_precede_have
evTypeArg=Die:he
chunkPathAndType=Life_follow_,
synPathEvType=Life_subject
evTypeArg=Die:troops
evTypeArg=Die:person
anchor=blind
prevToken=And
anchor=start
anchor=found
chunkPathAndType=Business_precede_
chunkPathAndType=Life_follow_by
prevTokenAndType=Life_by
arg=Scott_Peterson
prevToken=Trial
prevTokenAndType=Justice_are
synPathEvType=Business_subject
prevTokenAndType=Business_.
chunkPathAndType=Business_precede_to
prevToken=hire
evTypeArg=Arrest-Jail:him
anchor=ceremony/n
chunkPathAndType=Personnel_precede_'m
evTypeArg=Start-Position:he
chunkPathAndType=Life_follow_to
evTypeArg=Release-Parole:your
evTypeArg=End-Position:he
prevTokenAndType=Personnel_hire
evTypeArg=Arrest-Jail:people
anchor=appoint
synPathTypes=Personnel_PERSON_object
evTypeArg=End-Position:she
prevTokenAndType=Personnel_as
evTypeArg=End-Position:minister
prevTokenAndType=Personnel_to
synPathEvType=Personnel_object
prevTokenAndType=Personnel_that
chunkPathAndType=Personnel_precede_be
arg=minister
chunkPathAndType=Personnel_precede_have
anchor=replace
chunkPathAndType=Personnel_follow_to
anchor=fire
prevTokenAndType=Personnel_.
anchor=former
chunkPathAndType=Personnel_follow_
anchor=election/n
anchor=resign
anchor=become
anchor=elect
prevTokenAndType=Personnel_,
anchor=retire
anchor=out
anchor=introduce
anchor=lose
arg=prosecutor
arg=somebody
arg=Al-Douri
anchor=release
chunkPath=follow_with
chunkPath=precede_get
chunkPath=precede_might
prevToken=says
anchor=electoral
prevTokenAndType=Personnel_of
prevTokenAndType=Personnel_:
anchor=release/n
prevTokenAndType=Personnel_for
anchor=put
arg=She
arg=You
arg=wife
anchor=appointment/n
anchor=join
anchor=hire
prevTokenAndType=Personnel_after
arg=terrorist
prevToken=which
prevToken=about
prevToken=why
prevToken=arrested
dist=19
arg=Ba'asyir
anchor=arrest/n
chunkPathAndType=Personnel_follow_of
prevTokenAndType=Personnel_said
prevTokenAndType=Justice_of
chunkPathAndType=Justice_follow_of
anchor=fall
synPathEvType=Life_poss
prevTokenAndType=Life_from
anchor=birth/n
anchor=born
dist=18
chunkPathAndType=Justice_follow_
anchor=marry
anchor=charge/n
prevTokenAndType=Life_to
prevToken=were
prevTokenAndType=Personnel_on
prevTokenAndType=Justice_to
anchor=serve
arg=minor
arg=candidates
chunkPathAndType=Justice_precede_'s
chunkPathAndType=Justice_precede_be
prevTokenAndType=Justice_said
prevTokenAndType=Justice_where
prevTokenAndType=Justice_including
synPathEvType=Justice_of
chunkPathAndType=Life_follow_of
synPathTypes=Life_PERSON_of
chunkPathAndType=Life_precede_'s
synPathTypes=Life_PERSON_poss
prevTokenAndType=Life_:
synPathEvType=Life_of
prevTokenAndType=Life_for
arg=three
chunkPath=precede_,_be
chunkPath=precede_be_in
anchor=step
prevTokenAndType=Justice_arrested
prevTokenAndType=Justice_on
synPathEvType=Justice_poss
synPathTypes=Justice_PERSON_poss
chunkPathAndType=Justice_precede_have_be
prevTokenAndType=Justice_if
chunkPathAndType=Justice_precede_,_be
prevTokenAndType=Justice_with
anchor=parole/n
synPathTypes=Personnel_Job-Title_object
menType=Job-Title
chunkPathAndType=Personnel_follow_as
evTypeArg=Elect:president
prevTokenAndType=Personnel_former
prevToken=former
chunkPath=follow_a
chunkPath=follow_as
prevToken=lost
synPathEvType=Contact_subject
prevTokenAndType=Contact_''
evTypeArg=Meet:leaders
evTypeArg=Demonstrate:Iraqis
evTypeArg=Demonstrate:protesters
prevTokenAndType=Contact_that
chunkPathAndType=Contact_follow_from
synPathTypes=Personnel_ORGANIZATION_object
anchor=tell
synPathTypes=Contact_PERSON_poss
evTypeArg=Meet:officials
evTypeArg=Phone-Write:you
evTypeArg=Meet:bush
synPathEvType=Contact_poss
evTypeArg=Phone-Write:we
evTypeArg=Meet:Al-Douri
evTypeArg=Phone-Write:us
prevTokenAndType=Contact_of
chunkPathAndType=Contact_follow_with
anchor=hear
synPathTypes=Personnel_ORGANIZATION_subject
evTypeArg=Phone-Write:I
prevTokenAndType=Contact_with
anchor=write
evTypeArg=Meet:Annan
synPathTypes=Contact_PERSON_object
synPathTypes=Contact_PERSON_subject
evTypeArg=Meet:we
arg=Annan
evTypeArg=Meet:people
evTypeArg=Meet:he
anchor=message/n
chunkPathAndType=Contact_precede_have
evTypeArg=Meet:North_Korea
evTypeArg=Demonstrate:people
chunkPath=follow_between
arg=demonstrators
evType=Conflict
chunkPathAndType=Conflict_precede_be
prevTokenAndType=Conflict_"
prevTokenAndType=Conflict_and
chunkPathAndType=Conflict_precede_
prevTokenAndType=Conflict_.
prevTokenAndType=Conflict_,
prevTokenAndType=Conflict_of
prevTokenAndType=Conflict_with
synPathEvType=Conflict_subject
anchor=use
chunkPath=follow_from
prevTokenAndType=Conflict_a
synPathTypes=Conflict_PERSON_subject
prevTokenAndType=Conflict_that
arg=others
prevTokenAndType=Conflict_as
prevTokenAndType=Conflict_by
arg=North_Korea
dist=17
prevTokenAndType=Conflict_says
arg=administration
anchor=gather
arg=United_Nations
evTypeArg=Meet:Seoul
synPathEvType=Contact_object
anchor=gathering/n
anchor=turn
prevTokenAndType=Contact_from
synPathEvType=Contact_nameMod
anchor=reunite
prevTokenAndType=Contact_to
anchor=letter/n
prevToken=call
chunkPathAndType=Contact_follow_to
prevTokenAndType=Contact_call
evTypeArg=Elect:government
evTypeArg=Elect:Iraq
prevTokenAndType=Contact_and
anchor=protest
chunkPathAndType=Conflict_follow_of
synPathEvType=Conflict_of
anchor=call
chunkPathAndType=Contact_follow_
prevTokenAndType=Contact_meet
prevTokenAndType=Contact_on
anchor=protest/n
prevTokenAndType=Personnel_at
prevTokenAndType=Contact_.
anchor=talk
prevToken=meet
anchor=demonstrate
anchor=summit/n
anchor=meeting/n
evType=Contact
chunkPathAndType=Contact_precede_
anchor=rally/n
prevTokenAndType=Personnel_in
anchor=meet
prevTokenAndType=Contact_the
anchor=talk/n
anchor=call/n
anchor=campaign/n
arg=american
arg=airline
arg=us
arg=families
anchor=fine/n
arg=husband
arg=Yasser_Arafat
prevTokenAndType=Contact_meeting
anchor=e-mail
prevTokenAndType=Personnel_the
chunkPathAndType=Contact_precede_'s
anchor=interview/n
anchor=discuss
prevToken=meeting
anchor=conference/n
prevTokenAndType=Contact_for
anchor=talks/n
prevTokenAndType=Contact_,
prevTokenAndType=Justice_the
evTypeArg=Attack:US
evTypeArg=Attack:terrorist
chunkPathAndType=Conflict_precede_go_to
evTypeArg=Attack:group
arg=u.s
evTypeArg=Attack:we
evTypeArg=Attack:coalition
evTypeArg=Attack:u.s
evTypeArg=Attack:U.S
prevTokenAndType=Conflict_from
anchor=combat/n
evTypeArg=Attack:Israel
synPathTypes=Conflict_GPE_nameMod
evTypeArg=Attack:United_States
synPathEvType=Conflict_nameMod
evTypeArg=Attack:Iran
synPathTypes=Conflict_GPE_subject
prevTokenAndType=Conflict_to
prevTokenAndType=Conflict_against
anchor=rape
anchor=shoot
anchor=hit
anchor=war/n
anchor=airstrikes/n
anchor=destroy
anchor=raid
anchor=front/n
anchor=bombings/n
anchor=attack
anchor=strike/n
chunkPathAndType=Conflict_follow_
anchor=hit/n
anchor=clash/n
anchor=attack/n
anchor=fire/n
anchor=strike
anchor=bomb
prevTokenAndType=Conflict_the
anchor=fighting/n
prevTokenAndType=Conflict_on
anchor=bombardment/n
anchor=slaughter
prevTokenAndType=Conflict_for
anchor=fight
synPathEvType=Conflict_object
anchor=raid/n
anchor=launch
prevTokenAndType=Conflict_when
anchor=ambush
anchor=rape/n
anchor=clash
anchor=gunfire/n
anchor=battle
prevTokenAndType=Conflict_in
anchor=War
anchor=battle/n
anchor=invasion/n
arg=Iran
arg=Indonesia
anchor=riot
prevTokenAndType=Conflict_'s
anchor=fight/n
chunkPathAndType=Conflict_follow_with
arg=Washington
anchor=conflict/n
prevToken=this
evTypeArg=Attack:hamas
evTypeArg=Attack:who
prevTokenAndType=Conflict_which
anchor=strangle
evTypeArg=Attack:they
evTypeArg=Attack:people
evTypeArg=Attack:marines
evTypeArg=Attack:woman
evTypeArg=Attack:men
evTypeArg=Attack:one
evTypeArg=Attack:Iraqis
synPathTypes=Conflict_PERSON_object
evTypeArg=Attack:troops
evTypeArg=Attack:he
evTypeArg=Attack:iraqis
evTypeArg=Attack:forces
evTypeArg=Attack:you
evTypeArg=Attack:Saddam
evTypeArg=Attack:she
prevTokenAndType=Conflict_if
chunkPath=precede_in
anchor=assassinate
arg=iraqis
prevToken=whether
anchor=abuse/n
anchor=shot/n
prevTokenAndType=Conflict_or
anchor=charge
prevTokenAndType=Conflict_say
prevTokenAndType=Conflict_where
arg=Arafat
prevToken=Iraq
anchor=lob
prevTokenAndType=Conflict_is
chunkPath=precede_engage_in_major
chunkPathAndType=Conflict_precede_engage_in_major
prevToken=firing
anchor=use/n
prevTokenAndType=Conflict_between
prevTokenAndType=Conflict_why
chunkPathAndType=Conflict_follow_by
prevTokenAndType=Conflict_--
prevTokenAndType=Conflict_about
evTypeArg=Attack:hills
evTypeArg=Attack:Baghdad
prevTokenAndType=Conflict_near
evTypeArg=Attack:city
arg=Vietnam
chunkPathAndType=Life_follow_in
arg=Bali
prevTokenAndType=Contact_at
evTypeArg=Attack:area
arg=Kut
evTypeArg=Die:Iraq
evTypeArg=Attack:country
evTypeArg=Die:hospital
evTypeArg=Attack:Kut
prevToken=around
evTypeArg=Attack:iraq
evTypeArg=Attack:place
evTypeArg=Attack:there
prevTokenAndType=Conflict_around
evTypeArg=Elect:US
synPathTypes=Conflict_GPE_of
evTypeArg=Die:there
evTypeArg=Attack:here
evTypeArg=Attack:Iraq
chunkPathAndType=Conflict_follow_to
prevTokenAndType=Conflict_outside
synPathTypes=Conflict_FACILITY_object
evTypeArg=Attack:baghdad
prevToken=outside
prevToken=killed
chunkPathAndType=Conflict_follow_on
prevTokenAndType=Conflict_hit
prevTokenAndType=Conflict_at
anchor=explosion/n
anchor=explode
evTypeArg=Attack:it
anchor=contribution/n
prevToken=was
prevToken=At
dist=16
anchor=lawsuit/n
anchor=appeal/n
chunkPathAndType=Life_precede_,
anchor=slaughter/n
arg=part
prevTokenAndType=Life_killed
prevTokenAndType=Life_on
prevTokenAndType=Life_at
anchor=suicide/n
prevToken=The
prevTokenAndType=Life_in
prevToken=rally
prevToken=In
chunkPathAndType=Conflict_follow_in
prevTokenAndType=Justice_in
chunkPathAndType=Personnel_follow_in
anchor=trial/n
prevTokenAndType=Contact_in
chunkPathAndType=Contact_follow_in
anchor=hearing/n
anchor=convict
anchor=sentence
anchor=indictment/n
anchor=conviction/n
chunkPathAndType=Justice_follow_in
anchor=bankruptcy/n
prevTokenAndType=Business_in
chunkPathAndType=Business_follow_
anchor=striking
prevToken=leave
arg=Ohio
arg=hills
anchor=pardon
prevTokenAndType=Conflict_over
prevTokenAndType=Justice_at
anchor=sentence/n
anchor=try
arg=court
prevTokenAndType=Justice_a
chunkPathAndType=Justice_follow_to
prevTokenAndType=Conflict_slaughtered
evTypeArg=Attack:her
evTypeArg=Attack:his
prevToken=slaughtered
chunkPathAndType=Conflict_follow_against
arg=grandmother
prevToken=killing
prevToken=perhaps
arg=civilian
arg=civilians
arg=two
prevTokenAndType=Conflict_killed
anchor=airstrike/n
synPathTypes=Conflict_VEH_object
evTypeArg=Attack:planes
prevToken=give
evTypeArg=Transfer-Money:they
evTypeArg=Transfer-Money:government
anchor=receive
anchor=donation/n
anchor=pay
synPathTypes=Transaction_ORGANIZATION_subject
synPathTypes=Transaction_PERSON_subject
synPathEvType=Transaction_subject
prevTokenAndType=Transaction_that
anchor=donate
anchor=provide
arg=companies
anchor=fund
prevTokenAndType=Transaction_by
prevTokenAndType=Transaction_from
prevTokenAndType=Transaction_paying
prevToken=paying
arg=lawyers
prevToken=pay
anchor=steal
chunkPathAndType=Transaction_follow_to
prevTokenAndType=Transaction_to
synPathTypes=Transaction_PERSON_object
anchor=suit/n
arg=Bechtel
prevToken=represent
anchor=sue
anchor=lawsuits/n
synPathTypes=Justice_ORGANIZATION_subject
prevTokenAndType=Transaction_a
synPathTypes=Transaction_Numeric_object
menType=Numeric
arg=crew
chunkPathAndType=Life_precede_have_be
evTypeArg=Die:Yasser_Arafat
evTypeArg=Die:Arafat
evTypeArg=Die:son
evTypeArg=Die:THOUSANDS
evTypeArg=Die:Jews
evTypeArg=Die:wife
evTypeArg=Die:journalists
evTypeArg=Die:civilians
arg=Jews
evTypeArg=Die:her
prevTokenAndType=Life_)
arg=THOUSANDS
evTypeArg=Injure:others
evTypeArg=Injure:people
evTypeArg=Die:crew
anchor=died
prevTokenAndType=Life_killing
evTypeArg=Die:soldiers
chunkPath=follow_GPE
anchor=wound/n
eleven
arg=tonight
arg=yesterday
prevToken=here
prevTokenAndType=Life_hospital
evTypeArg=Die:last_week
prevToken=hospital
prevTokenAndType=Personnel_The
prevToken=during
evTypeArg=Meet:tomorrow
arg=last_year
evTypeArg=Attack:nine_eleven
chunkPath=follow_in_hospital
arg=Sunday_morning
arg=nine_eleven
arg=1995
prevToken=On
chunkPathAndType=Life_follow_in_hospital
arg=tomorrow
arg=this_morning
evTypeArg=Attack:today
menType=Time
arg=Thursday
arg=1994
arg=today
arg=Friday
arg=last_week
menType=Age
arg=Tuesday
evTypeArg=Meet:Tuesday
evTypeArg=Transport:today
arg=1998
arg=1999
arg=Wednesday
prevTokenAndType=Justice_for
arg=Monday
arg=1980
chunkPathAndType=Justice_follow_for
arg=Sunday
arg=Saturday
prevTokenAndType=Justice_:
anchor=pled
anchor=indict
evTypeArg=Transport:now
arg=now
evTypeArg=Transfer-Ownership:forces
arg=artillery
synPathTypes=Conflict_WEA_object
evTypeArg=Attack:warplanes
arg=bomb
synPathTypes=Conflict_WEA_subject
evTypeArg=Attack:missiles
evTypeArg=Attack:missile
evTypeArg=Attack:gun
evTypeArg=Attack:bombs
prevTokenAndType=Life_second
evTypeArg=Attack:bomb
arg=rounds
evTypeArg=Attack:artillery
arg=missile
evTypeArg=Attack:weapons
arg=bombs
prevToken=second
arg=warplanes
chunkPathAndType=Movement_follow_from
prevToken=began
arg=Dell
synPathTypes=Justice_GPE_object
evTypeArg=Sentence:he
synPathEvType=Justice_nameMod
evTypeArg=Convict:he
synPathTypes=Justice_ORGANIZATION_object
chunkPathAndType=Justice_follow_against
synPathTypes=Justice_PERSON_nameMod
evTypeArg=Sue:Dell
prevTokenAndType=Justice_against
prevTokenAndType=Justice_Trial
evTypeArg=Sentence:him
evTypeArg=Convict:they
evTypeArg=Sentence:they
anchor=find
prevTokenAndType=Justice_get
prevTokenAndType=Justice_because
arg=judge
arg=murder
menType=Crime
chunkPath=follow_on_charge_of
chunkPathAndType=Justice_follow_on_charge_of
evTypeArg=Trial-Hearing:murder
arg=murdering_his_wife_Laci_and_their_unborn_son
chunkPathAndType=Justice_follow_with
evTypeArg=Sentence:the_death_penalty
arg=the_death_penalty
menType=Sentence
arg=prosecutors
anchor=merge
evTypeArg=Start-Org:government
anchor=merger/n
synPathTypes=Business_ORGANIZATION_subject
synPathTypes=Business_ORGANIZATION_object
synPathEvType=Business_object
2.757809013764516
-0.6209872944217852
1.8511268585148923
1.2439195679651787
1.4239956167442165
1.372475869563452
1.8473047327479424
0.7445746522009079
1.8473047327479424
0.7445746522009079
2.397781114856715
1.1691346114183636
1.847316816813776
-0.6301079777379548
0.010197004801158835
0.2622834973827185
0.08288356511905369
0.14179179399306963
-0.5463616869518778
0.3904971263209797
0.1809505271179514
0.4035424080711838
0.09871091319772533
-0.8086721550647009
-0.5633020502601433
-0.8310010720752328
-0.6215130344099102
0.0534774767278428
0.5904498929591098
-0.6172301181167675
-1.2471609860200015
0.004204419564271451
-1.4227715158923722
-0.4767387654485461
-1.895445694197488
-1.2264877091840682
-0.49066763575933287
-0.5176517948924653
-1.8979632361470735
-0.9089429762056059
-0.19008982823828005
-0.6963052205516131
-0.012886982800751769
-1.4847540380998547
-0.6180849061727292
-1.0793166723857555
-0.15277330888960183
-2.8995161335856805
-0.3973955913914309
0.30890020793827144
0.1460873109526483
0.19033345018554362
0.28616234325888673
-0.27633132128944515
0.25093421446577735
-0.03624932274006276
0.13902142089912053
0.08279479709080999
-0.6501229556404177
-0.33089840089280503
-1.01474301581057
-0.23075393940296182
0.33517778366715933
0.3738186641737932
-0.6192579002790752
-1.3216788195972367
0.22527351484576813
-1.1101799636201792
-0.4353048309185285
-0.971072270905903
-1.9223538557529654
-0.2680439856626514
-0.43949156578076215
-0.08949042082216363
-0.27376157988930194
-0.36349863046055503
-0.29595693748095137
-1.2989683848476967
0.08948292080348276
-0.39552567523975807
-0.8584908451320951
0.16223665803011703
0.2604021618017322
-0.06399417050576175
0.29490333274126257
-0.046730116932087624
0.4842488699852797
0.0515648110708287
0.23406053932472798
0.05138150617292019
-0.4354356437446502
-1.183998985412821
-0.6898233244672299
-0.06900193489859838
0.2689185096557298
0.41462149761084605
-0.4287869773931097
-0.3468457965293354
-1.3915056040938356
-0.39563623536783277
-1.3787679770120669
-2.0764633308603693
-0.8241727767356009
-0.3936351504016735
-1.0091018750174023
-0.5666548768242231
0.09898298604947639
-1.1404352533833235
-0.21503858867887293
-0.15712851802929084
-2.0081897409091276
0.25837862368134645
-1.9695252165952906
0.39766953193591265
0.17951305708554582
-0.3200610341637968
0.27650114888362337
0.024429015086237092
0.4838065879302178
0.2684403625528655
0.453165849889681
0.05023491511945158
-0.2714883748412104
-0.5242734728055116
-1.2387855811746804
-0.6622102756054155
0.37957602221218484
0.4064934889190499
0.010198289278569318
-1.1205009548310372
-1.0233983948356744
-0.2323991879848502
-0.04299553511796868
-0.20572032112578628
-1.130203384975677
0.2215508184186343
0.07246741272570266
-1.5852399677509201
-0.051049982932684895
-0.2187011021011647
-1.2615064495112085
-0.31515620227978575
-0.12078820615096483
0.15850180118495258
0.17665915022920942
0.3917759298985155
-0.2515377057067037
-0.19543858889228502
-0.05812122301155328
0.6224277041339722
-0.14822175008334101
0.3877187819613836
0.12145840637492303
-0.14993787965403288
0.05853606822370428
0.06480014517384325
0.02156374144376464
0.641741715762709
0.2148541211832936
1.6345873365764185
0.106765197133187
0.6126182493185967
-0.7561442373506847
-1.0379373824744722
0.07860397687072876
-0.8255690016206381
0.45421342413871363
-0.7288644733305937
-0.30978683050703426
-0.6952484890067977
-0.08077679917949088
-0.6961928224240965
-1.433718948420768
-0.8796935439658203
-0.39005317138185175
0.4984920129568833
-0.9039607393819488
0.23352238313799073
0.299714618637818
-1.465128970000389
0.45325864135834243
0.27653113222099235
0.16311218401077823
-0.6258877840490237
0.04059415792791654
0.2974977733082286
-0.07981930914358837
0.027290314477113716
0.4335953644914553
0.5617367124864016
-0.24904550409568915
-0.23845722158763402
0.31510386490227393
-0.2297657972782397
-0.6822977119390973
-0.46115070381009393
0.08103161488577897
-1.5567436006932727
-0.30530875294449084
-0.034489028952683055
0.2480086648910164
-0.2706417058158654
-0.29162169897027007
0.5766948966051197
0.3419581324602067
-0.9445092511438257
0.4957704765136432
-0.5428021354421098
0.14662417372321068
-0.2669223746354688
-0.6399192658277559
0.48738832340934934
-0.16111476055535995
-0.36860544345942314
0.36350203189726665
-0.4343562105671059
0.17099150976215227
-0.030721900810240937
0.5107351536922546
-0.6107289483668209
0.26351619468259807
-0.9345281264159805
0.14993612593114047
0.5512019380985976
0.12486400302033533
0.32528227530049697
0.6849593175029008
1.0877013611522426
0.5845134381623655
0.7175922795855261
-0.5576537634990731
2.683117637101149
0.44129889977167686
1.1121205478283924
1.3737445342542454
1.3327904338622418
-0.705418503951342
0.4687961037197176
-0.6143358220496224
-0.14144687907173167
0.38319358927682623
0.3584978262018399
0.2521050887589059
0.5575252218633395
0.2103389783257495
-0.15464378818637003
-0.5756940008956006
-0.5514161377475996
0.2843107629819549
0.2660142352499119
0.5247209347559956
0.019608049746904894
1.3702222857001172
0.05099301778124044
0.5278090950389942
-0.08919627145934322
1.4622224139048021
0.005865886937301426
0.9014362044554094
0.3369171125111581
-0.04320825743056675
0.17825902489271425
0.020810507753385197
-0.5126195721645735
-0.12849585234794944
0.3573523028577888
-1.1975263614079703
0.39638218078413323
0.07650710519369446
0.320428057756453
0.11557643147960071
0.23078678164731936
-1.098039945146026
0.32509750565013007
-0.784091449344449
0.2896186511702932
-1.1818707020508428
0.24651187388529663
-0.14211109325048063
0.5407766735761407
0.4947452282130502
0.40131036332451275
0.058591661835291825
-1.478212016004052
-0.06064538178836628
-0.2278514904367171
-0.23889608758839162
0.035322847958445695
-0.4072195248558572
-1.1852501193331464
0.22644329024747406
-0.3648571221136612
-0.5174788298290399
-0.7007930043479021
-0.568880723326481
-1.5134470493898513
0.6257860738299973
-1.3492777189205065
0.49508261468594367
0.2589030723230514
0.7777078429702085
0.30915920762287336
0.3711823090970639
-0.056412372315823314
0.6589533271888872
-0.12186935010721411
-0.05882935013109182
0.565494038935417
0.29649923742946477
-0.09437744768269958
1.1208775590682964
1.668770248708895
-0.05625589428887106
0.9140675059976797
0.18583964074180945
-0.09498524415977452
-0.4856052759535511
1.7699478751711857
-0.3336028852952162
-0.03442148278150595
0.4117531371315853
0.6405662815893961
1.6321715851059881
0.4258679378138733
0.3856342285568683
0.3547104398559098
0.2490828890974117
0.5690030447689239
-0.29724483957126824
1.7098626683696965
0.49054557786294195
1.2014886580307897
1.0339103927001676
-0.1530396676954411
-0.500691238774813
-0.008072288184361604
0.42801974758019146
-0.6417214899924775
-0.25671196343334923
0.24827705354470214
0.29923169924836124
-0.15362527279384722
0.4629243116409074
-0.13185680860412607
-0.3190433626481988
-0.012610966720423483
0.3420244868661164
0.7740670606214516
-1.37999506139448
-0.49198280691336777
0.33086744572008003
-0.9359290625768062
0.23058905466031218
0.788658520232855
-0.29802883292555343
0.1987395600407654
0.0756403724308827
0.1950479262894057
0.5681145051939664
0.6037987579892511
0.39416541043527564
0.519401451294041
0.407745274469216
0.6746340520186278
0.40152550522533376
0.591630900618683
-0.6011411798827969
0.1659994036235676
0.4044042948900612
-0.7216000736276915
-0.7011119027494924
-1.812460542422162
0.44364148760828054
0.35142351564003305
0.5757730125749441
-0.513374264204175
0.36967491457012297
1.0181049260561672
-0.4393289186899332
0.9253998104793446
0.3673611958290476
0.0405339449707686
0.6868479479342724
0.45246487480300074
0.8114810655243296
0.727703076739633
0.5623808881425331
0.8148790490674195
0.6388118406334327
0.7599352468411187
0.3368619253203565
-0.5946220529905668
0.5407174500176669
1.2413919032951344
-0.23118806607073702
0.4277541472712033
0.8489948761377331
-0.7749394946104798
1.2485808529323605
1.3450630429250006
0.9736021123973959
1.048885237349472
-0.1628492151292955
0.2918917643916186
0.48777524832040675
0.5868444313247524
2.156875735068845
2.8789884849558938
1.91990203159266
0.029106487168558064
0.7375683092190797
0.8121718649886228
0.7404607372426224
1.4282899522104038
0.8805900407755822
1.357919107207415
1.2685952831291547
0.9917778348883157
1.6814400986180378
0.409769909874677
0.5321553652263598
0.04409108408981347
1.0635920526879203
1.3734305296304796
1.2379070589257066
0.5274893822552187
0.7029230308101825
-1.3820625287881911
1.09391677211481
-0.5734121990943213
-0.7413877584627684
-0.931709406277303
-0.6810321101647793
-1.0424366731112895
2.6498119182687248
0.8129263582628594
1.379287398208273
-0.5137967928865695
1.2582585661790797
1.6283453550754698
0.3372073922405972
2.429201204747474
0.6098313133187863
0.7689119218186345
1.2633344190398308
1.0325957082566988
0.9181877953594543
1.5510565459813117
0.39141910697199067
0.7766023943612423
0.9587759236658658
1.8702617548908649
-0.29045483925220533
0.625876645278258
2.827799916586531
1.0503547158830966
1.0071443780917533
1.6443675793797237
0.6523777876450643
0.30040831134854373
0.48639824615237587
2.5902023501549505
1.4947038772390118
0.8950438141665829
1.5755347352582496
2.0456887671655473
2.37444903397865
2.1187032844206275
1.2789278657855316
1.5975493784537043
1.511718619282085
-0.4468946293239874
2.6188595253715183
2.4249620312030875
2.1648765419440137
2.000865326455566
1.260395082020663
0.8340203092664031
-1.1283026138970405
-0.12629735359216684
-0.4204231957861186
0.8689470719427802
1.1148117802550246
2.2443063763086215
1.0238731448653091
-0.6908811180068444
-0.5768432632254877
0.019160198744942354
-1.8969018384447789
-1.1927729179974507
1.0500598846630087
-0.8090040564569725
-1.2379645899729377
0.9348391958071862
0.07213006263940713
0.8397755640443857
-0.6326906347950453
0.002025445001324175
-0.5404757213668324
-0.9081884511137804
-1.4964918121107469
-0.39835610901195845
-0.9975265131966956
1.3906624142907897
0.7962313756078536
0.6281155385810145
1.8242369204002777
0.5722702483333993
0.08290638596700034
2.0119227645728124
0.8286028535900872
1.2725982146889776
1.7223067937109993
1.477076042835891
2.9515380816792463
0.5229026752072111
1.6495051096921325
0.9212862123489901
1.9846443565395764
1.9958088344554425
2.958207062724404
0.8078625652992503
1.1684610804536864
-0.5473901626504841
1.6383048154138518
0.6530531422106882
1.2304162225967095
2.5224359373269674
1.007894000016443
2.782243245120765
1.4945220723969606
1.3540338288673854
-0.9627620945596352
1.7066795403020534
3.091979481983622
2.346393033825526
1.1515820285304867
1.0626773181845948
1.6785905715615426
2.520945725947867
0.5741201506106657
0.9256678781345041
0.7589334853408105
0.7566537619317292
0.7895297626952574
1.3493541251087868
0.7551064690175242
-0.23002083808848114
0.7452557647634851
0.5345939680744793
0.062142793329159104
-0.05903608637533304
0.4131606269285517
0.2456400620327382
-0.7717383336412666
-0.026887933550473756
-0.152313499843061
0.11589317545517197
0.31814106465691744
0.04420495617089256
0.5830406089630384
-0.6244334906597264
0.40876042919657485
-0.7011541274711189
0.058378643062743756
-0.4727031688795153
0.6439440510397485
-0.9192371765437234
0.5471600258281007
0.361796318685882
-0.374048665448515
0.20270079329058063
-0.33735745676174
-0.9697785038592533
-0.4915703220623148
0.5496786540135223
0.40992799587951667
0.49242981148480675
-1.0387407010152545
0.5826902802284835
0.1649677377788917
-0.38060163649286066
0.1409459174038621
-0.30887708795230306
0.25566635030748036
-0.4060520861114299
0.36254512374474307
0.24073749910709966
0.1709370137787946
-0.008369657510780962
0.04854524009285232
-0.26192332475195584
-0.28872893354963886
0.5706918992474871
-0.347205485988816
-0.6303073270559901
0.16875558694488685
-0.08731067712830436
0.4047615078926287
0.4156076542824575
0.19683958106888558
-0.6825305573014926
0.4809596188813684
0.240093614589402
-0.6754812857088041
-1.120662277671831
0.35228835593287045
0.03288527595271218
0.16430815846778174
0.20504750889038945
0.6973737809609281
-0.120477467249362
-0.29137076908926646
-0.27834539441348166
0.16542404101730318
-0.13825182647966772
-0.40776769495990867
0.12756697669165998
0.18788831126263156
0.5410574721821974
-0.9670321390219544
0.7348680414802178
-0.244423984292957
-0.6002808656986588
-0.2231147250791504
-0.8626561316979008
0.4384142278077128
0.521254359240215
-0.46262842880027
0.6733895157377056
-0.870748993107145
-0.33246224157497895
-0.45960788519920265
0.886210737780791
0.38022605396050746
0.0023407464745501157
0.4400238033307381
0.6933745004909573
1.0984259494578694
0.27429355676789186
0.9557061772159315
0.7100732075255988
0.028846691908440705
-0.7973243250238684
1.0549259690656716
0.07507565969034423
1.145792958460954
0.33590046017485814
2.0038524470930397
0.797134747977545
0.661953542245679
0.9893558591583681
-0.0856389643620812
0.871947316708591
1.8218871713667597
0.03868173434314189
0.07797697561828615
0.5868758196616206
0.057526134640332335
0.640095576827935
0.6962355682054951
0.9683879965197912
0.07077697002940994
2.0260665471758625
1.0355317147198795
0.8184698525062374
0.9680990917143409
1.240575054445432
1.3526201903884538
1.0754968538397798
1.023752958501013
2.450313654352717
-0.37035348004811763
0.7218717150974101
-0.33818681222493674
2.418863315480862
-0.16817498514865492
2.170912800548636
3.119358695979519
0.947907858847508
1.7517107614408336
1.006441711597938
1.4883312449677715
1.586561499511697
0.9762245263142227
1.3802787356440531
1.0057458885406987
1.546053164498862
0.45546768484186007
1.2971656248036034
0.685693917401561
0.8439822210841764
0.5080384418635359
0.9228922463986945
1.895459416443752
1.421402640451349
1.2027627936525855
2.062383128390067
2.4972706116632364
1.1950030166929169
3.2494456666615568
2.51988123500426
1.0272774614483664
1.5796576252909924
1.1208821235135962
1.4969378916717027
2.2064387118507507
1.627319727304515
1.8515986373544513
1.165421101820327
1.1322556849556702
0.06690653458804062
1.6597689875679689
0.22834536906901703
0.7661556256557808
0.3130808506661999
2.990206127941587
1.1145350757723045
3.013327506036503
1.106189766225116
1.7759838191026542
1.6898131437438753
-0.43677243134804544
1.1437511600695671
0.08309678379209408
0.07031463718372123
0.10924724188213489
-0.23892388833278833
-0.0897142837300375
-1.9488596126462105
1.6278995566083978
0.5801357298507531
0.42910252242948554
0.1924508908680995
-1.0564901979999606
-0.12661231953505428
-1.0505644403622059
0.7258250787949593
0.21142001088790613
0.07771556395413406
0.5332602307614437
0.5885367074003396
1.4216118683870005
0.9594255354148924
0.7402591085660204
0.8608273119254043
1.2146697794791752
0.717009233418452
-0.08857695140655981
0.38603977049153976
1.0619391808865979
1.8850008706206778
0.6440586642644694
3.207622723716414
2.291492326676887
0.27570327348771717
1.404237890823714
0.7065593216040824
1.9650628412155846
2.2003234393818625
2.311411942332261
1.960811954171664
1.2469852752467832
2.185665309729887
2.7908992980090885
0.6367221538026184
2.2134705459380055
2.2118599343747767
1.1035352885469403
1.318264307407674
1.996200031454055
1.4913881091778594
1.2421490322387179
1.0750687375934316
2.6392642193459888
1.962525284059019
0.965826628378872
1.8794134432586338
2.4500999153079013
2.231507300268428
2.4660019309814607
1.8823397938619675
1.0584567966800786
0.40032545649363965
1.2669969683225921
0.7180526620664947
2.626895823521195
3.562616813423305
2.123724492963249
1.1784141633418102
1.6814599314968814
-0.21256681887386888
1.965424541331239
2.1660306656176234
0.29587543041075137
1.5837577481326597
2.0007124757763175
0.9678328330309556
2.672777829355828
1.438208249892518
1.184566069540967
1.1062043484854969
2.0303333461001536
1.7140729298217994
1.4567881189145666
1.225459678702643
1.2963404197621982
1.167506733830984
1.4567881189145666
1.350825497317759
1.536431418800111
1.181263420069577
1.5657983009605778
1.6665847302368126
0.7843786523317126
1.5215570896535964
1.0851784290403081
1.6623817994449746
1.6060612068995501
0.8547570951676989
1.9982764377873867
1.8450914764515083
0.8313966535291893
1.6918720241763838
1.9315599941496011
0.5455094555571015
0.7857639330715609
1.4673460324402101
0.6281629714620298
0.8801283299015363
1.627544421114127
1.8095689499571852
1.7537879286667095
2.241881952221892
1.4077925050393927
1.936013643279616
1.1984351699830447
0.9810864441903434
1.3107727626676815
2.661583456228638
0.12493480410498366
2.8507529716670583
2.548348164764634
0.6763966358687028
1.76200921124249
1.6658693812138143
0.5033135191746861
-0.054426294774032234
-0.0030410004797001376
0.21146963957599965
0.5622718899230575
0.8482363474993585
0.06136513423292659
0.7451899506626489
0.5023145111720001
0.5779472107111001
-0.052645357763703604
0.5209922845795192
-0.24966725012232582
0.9839902516278899
-0.6458141570818914
-0.171893889117009
-0.24911776202958158
1.4094820166576976
-0.03311192495953609
0.3761768334968745
0.3432056661564063
-0.08283574261228628
-0.3730217566254993
-0.2005108071524964
0.8281620353762091
-0.565142996703115
0.6615364313328569
-0.0796671452875644
0.7477270467560294
0.027611891036995906
0.6580793896218684
0.7923988318539046
1.5846784080952567
-0.656289950724827
1.480893398738291
0.3241909523954185
-0.1357677289885613
2.1377620372509916
0.29413449444967416
1.4390406336665038
0.33056480160291724
0.09733423987915014
0.45489089772509633
2.1139030339464515
-0.3000956178492524
0.9581013120591017
1.5780115472055212
0.43914487268337177
-0.14951466085624837
0.6902264536687055
-0.06323716230083325
0.4976373415830914
0.2392559334990555
0.028936723484317594
0.06564725535863364
0.16121848934671518
-0.004260253363652287
0.6210027196231699
-0.24437373253884112
0.6128025768289959
-0.7965293661454683
0.0010323621395618605
0.25544261638840166
0.33158845531787473
0.0741312627034593
-0.20571028035580488
0.6174601690021501
0.11235677281825913
0.5332934035940895
0.10589377661618779
1.4811273090279085
0.439562959215121
0.18468922558065778
-0.3417905633678193
1.0384667911808432
0.5517968847520133
0.7415462465794638
2.174218385444814
0.11381537289296834
0.2863342249874732
0.7546678498396966
-0.08368687806935618
0.5242259171710558
2.2219985629729275
2.1529719544092614
0.9323255684338235
0.5800363873508304
-0.62154123322296
-0.5842298104146504
-0.3666061819983383
-0.2222786677857653
-0.6645809551688335
-0.7828045023074959
1.0405055116444017
-0.09997263860173476
-0.1886297433464547
-0.17024612140340267
0.1151307568378972
1.8674608692107517
2.3439902217893853
-1.0922349771233217
-0.3089667283565541
1.151622406426463
-0.005977892043147932
-0.7583115899465168
1.1361214650410716
-0.5823966030152942
0.8110862422164812
0.617500434273009
-0.5295689250259161
1.5762928875935023
0.5651188993797401
-1.0995405056924303
0.6964927491148017
0.6668791201290397
0.7086510399821421
0.9908827744684247
1.0886461513242953
0.6426212115507854
0.5266968848413038
0.4105017897073108
0.9935480031101913
0.8002204179339804
1.1720686695748674
0.644506488539343
0.6764397774830739
0.9188362262447739
0.8873439384488968
1.0812533304857597
1.158348668812744
1.0604479523064076
1.0794057869898954
-0.45446170635123634
0.510260674002942
-0.369922184634726
-0.843927065790677
0.904399275169489
-0.3499287449192209
0.8613460022731823
1.0438565166583162
0.8606799875398388
-0.43219824178852634
0.4691949719817673
0.6918375783925572
1.626556329688916
0.12742513458719804
1.2976127234706067
1.1648473814921974
1.4123655388986778
-0.4518432745148544
1.7114293627393629
0.8555509375859033
3.2583487855593884
0.6957114181099283
0.7647779449947179
-1.1652868863211057
-0.6443586723852577
0.13122217198399488
-0.2276137942516054
1.5554541681769911
1.0191013521537893
0.22949698568696533
-0.7790610625025132
2.6122517600067723
1.1549670411392752
0.6114151460476805
0.8488706825327144
0.8518812539425219
1.834226685722132
0.042520752739007954
1.0505337044797602
-1.0186154433274264
0.4498696464395306
1.353441118181849
0.45602231724435827
-0.2730948448622048
1.0145347535133968
-0.5693900884711746
1.3317791053759163
0.9186563774259168
0.07139064269011829
0.07583757273733113
0.8125319330030523
0.7182551044903791
1.3024212172373322
0.7630883085061295
-0.01528967844728511
0.7658221157235622
0.9662382680191091
2.6529974874553117
1.3982556624718607
0.23814500109122647
-0.7992916425390331
1.1383855845355777
1.5042289305357892
0.8033528933542443
1.1283780036057485
0.9443967740742522
0.770149092872624
0.5634181416678612
4.331838961929686
0.03138633975842738
0.9506470800981247
2.2436197318334647
2.0214256169780542
2.0722942385553758
1.2885146825900118
1.670033151540634
2.194154171083295
-0.400431998095324
0.9946498386654404
2.7357267770849982
1.6803751942989331
1.7096695317833377
1.5571687160842895
0.9294422222422666
1.053373240311695
-0.22693464067364294
1.6455189874874572
3.5652974334777636
1.7127120435745427
0.947237072566952
0.9699548367495322
3.407311408946772
1.9106692435747687
1.3538049686928306
0.8164524591839528
2.1320316523466656
1.0664319195979055
1.499381520614227
2.2111735864105526
1.7187498811277309
1.3987979587211268
2.9764527382920427
3.9464461302699965
1.0967568233069027
1.84756385895885
1.189421553622305
2.121546302280867
1.998903373265791
0.6886663775874781
3.242213110337614
1.417030841242233
1.6553207131459495
1.6832529902721975
0.557748320687597
0.32585113549831796
0.1260094867600841
0.41021839040142744
1.0234075467353492
1.7814895653259666
0.21677744024355708
0.3920743310135097
0.3626769393254998
-1.452949916921298
-0.67615520562166
0.8039329600886621
0.5212129952802
-0.012398404599431093
0.9058038532915483
-0.6988757969713212
-0.46226427498497574
1.3865135760704201
0.4688505023019466
0.42580513479215454
0.6423645831985927
0.929299961662589
1.2854711676606432
-0.045846413176797496
0.9539980991758739
0.8297105022557821
0.5353400604641512
1.059980243691918
1.2622503569225871
1.8246789559040983
1.4682536457252122
1.9407432538197011
0.6865231177769544
0.4221086196113809
0.44258072108072866
0.20388307684226284
-0.04470160744144196
0.6231444035250091
-0.48287423467889146
0.6072224147790231
0.7119797458575169
0.05319795307300396
0.7165554617979856
0.6482316389315179
-0.4660771135201983
0.6419478497910364
0.892132617779307
1.7487074840580885
2.0643999242211564
2.1218954199834097
1.773513829112005
1.1227421136106415
0.9032664228950381
-0.5017941756229587
1.814621672738092
0.4484587930915703
2.0861262824092983
1.1927325024763424
0.8846160138545097
-0.11734689283000446
0.9879079879292968
1.6054333987401883
0.8781165851378104
0.5006545565977276
1.9721419321650062
2.2169343217570483
1.293525234335964
1.5731593504099228
2.755419786063987
2.150331080699499
1.5706792805816265
2.69397855602345
1.76301941963008
1.3301109610588784
1.0740072888421466
2.575058067005164
1.3960297866855236
1.4112864747877047
-0.055692351100310476
1.1116995622916652
1.5798740558234454
1.0029589681533204
0.5954522114321652
2.502574422483594
1.5206231147205875
1.0915027691417643
0.72104739774355
1.4531967079832326
1.8770319559784445
3.0582702066653566
1.1054368992685744
2.2141453138086233
0.6983863581870631
0.25885514645054725
3.1207646843018493
0.09708577718755644
1.2756097188486888
1.8524664220240916
1.152079596029783
2.732492335269279
0.4189965372871774
0.4220180762241989
1.507389165650083
1.4418809912483486
1.3790275004280315
0.5542286910988036
2.8689962139754672
2.4950010299871015
1.30113149231412
1.7279595500874687
-0.06809650288371187
1.4673330407265368
1.9436958276022203
1.6092070708812696
1.443021593746168
0.5571109472179269
0.38516178171546134
0.7926234503239483
2.376200795756229
0.43589164107665596
1.8695777062127923
1.2397214391696714
1.813249804234332
0.3949056699530445
1.5619922596377689
0.6479369169721759
1.031362777547736
1.662650621110671
1.8162084009987125
1.7147648632989039
0.25470614035860456
-0.5706755381968056
0.8760874187157135
4.0085264935914395
2.044043013545466
1.0561237025459878
1.1947132032661156
1.0820193671256992
2.033500019568223
0.8920608522451762
1.8689637841541922
0.5433203617741388
0.654430021305731
1.1085462018124206
0.8967087623361374
0.6172427018626048
0.3089813366217139
2.2910804010187835
1.7364083623050888
1.7740627491544025
1.8284920704161616
0.92359136985085
3.0515496579182435
1.650920357988331
0.9758963261262366
1.7464042812803586
0.758130742074689
1.3619309328320899
1.01145176551042
1.3335839454751672
1.8722658373268153
1.3412226808413443
-0.5169958031094406
0.9063405907065384
2.319132376383796
1.438278138616168
1.9733902398681802
1.6719834151893713
0.9124359760586002
0.9183370314470067
1.6628404564033643
1.398080305311865
2.7480787457338964
-0.5153243896210754
1.3950577351938072
1.0948783281637036
0.9776994452320364
1.0083628058685845
1.1910088163394636
1.2164549109188894
0.6357471306032269
3.5249537052137545
1.597884760700864
1.940054921618344
0.913143505429569
4.221534290929932
3.9964890803125166
2.092631093046257
0.1213865882919563
1.003744560167907
1.5722039754597021
2.117082058671727
0.9221340200031207
0.8462524548418126
2.8559612734594335
0.9742082625152678
2.184984112543087
0.1213865882919563
1.003744560167907
1.5722039754597021
0.6786737683764491
1.0911177981494562
4.355555862251353
2.2606849951739925
0.9409094698733368
2.1886084918484987
0.8293278824929008
0.276091936212077
1.2089388892410207
2.3129277298458697
1.0136528120433352
1.2164263107204025
1.434349640548715
2.412492883397792
1.6028655055087613
1.681518401287777
1.5272207180335298
-0.642235082580488
0.9514233647997662
0.06949104564784551
1.7040717698724726
0.19288165335704013
1.4072278318418845
2.4790033734662815
1.2577234640676407
1.8261607433615556
0.7016891418270239
1.8377617544908216
1.0136528120433352
1.2164263107204025
1.2167693618443596
1.4579601018531165
1.5713735422941555
0.48484034542457244
1.328363864394461
3.467350754255573
0.9714293024790818
2.0634334368302056
-0.24319170379357127
3.4563675336073962
1.1099414079545455
0.16247632136596055
0.4895102100994021
0.7939276495018386
-0.24688622256618487
0.4120223333505218
0.848479691769662
0.043764710095730984
0.6208068888750972
0.39585999672470185
0.5547483875060445
-1.4285722434767674
0.7407608194756874
0.07815167174988015
0.43263972790736077
-0.747004170965421
1.7304044309825204
0.8498489802232042
1.7094193970541036
0.3772785057607711
0.7539623528802297
1.1759826526132626
0.12316872901872301
0.25987397428265
0.9107016636867651
0.33563874941926136
0.0782450407625857
0.3469696302053108
0.6724854311379931
0.9365402225566136
1.7127879822380736
0.6216957526198168
1.096538644292309
-0.3450774772391455
1.7629430849917969
1.505350449765532
3.51596802494127
0.9503482133927562
0.17989938753008236
0.6138468738914851
0.931335434338106
1.2144371579043503
-0.03816092075418775
-0.4157717215160462
1.453897171255719
0.6527877997299154
1.6760434073440205
0.37872480155620664
3.8322958033657994
0.8852869255200844
0.8430623471378123
1.417706362391227
0.48684686325903315
0.6131712537776731
1.8176847396436349
0.9711342805443496
0.5035306077644157
1.3497832686707965
0.7365675695287374
0.7882868073984888
0.6670680425173532
0.14717570534040367
0.5304614716555471
0.3136787058036033
0.905583977050734
-0.5053506462992828
-0.43247469860715165
0.026519066486730043
0.8626506805100453
0.3124361954590415
-0.6116068490609442
-1.5161712304540695
0.5653399385454415
1.6880196435842936
0.9992691466343815
1.200232159730776
0.3856174924162766
-0.48622848907084465
1.668646920186091
3.155807642211393
1.6792017670491661
0.3666633568419795
0.8359700030923499
0.7819300991759532
-0.5559468483254274
0.8029053923497516
-0.22510667954319402
1.4843361059724012
1.5562019792968016
-0.19864858792649523
2.0921054501361884
2.5856468680190097
1.0475998390008259
1.5737615212243126
0.020848565063623408
-0.4755460794027615
1.4832960202258618
1.0356677875064484
0.7848502310623909
0.7122973102138034
2.8181984437302403
1.1920532037578524
1.4020291918574297
-0.33319426408277475
0.06944894731664614
0.7949020639870197
0.7084170836049347
-0.22658883730660703
1.0869417848601823
1.808474495850036
0.9252282480243218
0.6756696371330626
0.4187249937313236
0.0928533696256601
0.8489153163263025
0.9760799940356724
0.31320624056370444
0.7953433137116274
1.7612235491686223
0.6335081709567366
1.6806435450338109
1.8092074300699679
0.8761081072692154
-0.2505155393890237
-0.18289604781022376
0.7291293227072
1.6227177113603066
2.000483423535525
0.2333607292908815
1.571424026122137
-0.33923419944911076
1.1940523491239972
0.8947168996560514
0.10012133205675271
0.25435481881019184
0.8473815637411394
2.3714213525782184
1.3227851722516757
0.4277306883308422
1.5093170708003232
-0.2742139175252262
0.21233177017066024
2.2142443098015083
2.8547677023901943
1.3113775037913524
0.8998980703655832
0.14946985911574553
1.1262678500398138
1.097993533302192
0.5864521548623673
0.4636036851887247
1.0620350857607286
1.9513916266243208
0.6559481810913634
2.671249190756318
0.12835550274470023
0.3387853618061312
0.2679604732330958
1.9034913494648327
0.444135204366912
1.9930481656926717
1.0691969063932023
0.035492896015157004
1.151994368987886
0.3200145602239458
0.163419034759467
2.2957379645593368
1.0407923324421628
0.06022351282181577
1.047908867900783
0.7720881933351772
-0.6984998722368516
1.3355943968485757
2.2853660461429515
1.287261467975446
0.9547469047173744
2.327745624320473
-0.20470262976549805
1.1347105266798299
0.7056921985680394
1.2172326427441222
0.998364009433293
0.6089746358042923
0.5800464203596087
-0.2613487481882367
0.934274390935866
2.5444816137672372
0.1492192301115037
1.4047167661993485
0.9410397247655322
0.18670902252299454
-0.08916061568409323
2.0125852801066353
1.032812786643788
1.2307341204020918
0.6140432933205292
0.6579743209141806
-0.33528426306485126
0.6056034870418798
1.3219259923679505
2.2594035979947855
1.4114416311391225
1.7457368117717982
1.2405301783988596
1.3113083726918398
1.208363641253092
0.38761397518902085
1.5840926150290828
0.036937579623345096
-0.6030219937562924
0.4987934191625758
0.30627019365841174
0.27605462711791334
1.882012879818204
0.8506413837045435
0.3343438957851422
1.6410977815758927
-0.15379349365327816
1.4859076556615274
1.8800089553924355
0.9797778292141699
2.1850298131088595
1.9895468835203314
1.333061642465601
1.6993758866663133
1.0511415508801938
1.768817874871909
0.9703263640288009
1.4937265237331565
-0.4869696961575689
1.5795496414158905
1.377008246493963
3.282270934913357
2.53983123307601
1.3399289494415416
0.31056391425493984
1.6989804220717064
1.365542965496009
2.6141832100735956
1.9310325993811353
1.4619682150096192
1.7279031472772433
2.205990156024778
1.4762001463314234
0.6913609913469683
1.90334253899905
1.4499109996493709
1.369060922201655
2.1564020490106897
1.1115175014745615
0.40495228422746704
0.3658118130758135
0.4914551773854799
1.294361521230003
1.520701651858035
-0.11216488512865291
1.9407956138294105
0.7742977683148775
1.421727742341344
0.20222093030028196
1.68076083045122
1.4327214689159407
1.7232966567055652
0.931960489948262
0.9858766518494564
-0.4224069388944582
1.5430188636404176
1.1693916970052605
0.33572474340017994
2.6698895906593036
1.5492030552059843
0.3965041554359173
-1.0642859431066927
0.2969574734860658
0.35764281569691286
0.5286329164431824
0.33319926156897023
1.1513604548050114
1.9450599613620687
0.07056892069565164
1.7490661087275186
-0.06416382119525255
0.5720955718034278
0.4596261363375672
1.5143178681855451
-0.055240825465567044
1.8531980825871248
1.9972348555763868
1.3084524402450834
0.46062156787666564
0.6186302208263778
0.15178282473650606
0.6759695617049527
1.0377532459943393
0.20997428514904762
0.6456497489564027
1.5915893693496816
1.8884861628858858
1.6063821713068243
1.0475912776248637
1.499207800170193
0.44379833196544094
1.1042317284712087
0.05626262051567078
-0.003569366760260696
2.7075392297211103
1.4441041825322065
0.07805583292707627
3.0399247000350416
-0.5599375606977093
1.8175699718282463
3.1778546439890065
1.1982221915158504
0.8259378520128277
0.4201462974908153
0.9089251898895169
1.320843618128839
1.625601044373256
0.3590889497322649
1.2038950384210785
2.8632833046183843
1.7567460569677975
4.105740136116643
1.21444810731563
1.0920003022725575
1.9095696520195087
1.1877032889769403
1.4340144087689628
1.5434306968111948
0.6549544090137935
1.780613783821833
1.3176074645438103
0.35330599163615894
0.7947669739337309
2.2359747743113902
0.8669284449716518
1.6163569558894044
2.305336859064213
1.7012560526277258
1.766254332376461
1.6855901033773186
0.9009984764939591
0.4741080830811867
1.3347223235881112
1.2388528071368616
1.4849333392787638
-0.4178507912146061
1.7296567074322484
0.19809400838106234
4.598349556768022
0.9161823162528474
0.5907773215491967
3.449902104150503
0.8577204028614454
3.0120988987176145
0.34300052183557217
0.6129804336317484
0.6581959008970747
1.1577686632927164
1.691948695073343
2.523647772768703
1.6390175921692525
0.1360851094268717
1.4342990596689131
1.1895647982208282
1.4934216407710443
1.0996265154582663
2.0149327527400014
1.4133266473358987
0.23523193458630026
1.1125828800797573
1.2565210804090936
1.4825778803739451
1.1140501900838502
1.9750605007997892
2.964186499664858
0.4226746467209468
1.5646002991613104
0.8974454820582904
0.8509585502582675
0.5035816291683501
0.7850522164561441
2.437718542803717
0.3784648133167597
3.1577202552328467
0.546540259886404
1.915691414186353
0.9936203065333193
3.2098301420345643
2.627372109336252
2.443439580813897
1.7512393339374612
0.2497520255743495
1.5749796685899358
2.9927387360615927
1.0435233297634585
0.9702596401384885
1.2946727696736282
1.2419305420157865
2.0218079536781377
1.092067810333511
2.5722628161779597
2.6570833698395178
2.135697767590989
1.9658616674392395
0.46125322163875165
1.9102250307482063
1.3721350491299233
0.8659112267796824
3.759839570387772
1.0495911173255186
1.5200274886468963
0.7150382235632724
2.1536641965781964
-0.2144676614216265
1.0181068380602578
0.821698982418546
0.751887974391343
-1.86646209149446
-1.161543140049332
1.7082557837863876
0.6939879431779656
0.9950272059571064
0.28903347187759526
0.6451592923552907
1.1650899778632982
0.7768762066025672
0.6622653087137473
1.1965550759506824
1.0420674743201208
0.2235774365620514
1.3331107032907972
0.3666298499797842
0.25972101274802945
0.8588407302630777
0.5712805046824138
0.7620308530030007
0.521002891270487
1.087854010101814
1.5922973886946434
0.7100648308147794
0.133474389975735
0.7381600833253428
1.1377944800706117
0.9325292067373804
-0.25046023160576786
1.9260585690051242
1.2109876523545142
1.9415041111680242
-0.0845323956967925
0.8074337519063166
2.227557613259575
0.6869811445953495
1.6203133655700945
0.9618161427954895
1.0840673123775777
2.1308293165604515
0.26977800751747394
0.77662842220079
1.9588258174728863
0.8925830073954651
1.5932842234412128
1.3835189286749325
0.5099965124127421
0.3095664422828578
2.579081694949021
1.5076911994719377
1.0675030283077178
0.48825401675269153
1.114104149962128
0.61774618174558
0.6849703288977751
1.921681316430707
1.8106780517441754
0.15634706323784509
1.5574465728097833
0.6993380184488822
2.0633642438825603
1.7357958494866865
1.0319569307352718
0.8575707743374067
1.185131221686496
-0.1735037859801475
0.9991778333918903
0.30895065093912083
1.4315494483518898
2.3948537545919586
1.8403025759440024
1.7081743486970034
3.2206392435387423
1.2735291256446943
1.1442811654907852
0.46092257535643194
0.5143861021700862
-0.9152753017357763
0.3757599081766614
0.5124988388391655
0.4549204684188813
1.123054167204894
-0.6315125533035031
1.4714579026720878
1.117294961746962
1.516802863753047
1.5596975918801206
0.5984748268214105
1.1307308954326825
1.9139059382425727
2.192059576411402
1.6556528005582354
1.2997107142764568
1.5129703954651512
0.8010113193329061
0.5407406109771378
1.5305237943877812
2.1576785542244963
0.5880572649808626
0.9009737033511874
-0.09367176679882219
1.7087685795598195
1.3436321677308047
3.5194906339834287
1.5895825777038648
0.7866199334138672
1.1455374867495522
0.18568897182173416
1.4041226464750562
1.9357561366523903
2.0471660833280882
3.2339185677475557
0.7890927348424244
2.599492624431377
1.8016613360642735
0.8640748435912289
1.0516375929161057
1.537442410413828
0.7166846266367601
2.4894660473933823
1.189965009844338
0.03659335662847107
1.3635070325916252
0.5728452814682441
2.6668430309252718
2.044973154499212
0.02030593740225109
0.9450240997761088
1.4562793872240345
2.2325137357962386
1.6529163603412012
2.2339921494003065
1.2408956090525474
2.8054162594517758
1.4005967165746285
0.3827816977905956
1.6027534409377537
0.9466910885705774
0.9316167847511218
0.7184487521632216
0.8227701500115975
1.373409356345435
2.3302039604042917
2.683251737995383
0.7320352676353714
1.2331657458471714
1.4439313691213747
1.916295044865325
0.6911314854040986
2.6374492807699697
0.5991768821223453
3.7541828170860465
1.8582631051005076
1.3487316955478756
1.2676118028037107
2.768199148938345
0.7135635769152225
0.15336250902720394
0.7866912158331526
2.6011625403493057
1.7299129393321375
4.164154516589777
1.2318249284358418
0.9224012824997616
1.5212185431851963
0.7670000774752682
1.522404027453499
1.0269632390243777
2.2800646308310384
1.8318460638238336
0.3481133934657749
1.3371571144337218
2.2723716418219473
0.9195485963181538
1.3588042032923113
3.3198056633310533
1.7240773283180604
1.023388738274824
3.3662629949144653
0.7491466785283141
1.4273499914357588
2.2469603992018117
-0.16231028142000853
1.3957124777351604
2.1039872503108414
0.7476038505974484
1.8774619698803738
1.4357405885148424
0.7207666838072608
1.6142118600898023
1.2991369486601982
0.824731731754347
1.8594883970636271
2.157219439523418
1.2999245135553823
0.5761564283771952
-0.34399674640732275
0.9548112228532993
1.925307327929454
1.6417175166211049
0.06393584255164216
1.8570894217273126
1.2617076747454288
0.5973286908719307
0.8543416952974694
0.979216877379335
2.7645236270002918
2.5926650958988806
0.8936365773321598
1.8941902929941732
1.3837212487710473
0.17244237387274683
1.2667583959810411
1.3756481052717868
1.232986346541793
0.5325587760974169
2.905950060759362
0.667779633583228
0.941968895735283
1.3186442405034642
3.402544071237698
2.1053032280698516
0.7451209261316553
1.4835399199350245
1.961661331272055
2.0718974676691837
1.3538439605841937
1.5118657404835638
2.926600119520128
1.4634286473893374
0.7831333901987033
1.5346066753728416
1.9122394156755234
1.320525691820005
0.8650019925594092
1.7185187329194886
1.7736523858626676
1.414023452536295
3.1196542873936908
0.9972343219793006
0.6573674336038849
1.0222355607275446
1.6494154275865827
2.633795287807052
1.4682258971888291
0.8977100924488883
2.287576934260965
1.923701123127081
2.3654138852533793
1.5677898453697299
2.4238473465434387
1.1317824769996083
2.515617307455204
1.8307572979855364
1.1139012495069032
1.3426516199751533
4.054608904606388
0.870618269154085
1.7572293481869945
0.7113906853756264
1.838689805586105
2.746803783513342
1.4682275497762056
2.1090288083512103
0.8771260733108209
1.7240699336536862
0.8080859128465833
2.883591183627636
0.8298331146083888
1.8610895498551379
0.2889462097023835
1.254267656709078
1.0523150440929325
0.839110700855067
2.079085189086604
0.48824782479021145
3.2151284967130205
0.3485715283807601
0.839790586236405
2.9536792308864563
0.5828452618721135
1.1281412999962288
0.8045106121224187
1.366141016118931
2.336191703119009
0.8944908103326006
1.5877363894695524
3.0026844838766276
1.4684326405432633
2.553350540047444
1.1232079846173961
-0.007072817408358236
1.7356116601478475
1.9274020798600782
1.6155865302094572
0.0553022981622412
1.8147741831778226
1.3623236473607925
-0.202730858251992
0.06441486089043437
1.3078994341925572
0.6418652238456185
1.2937928878431602
0.626229063216783
1.159284317908325
1.3505186844449846
-0.5322201815827642
2.41674747689118
1.0978092113486384
1.6571797057949502
2.7628091158857804
1.1217447206237452
1.7347706957384814
1.4754427830993504
1.6632990563405612
2.4507318576815145
1.0377394714888621
3.1158966023217882
2.9055491487854748
3.656176853500133
1.6211140103899147
0.6021542465999479
0.7590826633906059
1.4070397763119398
2.175138120468301
1.640371453514672
2.3729272999311095
4.411913835147568
3.134898603450673
0.9868207789511321
1.6539741837129918
1.1907651021769725
1.3664393105758175
-0.9905217215386303
2.505231184062589
0.14881167475788806
1.5722623132058333
0.7292281589543618
0.9461063880053282
0.43267785753325616
1.8224713257681768
1.3168470442071873
2.430082793805729
1.5375191621938766
0.48473570481827005
1.242922984255462
2.106084931595404
1.640300294364086
1.5105271706991465
1.8550084293758209
2.1033214576040185
1.2976439399151247
1.7352025938413214
2.9405876767377355
1.7929750891042846
1.3012475128156762
2.1601285581074086
-0.4307768266623329
1.6442160385762703
2.5525376622176763
2.0749394031906836
2.4661436147961684
0.390712143572369
1.5998521287129754
1.8005593690216903
2.704131299415081
2.588928905361449
1.648749939217421
0.8047559551712857
2.6735630825611603
0.322226679577889
1.8823123770564214
2.7020526240967677
2.769202741508321
3.3498608211997407
1.696226086102366
1.1968234754640799
1.209466220409987
0.8531697999827995
0.673825165584679
1.2280163128398907
0.8887200937692922
1.8191287897565878
0.6018870415544856
0.9740688590526008
2.011931248173782
1.5888349836983364
2.463550022020257
1.7352614142235725
6.305760182357201E-4
1.448665680513479
2.6866723438586617
2.8095964109319223
3.426728747977512
2.973500444043147
1.962552420495573
1.7450545479223887
2.337431600113025
4.8536910874284125
2.6728628224722515
2.5001801794640075
1.3427625505081662
2.855170977974968
1.5838890454244552
1.059237314904165
2.1717773790820925
2.0806178889073776
2.4205781706715945
3.806859954409237
1.9340320037496743
1.9801206318150615
0.7576364329921583
1.6278593007981246
2.1576927541036715
1.3486106390040877
1.7679110468937602
2.2043935491682025
1.4290465837818278
1.9131653645598092
4.229409861947768
2.014865172718713
0.9000777035793529
1.0801142228417262
1.0593895884201718
1.3432785904596392
1.0547495826176516
1.0547495826176516
1.169834589258481
0.9170196189642792
1.3432785904596392
0.9000777035793529
1.0593895884201718
1.2863021939510102
1.169834589258481
1.3233378219916727
-0.6226987844289091
1.015870788823951
0.06839954149729462
-0.05068179347256872
0.9518106178038506
-0.6623578799761531
1.5030928950794766
3.370037269759092
1.634189840462924
0.1379550571119159
0.34281844670990447
0.8786431653611124
1.5876466319359575
2.990906527819031
1.7696391391889261
0.5717299046358506
0.7077886301082281
0.7999733885980144
0.32911611934913076
1.0567130398231845
2.5794711007609537
1.1656080181821096
2.82569681779374
1.3064419003677687
1.1836343034599517
-0.6492837373901273
1.2026052716058109
0.3453485946840372
0.5170082505319122
0.8530695306441216
1.7794358107097488
-0.5892225589056466
-0.24991285400014962
0.48636741396141137
-0.5043459863980732
0.9609895585516
-0.6055037584043189
-0.5727986288479471
-1.1158973749596592
1.323316575288028
1.8954196587697854
1.476709945819028
1.2592944103278094
1.448341257015196
1.1026433039750863
2.399095262206729
0.8163411242594482
2.5889214539937853
1.7008748331489885
1.1695789852017626
1.473498504868577
0.9357962715915047
1.500411699991819
2.297311043722801
1.4938249913872639
0.4982611414784267
-0.22442948680623415
2.7910498917682927
0.6874390236249521
2.1204841603260176
0.9543448157905859
1.932562333371114
1.080696817069892
1.362292485357372
0.9987139617979193
1.6952040361239158
1.3058309243893307
1.4845639510218298
1.9224715862943094
0.8324275144430487
0.32762477007062973
-0.0035287819698540317
0.6225475496215856
0.2406166555116578
1.052322272189619
0.6544840088755137
0.19879317599820923
0.5745175236244252
0.7536208134439171
0.21065875759570396
0.12108053138086863
0.23819055325841662
0.2557949667188057
0.6427820282322196
1.4151593203566437
-0.15422828093855181
-0.37292342581364446
1.7128250460658137
1.7793127022173851
2.186438977853119
0.7009157095034252
0.9279028261919712
2.0679424449265107
0.28366798663820925
1.7506059335225421
1.4042015954877656
1.904130946532082
1.2054876308583595
1.653222616953809
2.797593515467667
1.3413412659157853
1.6530492883945753
2.2102895301762775
1.273996217201596
2.54679571599734
1.639820956464737
-0.11934577486545095
0.732050729049908
1.3084546859456172
-0.26969402649353763
3.2916491402219314
1.9450895013824159
0.9370414442723212
0.6548467252241471
0.8397465099602855
2.0363569314331853
2.812570308222474
3.0030582610169887
1.4792392664183631
0.8157555034687615
0.7123736354537082
0.6511071180630055
0.9225114679471198
1.5350381204899635
1.6908043351684714
0.6888644300436119
0.6038648199588299
1.0514362225236675
1.737430750518412
1.3613565141286845
-0.06616508191677022
0.04960447437546686
3.528060244304888
3.276467014597854
0.43682602941942966
2.4105074268532656
0.9530983050251518
1.493212398760556
0.5139671115264918
-0.4946830697514685
1.3357789957204245
0.09638933530316783
1.3101857651941302
0.652198580577817
-0.9288441439562765
0.6414232455568034
1.199444744845562
1.254412068435482
0.4499968557993487
2.4775066121380336
1.100334254183
2.3726316677503
1.2196590218295436
0.8180747443856363
1.6835371410262392
0.8458760310706007
2.4291390796476002
1.8523036559122947
0.4190952244379077
1.0174119402858486
1.7096659507743215
1.3979475973059012
0.7781996590797289
0.7601473754375259
1.2998901408589905
0.8294755314017445
1.2878981685233228
1.664911529719794
0.9506379753644851
0.8991838204292198
0.7296908474645281
0.4876462970764497
1.0705734046600421
0.7196191138308821
0.7891144560134633
1.4413172850373788
2.067728569334433
0.06326045278755005
1.314885482817268
0.5638100535151933
1.5367672238785761
0.7411247697162979
1.1304280499398849
-0.11441412724373046
2.1365002772081034
1.5622273986042532
2.499524843815601
2.4570549540694584
1.9918666404925356
1.0726515342127894
3.679891742579461
0.9573132317161067
2.1830752330226417
2.54375112225757
0.4566745186499741
2.3837725802387815
3.1922562588260845
0.931118284148135
1.1430234110888753
1.7442391265007984
0.9332636696004029
0.6267278664885817
1.6513409168994126
1.5128700961599006
1.7002921061427894
1.8680381128016323
1.8312203349561638
1.1033969708949078
2.1314528553818435
1.568696648343888
0.9105033525086852
1.182091807696842
1.3496946349903096
0.8529662765898276
1.1110943160927476
0.8948100833882435
1.2295271519539537
0.9099784043800483
0.44485418843032554
0.973830763447193
1.1338814935237636
1.4626683653062282
0.46871035284133833
1.27706931654305
2.4353331000372895
1.3606764626852597
2.370882261116217
1.5208518210711464
0.7372860965863066
1.3565347263967344
1.5303349321344295
1.5401699792904486
1.207726227605711
1.0607366743868196
2.140304771071221
0.6383691939224373
1.1942078704013592
1.3639554268333591
0.22977678867840468
1.3345910119910567
2.5151944217062474
0.5728513883668874
0.8009720123285786
1.7803796132897125
0.9510439668392884
0.4424300840680887
0.03044354181700815
2.2051380585449754
0.9694835526950837
0.9272672874504329
1.14869913515192
1.2899938259195134
1.2723385140675865
0.599377802376011
1.3633593424883947
2.3449156107024534
1.1116299629962298
1.7357929703860218
0.7868336184827697
0.9674729918368726
0.7465912170184689
1.3635456955833942
0.8790636987838294
1.8909996373963622
0.7785456263990894
1.8003795512770602
1.0079644037212936
1.984727315950364
0.8009720123285786
1.7803796132897125
1.1509157733130142
1.5836219473929047
1.080189414446765
1.2129497137996528
1.2896508766520294
1.2981228355613736
1.1370217815327204
1.9507097606283308
1.1599770783438799
1.675106211909558
0.9510439668392884
0.4424300840680887
1.510439450170007
1.6526150513886884
0.7868336184827697
0.9674729918368726
0.9239193849069549
2.1827323009928716
2.1146908414613055
2.864138975614055
1.2388095857872614
1.2769157829283655
1.327529029918711
0.665405879235489
0.9696837414087924
0.874216141594366
0.7324717964317902
-0.8633636353164421
1.608658143468552
1.2952604397595384
1.0283990479043004
0.5812618903321622
0.3902156387349197
0.06533299268111353
0.399859830602669
-1.248700691777887
-0.569852816669471
-1.4647244952534124
1.7993228279543307
0.7513522997037024
1.0036905806993772
1.8752034773463695
2.0799738390767133
0.0020293061740690784
0.11188014511999832
0.0531822474427572
1.0797950294704115
1.5895901548683133
2.3833568920073334
3.0569979081045164
1.1689272549475431
0.6205273000221767
1.2574582745648901
0.43691824047740224
0.6432633480176118
0.05535452829575288
0.6656269103550508
1.0521126369060565
0.9398719234720101
2.4569164852478482
0.9130123513903483
0.5560749031257128
1.3821629588419486
1.343065543315004
2.0798133659786058
-0.354417135635657
0.7260407208740434
1.0006099704360336
1.4755895468630216
1.3407900971181024
1.2328633607103836
1.5930518106147915
0.4352584238880468
2.029329279327056
2.370388020231072
1.4010378157183845
1.1305597020658344
1.6846125871328863
-0.23401923643750336
0.7043679063654499
-1.1047625804504007
0.5184722326946639
1.1109534579483258
-0.20234340800530004
0.12328843292956819
-1.3693976295230046
-0.6278173645078153
-0.5262262738850352
-0.6444655706771549
-1.0391614141938739
-0.6670507399897937
1.4024615454643514
1.0692553641829639
1.101975613589932
-1.1690000309522375
0.9466214989942677
1.111745222973524
0.6176543416922735
0.6661409252582394
0.9669459011481542
0.4850062771469876
1.543974660051718
-0.10985886373863993
2.0870221488042096
1.4325938151933435
1.459894088785925
1.2438215071247365
1.6414706145629745
1.1077593850533942
0.5594545684549082
0.8839533482425895
0.09343110623491634
3.424728913461294
0.0825582642116704
0.041317386422777894
3.889107291943981
2.6354931867087763
1.3039703632203619
1.3472091666911579
1.5902503303805973
2.187450271780809
0.5993586684647854
0.6463436632471249
2.275259394970109
4.192400539287769
3.264087073511197
2.34338352366181
3.1751782893697933
1.5414374501682078
1.8190030809237037
1.3110150148461137
2.5975767361485924
1.1285575238825272
0.7862749400608469
0.3494300865781673
0.12939890618053732
2.067325506478601
1.1039604263744085
1.3876540969501594
1.7200738426815
1.360225167873679
0.8532237906986923
0.9585084468892527
0.18517500534347667
1.0128695927608908
1.553226107614394
0.9714361011592492
1.3339428928762493
1.4098066443360153
1.6220304290208376
1.512357084050353
1.7223708012694785
0.6197075038270604
-0.5762458838825185
1.464079430441417
0.6115401305674012
1.2705032449737035
0.8631327268774118
0.8250704561024661
1.6186097150780887
1.14514150678138
0.16152918231718824
0.8987597381033137
0.9535619254666751
0.8791748571295899
0.7561197365476148
0.8524463091502059
0.7630961988550017
-1.2361195812202246
-0.9184567336474827
1.282225197254149
-0.3084210218206713
0.5624296618071385
-0.026880797010220017
1.1136680395494085
-0.136155658654785
0.413792675136573
0.5329411559232383
0.8108502860247659
1.4291606421936232
0.6404598218472493
0.8620617837339759
1.3059563017739524
0.5231584169791105
-1.7238598024322558
0.8303523716590969
-0.9527558424243764
-1.370365553877461
-0.14356981429548238
1.5030064668420418
0.5521867435581242
-0.31985546170182083
0.9472109853814333
0.40149497708142695
3.4558593687117423
2.5539867590012477
1.040282471968416
0.2721383841694834
-0.12329968148294886
1.197114636151591
0.9745299294800048
0.11389689898688453
0.6985755558083244
-0.6341961111510156
0.3772723210163478
0.9556817478174131
-0.25914484984806824
0.2264376020175021
1.129094643940483
0.7339454123690641
0.021635291290841036
1.332833378813318
0.5502606113367101
-0.19711162270153035
2.6282022126440783
1.5381574094109434
1.544511829398659
1.0110704365928136
2.035279923588776
1.0505220115936726
1.8111351119027073
2.4089115055269223
0.010535013753273063
0.084871036088111
4.789779263636831
0.8057537466153346
4.461939523334899
0.9047786040094274
0.7818603877912859
1.043257123360395
0.9901902351896371
0.6064156246601003
2.401043316693885
-0.4729985225798205
1.3530909174090153
1.3467946202378054
1.83580180372394
1.950049189474076
-0.09716917278997621
1.0542803775732195
0.40008891002642394
1.1232298252303903
1.202217853226385
1.936806478314674
-0.107317468326596
0.45076379747732026
0.8332723560032729
1.8262672045743171
-0.19911883172069836
1.4778230641904058
-0.9707293582467382
0.902928073305618
1.6342106824839675
1.971088304346225
0.7270589743956659
0.28706726962152923
2.0655344508118985
0.5954939215159643
0.9825400620402636
2.979741105409164
0.8042918975923979
0.3200678285821292
4.239580287245837
0.31209305964799555
2.131215655834143
2.961165676010855
1.5515393060911475
2.5922463356252288
3.7025773928683594
3.206314305501016
1.9346500965513644
3.6114253438839268
1.289859365828774
1.2569883542623528
2.422348509025432
1.5073048217676381
1.2909131069902804
0.9775072203891417
0.6934479842532197
2.310315094007796
0.7592317247205856
0.7571925173081573
0.8558566551994098
0.15468042106203647
1.1765244305391098
1.18888276290282
0.9658234319041625
-0.16678447732697307
1.5073817030252834
2.4289083709404125
1.4542198868694596
1.270677891222728
1.2413466074342563
2.8424598885689245
1.134535775189269
1.8333714810461503
1.1247957512482043
2.174120771731332
3.3106934530782453
0.6278381698909132
2.003393794484071
1.0977919239186764
1.427223189146999
0.1515597671694774
1.1067482534646134
1.5579695563229146
1.729564305605052
2.051104161580647
1.938896621998401
1.0483000665008841
0.7742249508495693
1.6629506844123318
1.7063253718747438
2.3871428810206647
0.47858650208732545
0.9904932787297037
2.3327490852754265
1.998633781524222
0.7954890703955565
0.6979860576225356
2.051673555895809
1.9479369915505094
1.4209972082435138
0.9240801838715826
1.525397866777437
0.4980328477780631
3.9041722673903747
1.248395658702391
1.4797807382743438
1.683130642194887
1.9105786281216481
3.8752615108297928
1.2470868509777744
1.4707728616369784
2.496699344664884
1.7337054149789985
1.634310151651355
1.1551515753337958
2.328624621469406
1.8139202265648962
1.711668974663303
2.620800554594657
0.5701961984351199
4.247125718600951
2.5473486397029084
1.6588231215821228
1.9827843339550526
2.315227200099816
2.5308895760854577
1.6852596685605643
1.782150523832694
1.432162738774605
3.0385542353583723
1.2179218985799354
0.5014110750534574
1.2375762142757667
0.7485506605164143
1.3156634429026592
1.5766384594982967
-0.5125368029105829
0.923573936904506
-0.7855759728869606
1.0659645730211222
1.1743623708035626
0.9989234056896501
1.34668513619629
2.602838674018036
1.204054006474756
1.6126318936221096
-0.037336678039141216
1.7545713468576005
3.421275397425904
1.8528233410067696
0.7784810409567866
2.338490190796341
0.22688491697944663
2.4990280917446506
1.3007961285881797
2.3857223853543736
1.9344352499305972
0.5065646515397139
1.9530987713742616
1.982947672278044
1.4099103752019808
2.926370993290574
1.0043156766688317
1.890129663399149
1.255558140485708
1.0624258255219519
0.7283237854685316
2.2338668547333427
3.308014523547092
1.4909958057568953
1.8010703529423508
1.8091583609810702
3.785162030530348
2.461624240503668
2.1347265605465755
0.7940177162314335
1.531388397799151
2.214997599899984
0.7354246704834106
2.3854314311144926
1.8499090687329083
1.723556151345913
0.5502786479290555
1.5666265468095129
2.390263648105158
1.4748718263709573
1.4436208359296046
3.062994917329882
1.1087068011037238
1.0686976795259056
1.8636750339615769
1.9232464447574689
0.26644720269932637
1.255421485921179
0.9949147598394346
0.7310856827414222
1.0766946196851566
0.684834838129313
1.3310211199891429
0.7348397658284069
1.8118969374817562
-0.462721687020317
0.769459381991358
1.6185534990463006
0.5802866098832791
0.3850342894300189
2.1258468096417045
1.6957764606003887
1.3877950642304822
-0.23540141682353047
0.25344899941668736
-0.3443583689307642
-0.019557093050875846
0.911988899787269
-0.1634894008310192
1.4516193837456437
0.021414782367454636
2.232795729166197
0.3675004106606564
1.066816412493552
1.4573089221757736
0.9671829347904667
1.839679982744801
2.09225641672874
1.296541923498753
1.4970983383725822
1.7294097314313326
1.5358001170596878
1.328564873883524
1.1115040893499606
0.9701809353500026
0.47649365513317615
2.275121484474419
2.709831415797485
0.4442695542931017
0.4097034059007193
0.8593126786972768
2.4593958399659464
1.6545189817888266
0.10442060095557418
1.668486772917515
2.4133447408182738
2.6189357995315024
1.586258499584395
1.9027069063156785
1.1461696362107678
1.9798665444713173
1.5003159337801437
1.8656765518407754
2.697307076013117
0.6474207180462328
1.6430433715568142
0.5343416778691891
1.112967435520069
0.6890999722274623
0.8101684761975555
1.1792022908402655
0.818796830291509
1.930074594013671
0.10890108024638785
1.7574218912068884
0.9615567888162251
0.6890999722274623
0.8101684761975555
1.884088478311013
0.9160808674543149
2.269832906103118
1.0837625396748483
1.160273551645869
2.3179735844173854
3.0462268037623588
3.578143347983684
1.5955612875263727
1.9402790686495566
2.9823668468766322
1.5252201308923894
1.9910415845689862
1.7128332086359839
1.9339710429496138
1.3524699731831207
0.34602742249042034
0.4284320976506152
1.8965754429132926
1.7709515145474441
1.1423591068167387
0.9216731591530656
1.4700975058550096
1.8604039994879606
2.508259120196576
1.4357491652872094
1.748535091980423
1.3238483880070508
3.9384568160113527
0.6789203734585283
1.7627531360967026
0.8829455452254723
1.3589975986138751
1.8836538191097347
2.124938189781158
2.095305053148651
1.986438636318437
0.759351998854767
2.1516595803894916
3.077911573472291
1.3665418986385245
1.541472782717241
1.5278251100117366
1.5835153780629878
1.8139779403191614
0.759351998854767
2.1273943897223373
2.1042368645736644
1.2124615716382505
1.398295425752151
1.4794851734966807
1.3931791763855887
1.1350597762580252
0.8113396346716211
0.35826904344462673
2.1484630708418084
1.4716774536706871
1.009456957949008
0.48972253660909004
0.3509037652139311
1.4813489310388734
1.3292909167260134
0.0306304644193422
1.1885860717483556
1.3004630202841632
0.5283173254225915
1.0479438184953387
0.7494936890688053
0.2890584636744649
1.3436393735087013
1.572337283603523
0.6786693214872395
2.2103918370155538
1.9513532526052746
0.6219277449002091
1.0872377003969298
1.3786457899441387
1.273728676459596
0.7309473003245506
0.9897475522063924
0.29291010892774366
1.4602106786261786
-1.5593240867920495
1.5697065261452148
0.6761962708728141
1.1147354117559771
1.3661313751440174
1.3578764777972774
1.7824622149023737
0.7284749123901958
0.14722407037598215
0.49743659740376833
1.0805757014035262
1.3327536030856002
0.881735202277394
0.49000363030969946
0.6924298590241182
1.0794442974314633
0.9866209968427442
1.0026575126692636
-0.19809283961191784
-0.36398995945707235
1.9484600346574954
1.4431756592598972
1.025958684436949
0.5733835373864218
1.1979277712177598
1.141149671567364
1.323760177289764
1.2208454030035416
1.5029849676819529
0.43151566228834276
0.35381994528969596
0.7547751165258031
2.648897344281268
1.2206525782651232
1.6441517664025223
0.15162164815247114
1.1190389322810328
1.8249254432339486
3.753779748885421
1.2172113990358795
1.197656062449502
1.229267198486329
1.2629404437498686
1.7635270845814492
1.8484247158839024
0.43859585507472426
0.5671573778078485
2.3637462793012505
1.0680465051364256
2.2094514512383063
1.274388587941896
-0.04149672519132013
2.947587529446989
0.7057969855055226
0.8607524532021793
1.4180074638282705
0.8090829549464184
1.2081774601637845
0.9481131733458211
1.3262240668602392
1.2816791016991511
3.163836593250172
0.7090307099809305
1.2814166834831335
0.9837710250164584
0.9607381227658279
1.342230341702097
0.4699089450438209
4.582716582486826
1.046934703114945
1.4829192507749884
1.473484946085676
0.7278935819452546
2.520223757233409
3.4759996122098866
1.4161038388944183
0.712664071657209
0.3111139756819599
1.1571771650167015
0.22893514136381848
0.6315117986507697
0.7745859516593798
1.6225058870823983
1.8600787762943152
0.09287787481365836
1.4518277939029935
2.4307786581836397
2.2254691765637813
0.8714513931159033
0.28816817650464244
0.9436743026715639
1.3963230953117214
1.7852908919744828
1.4282225227437035
0.4212896799628062
1.448027453944871
1.3806966933921898
1.9499400788968435
1.9092754215494727
1.7103277668181092
1.8505771676854113
1.152916134770258
1.602706647848073
1.3214214996874372
0.7408946076052825
0.9201139944776016
1.864456649487102
3.7391336452501043
1.5294751123576105
1.879315830672271
1.471330231177504
1.5521390175143042
0.9081112898363831
1.9162936348799802
1.8900358647125877
1.536657234892205
0.9074101369815735
1.2678663443957015
1.4219899927270325
1.1260559942391273
-0.24011117415322802
0.80344890070641
2.30312609350229
1.027874701139653
1.9799941747801215
1.2584302846725888
1.978102608836906
1.3947140887262535
1.5734651968132123
1.9597828359796414
1.187522419845165
1.902950341358168
1.746696039972663
2.0064415094577086
0.6168474941080626
1.0005145993836768
1.52971015675097
1.2201194519774103
0.6371153477843996
3.598929561828337
1.2101809328968045
1.0872795971802067
3.497646987366532
1.2585237015719661
1.812556956646531
1.4187675253803431
-0.37321161394592817
1.374482957721085
1.3531634061476532
1.0213282389525564
1.2352212764645916
1.0440266078650857
2.855920266573917
1.6419926437672259
1.187618011111354
2.1515314028872763
4.333453804791831
1.078145463956277
0.34301045574611383
1.4817793154731362
2.261110225747674
1.2790616140807956
1.0863823063147608
1.8056446911415729
1.4589310931657158
1.5136806718682092
2.3794099308642864
1.3078549085187903
2.023253109735591
0.47324969842484493
2.6503988777818916
0.642546259279765
2.0869374100409908
1.8982652793922132
1.4305821624307324
2.20919226456404
1.7010228017870936
2.3683073059364297
-0.02672293726578641
0.7535434487731328
1.8797689859404807
2.1806952584433374
0.33610041934351303
1.1281761137511175
1.2073535845720862
1.1429744184598107
0.7961966899214626
1.6373385662318083
0.3945350207349701
2.836994467577742
0.482288049103067
0.9476079947675246
2.0995362715004777
2.4068106731334353
2.4913978977780262
1.6814308901291493
2.451449499055361
0.8840475290360156
1.9835436818945815
1.4561036408999055
2.0021139893307596
2.3169489274038786
1.8899969832662349
2.8151168409116334
-0.40654536076775105
2.3138301197726605
2.9213917260821374
1.9288895835472302
1.658107056513897
1.3441842126120376
1.7383730885180202
0.9646775137523484
1.7345269333473574
0.8683408101459774
0.2293901016884801
0.8964692951952117
2.5082223561657218
1.162258560920864
0.4878777999313378
1.2585037315579397
1.35811111945263
2.9339961851165075
0.30752005390384957
0.845924551533233
2.9766172630572068
-1.8162322674111742
0.29843752382904715
-0.1863100726729483
1.8785670082047479
2.052494039798206
1.7104616669699535
1.786172913459105
2.1288545500642035
1.9724300125777712
2.115917143911312
3.498209244002723
1.356572881555186
1.3737649081462089
1.7706895548526147
2.0719118409427035
1.0146936214606515
3.694404328479916
0.18606450697236498
0.9940704416034781
1.1066124599071665
1.9130289432008334
0.9571528339715365
1.541356441693693
0.87156096365146
1.0775488958413943
1.6074494809656292
0.8969944524935004
2.766538473987171
1.5681230864347704
2.10228089388627
1.8481079868331245
3.6108107989054963
1.5370597923026397
2.612429435256611
1.4787749173805438
1.2686203932988531
0.2916138032712496
0.8518867691378019
1.2080573936124546
2.41439699065163
1.5070225431690465
1.4155463777441843
1.9501805394089267
1.7080543512607915
2.571988302026723
1.6194751248035337
1.2876913181593335
1.3161713220422324
2.6204814804391012
1.4088673725825944
0.3666496266652119
0.3921608930096497
0.8958099608058077
1.444042391675554
0.6929961435649846
0.6079176071767532
1.3229613347418379
1.8592466391529858
1.013317042067105
1.6363020439073988
1.0529775856405879
1.444042391675554
0.6929961435649846
1.3336016665828754
1.2678266983725193
1.9412853937044316
2.2350254488868537
2.4265828098215234
2.0601334437928114
0.777136523353879
1.249945931787441
1.52383265654157
0.38005893615524683
0.8731188522791945
2.3621650683777693
2.12877613442901
2.1785116833533875
0.7190950286690677
3.1098536218672033
1.2150329102031863
0.9179767458974967
2.1201875208595027
1.4028463921640462
1.4404860230889895
1.4769740378131486
0.7439466740936693
1.5247871061987637
1.4077027243503966
0.9446312179386726
1.4788269990318927
1.3465378814318818
1.160035770715287
1.097193817171705
1.7259362302083676
1.5047312197055482
1.7472020760855416
1.5924085070272864
0.5158923306356668
1.1547880307960203
0.3251605504579352
1.3854849716648792
2.532614396734135
1.0533921174752554
1.502383540295262
2.8678683911078777
1.2187095133839667
1.584727417258125
1.4808157899391925
0.7952144894180384
1.4808157899391925
0.7952144894180384
1.5802465212132009
1.755116563276485
0.9599811004067591
1.1927175189766384
4.169907430732207
1.5893749979238827
2.079596246485071
1.0307164302693654
1.2810387430163779
1.2855098603467234
2.531026390076853
1.9399257555004519
1.5464446359336688
1.4188283726619955
2.00329892600244
0.8067309198022323
1.2724431996564924
0.8573780434178926
1.2323810041886236
1.3523531177052817
1.2724431996564924
1.0103574685776693
0.8733612791436828
1.0960960675012477
2.1952328451308167
0.935388925814407
1.089236731029365
2.31052935495623
1.3578516756416004
1.1418398510287044
1.7756165990462822
0.83935015759253
1.2585734546583935
1.0307164302693654
1.6535766526570574
0.83935015759253
1.5163530699544152
1.7261496114638
1.665351738105711
1.7576724349445814
1.4113830567506465
2.5129643590174138
1.1196255483427078
1.540544127221222
3.3203284045173667
1.5691225872979484
-0.6491116891205352
1.3341523958432375
0.8066923138342942
1.3287263375865237
-3.6913006939519737
0.37113113604528
-0.710665922027584
0.7199394042765235
-0.609144949646589
-1.1879203402754492
-0.29296737284814584
-0.525852536670553
-1.988492071384627
-1.0005079267779295
0.9446477834288797
0.8196563130109402
1.0840306105668973
1.2136069780947623
1.3384220660005892
0.8151335065810541
0.9124223873332608
0.6790151385978818
1.6003252715118996
1.933153971253034
-0.1593192634809503
1.1954913662564013
0.5903960273162255
1.389833049917359
0.4542013653986765
1.1219516372146616
1.1894236314281048
0.7821490955942061
0.6805387300499368
0.3327637086557511
0.2609207755153841
1.0452584478115123
0.9526411683701507
1.3105207962358787
-0.7551689803303858
1.2667566386710973
-0.013121639415375115
1.2466101560026044
1.1859973137908082
3.161846885681873
0.24470667007637964
1.3009190745917592
0.9914203784352995
1.1589564196565003
1.1552520787528813
0.9073403565350343
0.6554984263295845
0.04046386779626645
1.2932683383809869
0.7722356822148434
1.3229204924668427
0.4524656883367473
0.830883931250361
0.45321370808839284
0.5537511583462605
1.2951579119027097
-0.30890637885720174
0.02367204803371424
1.5414290737998546
0.6217225958351926
0.9128502176525226
0.5568521638825481
0.35179835815218885
0.5692479628293177
1.82499405537668
